9996 16
영화 -0.069514856 -0.07203063 0.09225068 0.016323103 -0.07797282 0.016853953 0.08206078 -0.009255597 0.04400309 -0.05302446 0.025524274 -0.15921496 0.027757037 -0.039588153 -0.0028837072 0.07273405
다 -0.034101408 -0.06430467 0.058386832 -0.01245937 -0.048971865 0.106028505 -0.012451259 0.0005862813 -0.03542445 -0.05198121 0.011757454 0.014439444 0.011930613 -0.01724479 -0.003536794 -0.060023937
고 -0.075093515 0.011774699 0.12418815 -0.10921155 -0.048880924 0.12385388 0.092635415 -0.03497806 -0.08416386 0.07358339 0.029927023 -0.0031816177 -0.04276114 -0.019215457 0.03993915 -0.009514103
하 0.025525935 -0.064406864 -0.024253212 -0.026604889 0.049269617 -0.07871682 -0.04422458 0.009394571 0.017091364 -0.05733889 0.0076190056 0.06816354 -0.04610268 0.029556734 -0.039902084 -0.0063616596
을 0.06144602 -0.0016319368 0.0615962 0.101881064 0.05538168 0.030495347 -0.063749224 -0.01580315 -0.0547107 -0.13414398 -0.048408564 -0.056638066 0.045742474 -0.13592242 -0.05512295 0.08941545
보 -0.11601369 0.014705135 0.10989358 0.14539343 -0.037597097 0.060410216 -0.06849574 -0.0073563075 -0.01648695 -0.0068278625 0.033964343 0.08226686 0.0017932727 -0.09645544 0.079384126 -0.03175287
게 -0.05021059 -0.046479415 0.043021724 0.0067943316 -0.01836422 -0.00043789746 -0.06781591 -0.08087109 0.048011687 0.14528018 -0.07306078 -0.07492963 0.0388659 0.013148539 0.1298868 -0.0523216
지 0.04267067 0.05266691 -0.046181582 0.31936565 -0.0173911 -0.12844317 -0.029410262 -0.05167057 -0.07912889 -0.054199297 -0.041980024 -0.086476356 -0.06419737 -0.058106646 -0.12496298 0.26221314
있 0.0010583062 -0.09250984 -0.0025602859 0.08955092 -0.07569892 0.011670436 0.08353688 -0.061579283 -0.10835836 0.02022966 0.04440394 -0.051211372 0.0764763 0.11840095 0.06896032 -0.008375264
없 0.14926785 0.23996495 -0.22324073 0.25929943 0.08435754 -0.2487688 -0.100356564 -0.15907091 0.13556418 -0.11549545 -0.027610729 -0.23221327 -0.21088865 -0.122074924 -0.11450079 0.083388396
좋 -0.1706395 -0.20843393 0.218869 -0.0063005537 -0.25515047 0.14830858 0.1617928 -0.11198626 -0.10438056 0.2896166 -0.0032839032 0.18693802 0.04747756 0.21648742 0.13755769 0.07299889
나 -0.04918338 -0.0020098821 -0.013208669 -0.13349545 0.021102833 -0.02678553 0.073470704 -0.21075726 0.024070932 0.04722395 0.065471955 -0.0824389 0.018217966 -0.046846535 -0.029181011 0.00035558344
었 -0.03724239 -0.1791939 0.042621363 -0.042313907 0.06538068 -0.072688 0.10445561 0.1337772 0.011364819 0.0041131256 -0.0675532 -0.04261885 0.055459164 0.14245601 0.01619407 -0.002528685
만 0.08202914 -0.07675631 -0.039627817 -0.01659016 0.1320612 -0.019621268 -0.07752761 -0.08513043 0.07350408 -0.09326367 -0.0059363367 -0.069943346 -0.035534542 0.098106846 -0.07349854 0.12884727
는데 -0.07044352 0.0021288581 -0.037341103 0.1953338 -0.013827565 -0.0983602 -0.08627452 0.011766724 -0.07015642 0.091013394 0.029061932 -0.0032766731 -0.05902491 -0.04297189 0.043398816 0.15551235
너무 -0.13774426 0.13841099 0.101950146 -0.07573374 0.046081625 -0.1428014 -0.07632552 0.07574329 -0.003231196 -0.052895613 -0.042235162 0.24538931 -0.05209814 -0.08758956 -0.018534709 -0.2291124
봤 -0.06977201 0.014106932 0.064499766 -0.017730877 -0.0927769 -0.0021829559 0.06635369 -0.072532386 0.045368783 0.15230145 0.0712364 -0.081449464 0.065752864 0.019321525 0.012496366 -0.07917991
적 0.121175796 -0.0060930676 0.07176288 0.031615563 -0.023624046 0.01689399 0.03408522 0.049235858 -0.040999316 0.035609797 0.01395615 0.080852985 0.023517065 0.022173187 -0.0068540582 0.08426099
안 0.057447247 0.13546605 -0.19151764 0.19498791 0.43360963 -0.079503566 -0.08425357 -0.03045253 0.09216142 -0.14593099 -0.0038117552 -0.28846756 -0.008958631 0.07057196 -0.20321737 0.09896782
정말 -0.13778348 0.026895795 0.03182517 0.14932095 -0.109326296 -0.001229943 -0.04423613 -0.0062229848 0.076068215 0.12687135 0.13997428 0.032561615 0.0400726 -0.117297694 0.12758324 0.00343984
로 0.11835151 0.04393968 0.03895842 0.017707005 0.13128553 -0.09134216 0.048374217 -0.13531294 0.00049664814 -0.10282789 0.029606152 0.1332018 -0.09192825 -0.066160575 -0.05926637 0.021747228
것 -0.04888456 0.048556514 0.045207527 0.080455996 0.050129082 -0.034615215 -0.015148784 -0.0036733495 -0.023572484 0.048709285 0.06926373 -0.069241636 0.056954592 0.040948037 -0.020872148 -0.009029022
음 -0.22165033 0.02859312 0.14464682 -0.09102839 -0.14566547 0.12683092 -0.02261395 0.0367293 0.09198677 -0.15872818 -0.0705984 0.04400143 -0.019612618 -0.003096887 -0.0064044776 -0.054808386
아 0.030756451 -0.06302835 0.09118504 0.13531585 0.02515735 0.06358521 -0.07115829 -0.0100783 -0.10004861 -0.047416832 -0.021181725 0.062169567 -0.11204546 -0.06817587 -0.05448253 -0.021463098
네요 -0.24953565 -0.15510087 0.08554516 0.05997584 -0.03630463 0.20325714 0.056013625 0.06940168 -0.03642998 -0.06367822 -0.044143878 -0.028011218 -0.031017365 -0.06359529 -0.00024498103 -0.056202333
어 0.11065354 -0.007787274 -0.008860867 -0.06852526 0.0014365707 0.043752227 0.024843462 0.059409387 -0.12097658 -0.045788214 0.025015276 0.012425675 0.117677756 0.11619436 0.015646506 -0.0061946246
재밌 -0.1541675 -0.21091495 0.22258492 -0.13850194 -0.1950459 0.26178065 0.19703689 -0.13730262 -0.11699729 0.16333786 0.2078594 0.29397273 0.07472705 0.23650879 0.13839376 -0.21376859
지만 -0.054274444 0.10642292 -0.010763068 0.2658679 -0.14038008 -0.16291712 -0.0077348608 -0.07907423 -0.12867433 0.084487446 0.13057724 -0.010523697 -0.040595327 0.05780138 -0.15012294 0.06388389
같 -0.093101226 -0.058639277 0.0016404726 0.10498922 -0.0899917 0.010632646 0.050659243 0.013897844 0.00806249 -0.053747263 0.009565564 -0.0400749 0.015601697 -0.10168105 0.09198913 -0.02532604
진짜 -0.12886488 -0.048266288 -0.04150371 0.104946874 -0.09864524 0.012266876 0.09639188 0.0941283 -0.06671999 -0.035347812 0.08503229 0.019738039 0.00048917584 -0.17530127 0.09056069 -0.01405995
에서 0.044905562 -0.018851742 -0.0071706963 -0.024520367 0.061103616 0.07525231 0.11960369 0.0329915 -0.046261694 0.04559662 0.097284354 -0.0108608445 -0.07104454 0.049896996 0.059033137 0.022137102
했 0.011920261 -0.15614568 0.10975464 0.015214115 -0.048244305 -0.12735628 0.01873021 -0.12352742 -0.02216636 -0.08991812 -0.009978868 0.023292495 0.0031685946 -0.022589471 0.037385248 0.1359435
기 -0.001274006 0.00710482 -0.07859959 0.07478611 0.056658514 0.006439783 0.035283815 0.0605666 0.094104975 -0.07869476 -0.12471965 -0.021242414 -0.06382735 -0.11555119 0.022380253 -0.06923831
네 0.084568225 -0.017720202 0.020347757 0.05879736 -0.0357808 0.30125043 -0.016439946 0.13528034 0.038249634 0.050168525 -0.0890061 0.16985638 -0.088985294 0.004067915 0.025142867 -0.019093063
않 0.13058206 0.12700514 -0.18232533 0.12892783 0.050636202 -0.14410041 0.011717427 0.12706415 -0.1815856 -0.18170594 0.17570204 -0.15557767 -0.22932127 0.022045447 -0.032309216 -0.09410799
점 0.052083157 0.08916037 -0.04541439 0.010379185 -0.013925939 0.15835199 -0.08191615 0.07740409 -0.025575534 0.029155921 0.07537443 -0.07594262 -0.021692986 -0.028212981 0.017426196 0.012287356
거 -0.06359088 0.11019683 -0.019107344 0.054041006 0.10796325 0.16613665 -0.095282555 0.068934746 -0.06253398 -0.023969011 -0.08799799 -0.07056039 -0.011779697 -0.13223533 -0.02133993 0.010234492
았 -0.023331866 0.028288648 -0.036122847 -0.09694572 -0.003551269 -0.080347806 -0.022227949 -0.024540327 0.06828408 0.04919106 0.017028902 -0.13903429 -0.22635822 -0.028710308 0.051824518 0.13637798
수 -0.026441287 -0.28483182 0.023919865 0.025722943 0.15112348 0.05830107 0.064136185 0.11007964 -0.08048767 0.120067775 0.031205969 0.02310777 0.101502515 0.12177576 0.15505366 0.12748314
되 -0.050631806 -0.08541457 0.09762512 -0.0118622575 -0.01199788 0.23388667 0.106435455 0.004512139 -0.1099722 0.13047522 0.06935122 0.042942826 0.06598477 -0.10974286 -0.07296119 0.04546116
면 0.07624923 -0.05857011 0.0419917 0.19660667 0.037083533 0.057968765 -0.10945171 0.010153521 0.0028040938 -0.08176446 0.009371416 0.056166276 0.015727405 -0.0017358302 -0.03129214 0.021496274
ㅋㅋ -0.09174466 -0.13382915 0.12769522 0.13922209 -0.039485376 -0.019818818 0.063542165 -0.054464318 -0.16060379 0.045109227 -2.0826825e-05 -0.04346423 -0.008783047 -0.0013803284 0.07453254 0.0058864043
인 0.0017950168 -0.04765106 0.046407443 -0.100455336 0.055582993 0.1546363 0.08775651 -0.021621581 0.062566236 0.03700796 0.15618458 0.09000355 -0.023631984 0.077755265 0.05091819 0.059720594
말 0.016480448 0.07507677 -0.07870981 0.21397968 0.054098465 0.0088530155 0.029622953 0.124119915 -0.086132765 0.13434775 -0.108139984 -0.07813398 -0.06593895 -0.0034089678 -0.009385119 -0.10821049
연기 -0.05026669 -0.026547216 0.08159489 -0.1538581 -0.021974007 -0.00043626645 0.12716624 -0.15812322 -0.036941506 0.096922874 0.12986664 0.106105834 0.083489746 0.13541526 0.11350759 -0.09606064
주 -0.100318156 0.070525564 0.16030166 -0.013959349 -0.07032371 0.09835441 0.0074759214 -0.065774836 -0.039345417 -0.07165717 0.14266911 0.060570195 0.019196609 -0.0055375574 0.01592099 0.027842678
최고 -0.033286594 -0.24246243 0.14001265 -0.13144237 -0.0012914081 0.19987105 0.112936504 -0.090512656 -0.28654972 0.29854825 0.2724838 0.48692727 0.15774415 0.26975113 0.21514171 -0.22714591
내 -0.034409035 -0.0062809805 0.025866333 0.18427885 -0.10228395 -0.039856315 0.062134884 -0.077672295 -0.006042773 -0.13586299 -0.06926435 0.040482193 -0.07279104 -0.13913351 -0.0021873505 -0.09505196
평점 -0.03083198 0.07956936 -0.03242425 0.057235055 0.13288759 -0.024116809 0.0006083857 0.13930853 -0.09040693 -0.0047258413 -0.0046642227 0.020333238 0.018551508 0.116693154 -0.0606554 -0.0039738235
이런 0.04908428 -0.024374675 -0.055271592 0.049042217 -0.04257427 -0.17821524 -0.013551795 0.12517829 -0.09310877 -0.15348321 -0.10489805 0.06881284 -0.040294677 -0.2931349 0.031325117 -0.06629771
던 -0.03794152 0.03629798 0.009814585 0.0437418 0.008414175 0.01607295 -0.057202883 -0.007087879 -0.09079114 0.16232176 0.04536259 0.10461338 0.012086665 0.19177437 0.14471458 0.08043884
어요 -0.16267005 -0.0773857 0.093614675 -0.099563144 -0.060623996 0.17118898 -0.019390928 0.09917763 0.06436948 -0.059621274 -0.1508195 -0.15870708 0.07100763 0.0257322 0.14149994 -0.104970306
할 0.0045987642 -0.055171296 -0.09428911 0.2323493 0.05014491 -0.03104521 -0.045193277 0.22371265 0.041201293 -0.011485835 -0.059282508 -0.049528584 -0.12073182 -0.26623625 -0.08061834 -0.014746827
왜 -0.011884598 0.10081399 -0.1674288 -0.120342 0.20359588 0.07791809 -0.03585589 -0.09749238 0.140169 0.005109526 0.051882442 -0.21545368 0.114732325 -0.14287853 -0.014420623 -0.05345721
겠 0.07109776 0.039658375 -0.02982404 0.117367625 0.01691938 -0.07784088 -0.22160208 -0.12772766 0.11646951 -0.14242345 -0.12241218 -0.07765238 -0.105285935 -0.09700488 -0.15411414 0.0900582
스토리 0.14896348 -0.0075118328 0.08133265 -0.10178637 0.06917956 0.00051632966 -0.035037253 0.16783269 -0.08193316 -0.007148835 -0.048041143 -0.019941926 -0.124625035 -0.24595465 0.040122125 0.07215258
해 -0.00074770616 0.015188964 -0.06438129 0.02788182 0.023090318 0.06686287 0.11955547 -0.13932846 0.0015791811 -0.0029944824 -0.040235464 -0.029141935 0.100498974 0.1363408 -0.084212944 0.04245812
ㅋㅋㅋ 0.029112551 0.103500195 0.07902336 -0.13493086 0.06669819 0.0159498 -0.065114796 0.15827663 -0.03561559 -0.12740815 0.016102007 0.013357532 0.04007099 0.081614144 -0.02730627 0.070588075
습니다 -0.042016212 -0.16674435 0.08437421 0.03341074 0.002952971 0.0019947363 0.07673452 0.11585384 -0.13880171 -0.14499609 -0.06745256 -0.1892463 0.0063149566 0.056677047 0.17022268 -0.04699588
듯 -0.038763218 0.14551072 -0.005498163 0.027137227 -0.18455975 0.04069109 -0.040199418 -0.14160755 0.029176464 -0.043109853 0.16747472 -0.04382912 -0.023324443 -0.010512348 0.1017044 0.03622827
아니 0.21500942 0.092816085 -0.14929223 0.22710449 0.12360289 -0.26262653 0.015398346 0.023632327 0.107481554 -0.020074114 0.13978535 -0.14772737 -0.048118543 -0.17375503 -0.2503254 0.2893737
드라마 -0.120355435 -0.1609932 0.00018021898 0.24171495 -0.05468587 0.14012662 0.027485386 0.18005751 0.0781429 0.047899507 -0.1314137 -0.07782116 0.034074206 0.18179286 0.12627803 -0.008835019
생각 0.04502858 -0.279126 0.08214052 -0.0128163835 0.115860194 0.023696667 0.024134308 -0.0926812 -0.09247348 -0.020065255 0.084917836 -0.0022846041 0.18904336 0.076071285 0.05233084 -0.07960932
더 0.13018855 -0.012765849 -0.033545785 0.13263775 0.11960357 -0.0129806725 0.029633008 -0.106536776 0.054380707 -0.096484736 0.026168317 0.07744473 -0.0046399557 0.14187348 0.039028395 0.05475209
그 0.02052646 -0.068937674 -0.055435743 0.081725515 0.044095516 -0.0109447865 0.026565988 0.031439006 -0.059758417 0.06654865 0.13743834 0.08544145 0.027172174 0.08782908 -0.0018303489 -0.031303294
싶 0.020498715 -0.0012793749 0.08358922 0.035891924 0.04085789 0.09355066 -0.088450834 -0.022179224 0.009300576 0.05788006 -0.08167406 0.08720876 0.03729712 0.031494644 0.10974421 -0.0031546284
사람 0.1357412 0.027812745 0.024136968 -0.18638313 0.227364 0.026295133 -0.022840124 -0.029759802 -0.0073167933 0.12895493 0.25307935 0.0025132112 -0.020565009 0.12039955 0.12963857 0.05208485
때 0.09252598 -0.036471833 0.12389208 0.029444125 -0.012237416 0.19449367 -0.07757458 0.009602394 0.037676275 0.08319819 0.08668284 0.028855603 -0.11996348 0.1504081 -0.08153927 -0.13122222
감동 -0.31837466 -0.028150829 -0.107793 -0.119139485 -0.16487566 -0.086622156 0.1432483 -0.042933192 -0.3136264 0.31586802 0.19477561 0.1660245 0.0979394 0.044655845 0.2232123 0.09220217
배우 -0.009819201 0.089518964 0.12089542 -0.14051525 -0.010835999 -0.1297584 -0.09116479 -0.075710736 0.05369922 0.037757054 0.09408575 0.15223244 0.12403223 0.19260283 0.12067034 -0.025898376
함 -0.028271483 -0.001377331 -0.10499723 -0.17469467 0.03341337 0.08071583 0.07401109 -0.013335928 -0.050656762 -0.054650385 0.1434645 0.05999922 -0.056423917 0.022842325 0.20496725 0.052604347
본 -0.054139435 0.05908898 0.057334423 0.023250548 -0.059603594 0.052661512 0.08360581 0.0015419936 -0.02935153 0.049538422 -0.03501954 -0.14003971 0.12495352 0.046187326 0.051213432 0.050267812
까지 -0.10286042 0.016673237 0.12495684 0.11767001 0.018057957 -0.14936376 -0.04425703 0.123828165 0.021575022 -0.13409574 -0.059361238 0.013470105 -0.03835832 0.020737005 -0.037322592 0.019579643
뭐 0.06648016 0.033282213 -0.16093391 -0.06333844 0.19073954 -0.03696125 -0.05003058 0.12281601 0.249931 -0.012560238 -0.0173972 -0.059348084 -0.01448433 -0.18587524 -0.0033297685 0.0023420756
알 0.044756502 0.017039878 0.07011683 0.018072553 0.068637356 -0.097796805 -0.094153754 -0.100227036 -0.040551804 0.034394167 0.12592717 0.16992904 -0.13400353 0.032381278 -0.012847368 -0.06269067
만들 0.025782771 -0.061008517 0.053475335 -0.2140976 -0.089367524 -0.013185936 -0.039230302 -0.039451346 0.1741518 0.09999268 -0.09780516 0.1423776 -0.11057132 -0.06020444 0.07210973 0.11331687
내용 -0.04039279 0.07741973 0.019485392 -0.07510228 0.044578478 -0.07318087 -0.14925744 0.0130859595 0.02615722 0.023807123 -0.02301941 0.09508139 -0.13541923 -0.19527689 0.042126574 0.1201819
볼 0.10834958 -0.109775834 0.037298948 -0.0070124604 -0.0046017165 0.08340174 0.22165465 0.007539715 -0.054101903 -0.068606965 0.16640002 0.15208882 0.16414195 0.1293582 0.010660598 0.0682665
보다 -0.020695513 -0.01849148 0.15705214 0.062798545 -0.16386199 -0.0957062 0.1485256 0.05519542 -0.07110849 -0.0315692 0.2451677 0.021917408 -0.03375535 -0.16080964 -0.08177503 0.00089080003
감독 0.133255 0.071756765 -0.03162374 -0.05956132 -0.11437991 -0.06835199 -0.2695468 -0.009767382 0.098019995 -0.16631833 -0.16145152 0.1848877 -0.1830077 -0.23495898 0.061716374 0.076959245
라 0.108978614 0.035606943 0.0946718 0.062531084 -0.049609527 -0.053097192 0.050881036 -0.04331044 0.09554486 0.0037711381 -0.07542056 -0.12469279 -0.003946351 -0.090903886 -0.051612828 -0.15472615
재미 -0.090821736 0.11289314 0.16076049 0.10216009 -0.20299897 0.17123258 0.00890483 -0.041956145 0.002819156 0.062385816 0.06795109 0.20199774 0.03815731 -0.028941356 -0.07225669 -0.20671774
그냥 -0.108138256 0.1826553 0.0025358647 -0.19326878 0.0362827 -0.18937294 -0.10939375 -0.04968704 -0.047628645 -0.11335482 -0.13886307 0.06919715 0.006344044 0.0035349755 -0.09542686 -0.05066971
시간 0.118517324 0.070834175 -0.09354111 0.06977248 0.027740508 -0.13707928 -0.055496532 0.074878775 0.028279902 -0.09472206 -0.05755273 -0.004187217 -0.049879305 -0.19961376 -0.026383603 -0.17927296
지루 0.3046291 0.1808974 -0.30946854 -0.049988605 0.21088839 -0.0480645 -0.19382432 -0.086760305 0.18825944 -0.08430872 -0.104675226 -0.3361829 -0.2609859 -0.09146394 -0.056161504 -0.16143721
중 -0.097948246 -0.07563419 0.060025893 -0.04212856 0.17782986 0.09280225 0.17961434 -0.06332957 -0.104499705 0.120189294 0.058611535 -0.028343668 0.10625136 -0.0037357067 -0.060741264 -0.036260325
재미있 -0.032633934 -0.13197914 0.10378382 -0.16216412 0.03590666 0.32251623 0.16256857 0.1150228 -0.086429216 0.2051013 0.19477369 0.24221632 0.10827146 0.13776995 0.2511739 0.007502837
였 -0.182835 -0.014978487 0.12536499 -0.08136589 -0.022145858 0.056684278 -0.056457058 0.014732633 -0.22515818 -0.2769902 0.08237848 0.06086142 0.18774247 0.07057272 -0.0009979119 0.009966262
잼 -0.11356616 -0.08723632 0.09504515 -0.085023224 -0.3212363 0.16153568 0.119544856 0.37208763 -0.19060762 0.055228136 0.11529842 0.13848388 -0.02369778 0.08887039 0.32299295 -0.25049767
년 0.13236135 -0.13236819 -0.0028088253 0.16816902 0.105913535 0.14304595 -0.04613095 0.024827834 0.17665215 0.06470258 -0.017071273 -0.0018363531 0.18414801 0.061574906 -0.11502636 -0.06148103
사랑 0.03161418 -0.23590319 0.082911484 -0.22460087 0.003517301 0.18498206 0.18630598 0.05527615 -0.16701378 0.19672559 0.24452487 0.009961751 0.06565383 0.20431873 0.021330247 -0.03272727
못 0.24657243 0.05875047 -0.19711761 0.13336639 0.14194338 -0.15003888 -0.039114933 -0.058590215 -0.013243487 -0.2456561 0.012606478 -0.18682726 -0.032032505 0.092481025 -0.07579122 0.1437564
재미없 0.4003047 0.17095086 -0.36220536 0.0076332227 0.30417067 -0.035029154 -0.21793993 -0.09850849 0.18730654 -0.15603408 -0.25214976 -0.43765053 -0.02399063 -0.14312784 -0.16389555 0.074476905
냐 0.08450186 0.17940882 -0.11182762 0.050793543 0.008627931 -0.1254666 -0.088971555 0.024762983 0.14638942 -0.08665232 -0.20354822 -0.03892167 -0.20810914 -0.17168356 0.1174389 0.07121434
쓰레기 0.20197044 0.2211506 -0.32180378 0.053844117 0.14081222 -0.11031068 -0.391928 -0.25850567 0.20220096 -0.40690175 -0.3067986 -0.08117817 -0.26636198 -0.24627316 -0.29283667 -0.1335656
서 -0.07571754 0.10674623 0.040590588 0.033607677 0.070401706 -0.04289114 0.035380706 -0.07244643 -0.020341124 -0.00581911 0.11319436 -0.07774324 0.16548303 -0.01938821 0.0030609178 0.14836796
라고 0.10593918 0.0810899 0.19527331 0.035056792 -0.022683183 -0.037237305 -0.12802091 0.104819864 0.14961185 -0.02639786 -0.012374512 0.00470925 -0.0010747465 -0.07372632 -0.02021015 -0.0010729105
니 0.018273223 0.014297208 0.017273784 0.14050336 -0.030198535 -0.046977747 0.05538296 0.14969192 -0.062373426 -0.23376143 0.0130104385 0.045352068 -0.05492045 -0.003466196 -0.0717257 -0.1550365
면서 -0.011511792 -0.015548223 -0.10279282 0.1174565 0.010514851 -0.014847025 -0.13384897 -0.019683171 -0.17922293 0.06795193 -0.064068854 0.0024327827 0.029053401 0.021242086 0.037099883 -0.04126352
다시 -0.10982313 -0.094674245 -0.04122304 0.38110647 -0.06823301 -0.09347856 0.056562334 -0.09294639 -0.19321282 0.13111776 0.10667144 -0.098672956 0.14382842 -0.13534157 0.04335384 0.085485294
번 0.068256766 -0.1991474 0.05631409 -0.16322744 0.14226593 0.13566229 0.13167447 -0.022373222 -0.061479654 -0.026151957 0.060538143 0.073353454 0.016084395 0.21518238 0.099733666 0.029411096
나오 0.010500035 -0.0051300647 0.015701372 0.17549126 -0.003279337 0.052438907 -0.08517919 0.08753469 0.17295706 -0.016428951 -0.026345205 -0.023182219 -0.12852533 -0.1141139 0.010228484 0.109249435
하나 0.09568755 0.013391792 -0.15210856 -0.03324505 -0.08302735 0.0006695178 -0.029281745 0.038860667 -0.0275257 -0.019460225 -0.061176244 0.18784517 -0.031072754 0.097649604 -0.015401785 0.045909695
작품 0.052765034 0.026918013 0.19911101 0.052554432 0.08808116 0.0330672 0.180146 -0.047196794 -0.007088167 -0.010609868 0.07878695 -0.023247812 -0.014475583 0.14704475 0.029378707 0.036677502
야 0.008073797 -0.17222366 0.15072188 -0.0075872443 -0.017704712 0.09987968 0.06942825 0.02252129 0.008584006 -0.14039913 -0.05227546 -0.022611842 0.019462666 0.0062978677 0.053290635 0.054745723
이거 -0.037596654 0.023630232 -0.0071826326 -0.03765204 0.12138207 -0.08841226 -0.00016895465 -0.10048526 0.02765686 -0.04664775 0.13214363 -0.1520159 -0.034456413 -0.08913578 0.10173753 -0.049564954
줄 -0.0088309385 0.11132837 -0.09003993 -0.09976225 0.0041623237 -0.09475195 0.08654501 -0.05383819 -0.08013581 0.029014543 0.10523148 0.10849126 -0.13943604 -0.055567157 -0.058640584 0.024871254
해서 0.06170555 -0.086816356 -0.011950016 0.10025527 -0.09212442 0.04883729 -0.10553809 -0.017044509 -0.08143166 0.07076058 0.09215512 -0.012865066 -0.04449827 0.07044188 -0.13420303 0.027829833
남 -0.27625772 0.18153383 0.1953984 -0.15466161 0.026732791 0.056836203 0.11559488 0.058348358 -0.06970488 0.030315977 -0.11190489 0.10791347 -0.14512894 -0.022673862 0.0010796896 0.11595483
마지막 0.00051056757 -0.16339448 0.056508854 -0.20467833 0.0016883626 0.061957575 0.11764443 -0.03596756 -0.042594884 0.11961988 0.07727719 -0.23482801 0.07669073 -0.037491597 0.2661364 -0.100023165
끝 0.023957713 -0.042112038 0.08913172 -0.17071916 0.053503055 -0.08440867 -0.11999615 0.11647117 -0.019787647 -0.078448296 -0.30927652 -0.08424675 0.010718778 -0.11278217 -0.101340905 0.122585066
정도 -0.2095852 -0.12036518 -0.0022666184 0.030149702 0.055408273 -0.012589018 0.21200997 -0.13335952 0.09020766 -0.024435066 0.16317664 -0.014706455 -0.003817184 -0.0075205276 0.23004714 0.20539445
이건 -0.009388372 0.037143473 -0.05886503 -0.056098938 -0.14016402 -0.17936945 -0.12200287 0.07724206 0.13011932 -0.053454872 -0.08375087 0.22428793 -0.23787634 -0.34030753 -0.09461779 -0.007258848
액션 -0.045152564 0.026220484 0.36480975 0.0628914 0.023104198 0.077983044 0.01342292 0.043383487 -0.20728931 0.1489175 0.10266523 0.14896926 0.07261898 0.07343307 0.056733403 0.011783382
개 0.004199802 0.17314446 0.06685711 0.13000312 0.14731264 0.023613915 -0.09070415 0.09414946 0.05095382 -0.19111632 -0.08577872 -0.023771724 -0.023160035 -0.19081683 0.07651986 -0.08558508
임 -0.3017073 -0.037104785 0.25799868 -0.04806147 -0.010025025 0.06399349 0.003026045 0.092372194 0.22005165 -0.062995404 -0.05727478 0.08801355 0.053254787 -0.09227941 -0.06995198 -0.12945396
건 -0.039815504 -0.03390195 -0.2262074 0.021217579 -0.012833811 -0.1472056 0.031111946 -0.079839006 0.029767739 -0.100219324 -0.046333723 -0.0010318733 -0.13802807 0.033459894 -0.16735801 0.07069905
기대 -0.110588506 -0.15255907 0.06380842 0.012926405 0.04907364 0.07680129 -0.008196366 0.1414578 -0.0506996 0.11191739 -0.12627195 0.15896457 -0.055576857 -0.003515542 -0.13732184 0.2512114
다는 0.20943166 0.12108152 0.073069856 -0.001964665 0.14312859 0.000119779324 -0.057898343 -0.15427496 -0.011373667 -0.054217968 0.09904989 0.0060458602 0.119794585 0.0057726284 -0.10170406 0.27392814
입니다 -0.19355129 0.055470325 0.19249937 0.23337017 0.011464709 0.0779429 -0.006129606 0.08378987 -0.094752684 -0.19308783 -0.00874967 -0.021868702 0.12343554 -0.14274573 -0.00966928 -0.10036203
라는 0.13571014 -0.10314479 0.091281444 -0.07718507 0.037775964 -0.08570318 -0.07072928 0.027878715 0.052517932 0.09928619 -0.039093908 -0.13801803 0.032692686 0.03208138 0.030651044 0.24212183
완전 -0.26576027 0.077259876 0.15117718 0.17308274 -0.03794512 0.08404849 0.0076198466 -0.11219496 -0.01503059 0.14118381 0.08947445 0.14369813 -0.17206685 -0.09624987 0.02849242 -0.17980899
참 -0.059723694 0.24735503 -0.039956767 -0.038228568 -0.08517778 -0.0076038726 -0.14319955 -0.049349543 -0.05931328 -0.12578136 0.031533517 -0.040949374 -0.04449803 -0.1362507 -0.050809518 0.085867085
많 0.02748127 0.07027696 -0.05671483 0.46049657 -0.113531336 -0.22829588 -0.010886141 -0.016796745 -0.08325732 0.0704468 -0.068995975 0.02304097 0.18921797 -0.033798482 0.11102714 -0.07667072
ㅋ -0.23977482 -0.08183475 0.123072416 0.3384283 0.046211552 -0.13513699 0.0023280163 -0.23679912 0.213038 -0.25630546 -0.1582143 0.13133448 0.32703447 0.12601222 0.045213018 -0.019073416
처음 -0.087741 -0.08394377 0.1958767 -0.1697629 0.12932661 0.17168707 -0.09773908 -0.2947372 -0.0056025493 -0.044233475 -0.09397345 0.04470324 -0.0942321 0.021132838 0.10672201 0.21851501
장면 -0.06221931 0.1002488 0.11309507 0.036205005 -0.0026631318 -0.042103164 -0.1533566 0.09106024 0.010147206 0.043257102 0.030142263 0.069949225 -0.02698007 0.013471696 0.00397484 0.04737319
다가 0.009038851 0.13495709 -0.1047733 0.09994535 -0.18306544 -0.2037805 -0.1675118 -0.13096398 -0.0090586785 -0.21749912 -0.11689167 0.23783393 -0.17529766 -0.17783783 -0.05579172 -0.05389143
아깝 0.25165638 0.3801989 -0.1687087 -0.03447697 0.06955427 0.10184391 -0.38292688 0.03698196 0.047693565 -0.13397475 -0.2909345 -0.26976663 -0.023508048 -0.20324343 -0.48718816 0.31082928
으면 0.09951188 -0.13685964 0.0075219246 0.15428996 0.09950297 0.05001775 -0.061288267 0.118995 0.0405367 -0.3018421 0.13791984 -0.17094976 -0.05853031 0.13456649 -0.13676542 -0.023770915
모르 -0.14178157 0.030604934 0.018125337 0.039712783 -0.15513603 0.0037403544 0.1324251 -0.14690685 -0.27191764 0.16555993 0.09501963 -0.17057613 -0.0052611264 -0.06874245 0.20623775 -0.005439337
지금 -0.16491474 -0.008487884 0.0391955 0.20979916 0.05559314 0.05326897 0.15697077 -0.0696666 -0.11379504 0.17860673 -0.062943466 -0.13154948 0.0020474708 0.018452585 0.12875666 -0.14054915
이렇게 -0.19462259 -0.03767751 -0.05135033 0.0045956085 0.04755372 -0.14264446 -0.116652 -0.1085488 -0.04733104 0.017841136 -0.053210914 0.19224958 -0.05953483 -0.09623128 0.06942319 -0.12158479
분 0.08059967 0.13482222 -0.07791478 0.031062318 0.23480317 0.09125985 0.0010829514 0.095233396 0.100740604 -0.121787705 0.0094675915 -0.0062047304 -0.104334034 0.04961243 0.07567592 -0.14508094
돈 0.3162411 0.07144658 -0.1363232 -0.26846403 0.063065544 -0.079485506 -0.2717253 0.09057392 0.033391044 -0.2170975 -0.24602872 -0.064243004 0.060426466 -0.03257302 -0.064664476 0.020784374
이게 0.065062255 0.02237628 -0.18022574 -0.038233656 0.27544552 -0.16057476 -0.17198813 -0.33784506 -0.009249493 -0.14251213 -0.13224882 -0.37472382 -0.006062882 -0.008393629 -0.12851004 0.046789646
ㅠㅠ 0.025292834 -0.10109976 0.10808599 -0.081919186 0.056295186 0.20664231 0.11557288 0.15839846 -0.14342836 -0.018040873 -0.05153386 -0.08834388 0.060915485 0.0023583246 -0.11260637 0.064223304
성 -0.0089582745 0.02488221 -0.035372052 0.043554947 0.07228192 0.09979506 -0.06032038 0.010397816 0.032791324 -0.011480556 -0.069745965 0.11840932 -0.14048843 0.016281927 -0.08220625 -0.032296374
느낌 -0.083912484 -0.10327158 -0.04142541 0.21329261 0.060912974 -0.07366164 -0.12843761 0.09194327 -0.0075961435 -0.026423715 -0.16289955 -0.044153348 -0.024395246 -0.009277142 -0.16380534 -0.08017335
이야기 -0.10916895 0.02388415 -0.03302494 -0.024323678 -0.010874727 -0.019359235 0.06838985 -0.024052985 -0.003824468 0.19589993 -0.07667314 -0.12809992 0.12425193 0.030654682 0.16707467 -0.15119655
일 -0.03714327 0.17363395 -0.018053103 -0.1127767 0.19697985 -0.1589499 0.03975588 0.07325393 -0.18167798 0.040621348 -0.02444105 -0.058139283 -0.12661034 0.01795295 -0.013141299 -0.03566461
최악 0.39470276 0.45180365 -0.25580585 -0.37080756 0.035602864 -0.106952935 -0.43796524 -0.26495478 0.5187218 -0.314218 -0.19144547 -0.26403716 -0.19701369 -0.34793264 -0.36838335 0.016019206
된 0.07485135 -0.17380711 0.14414307 -0.090788394 0.07303758 0.13638417 0.13281529 -0.009390374 -0.11055823 0.062883526 0.21219647 0.12568527 0.14771573 0.06147211 0.0019691926 0.22786148
시 -0.057958122 0.108554 0.04155149 -0.04565088 0.10956973 0.20879559 0.0043742256 -0.13050151 -0.04441893 -0.01379922 -0.04553587 -0.30321842 -0.0260826 0.1682511 -0.07605599 -0.13643077
봐도 -0.14951049 -0.33903116 0.115268156 -0.13694608 -0.049895275 0.2562779 0.20681868 0.03539709 -0.18991984 0.16540974 0.061965406 0.017412262 0.11928555 0.05216146 0.17420894 -0.25200927
님 -0.16109888 -0.19446501 0.061823938 0.026713153 0.012937502 0.060431425 0.06619621 -0.18865365 0.03518542 -0.018973293 0.2992328 -0.03799637 0.15963782 -0.010171592 0.1337596 -0.01169977
어서 0.008669195 -0.013366552 0.0022291336 0.009479318 -0.08382786 0.101096086 -0.043319542 -0.17517059 -0.06065362 0.017823888 -0.0012352573 0.082383975 0.11583428 -0.04462359 0.011287649 -0.08688552
애 -0.08755908 0.029967988 -0.20415986 -0.0114884935 0.12683937 -0.015626041 0.039475754 0.08599578 0.07769875 -0.06323574 -0.08517551 -0.09141926 -0.0026479235 -0.02772182 -0.1818764 0.123154946
편 -0.01245399 -0.015396982 -0.02628722 0.094550766 -0.009551686 0.17987312 -0.19484499 -0.03535385 0.0423057 -0.19978006 -0.106808655 -0.051004995 0.04560236 0.1557922 0.15748568 0.31579778
다고 0.13069427 0.1458721 0.14520779 0.21216525 0.021080479 -0.15379831 -0.15963899 -0.21731049 0.096513316 -0.07407988 -0.057628263 -0.21003933 0.108640745 0.14339715 -0.07812456 0.11580839
넘 -0.3217884 0.046710867 0.01527447 -0.09056612 -0.04173647 0.016935047 0.008497672 0.047019575 -0.14518833 0.22989397 -0.10275558 0.24393688 -0.13633694 -0.17506665 0.16793117 -0.084911056
인데 -0.07402375 0.041965324 -0.10680332 0.06498733 0.15510575 -0.13671528 0.053777687 -0.047149934 0.074297376 -0.0137897 0.098733924 -0.11330111 -0.053335603 0.034686796 -0.15618387 0.09679846
이해 -0.061186895 0.22825265 -0.16186921 -0.013563082 0.09566596 0.001415003 0.08388549 0.236026 0.05918042 -0.06480609 0.01691709 -0.02267483 -0.0031858194 -0.08483602 0.07357695 0.11789685
전 -0.11220359 -0.06544128 0.06489294 -0.08183791 -0.06658909 -0.12761803 0.0564356 0.055633005 -0.12995818 -0.037852336 -0.0044973497 -0.06532639 -0.029507572 0.12884904 0.08477462 -0.13895676
별로 0.22579537 0.1114092 -0.29175115 -0.09619464 0.21774803 -0.17009462 -0.12904903 0.01703765 0.14684097 -0.4561793 -0.21384355 -0.27549747 -0.26096874 -0.0891408 -0.32791746 0.22332418
걸 -0.08778542 0.10040538 0.06960324 -0.07442246 -0.07054153 0.094214834 -0.07253942 -0.07527731 0.024631543 -0.20697062 -0.009732088 0.026841544 0.10924416 -0.10602577 0.07284492 0.049348135
그리고 0.008295212 -0.24688892 -0.014384651 -0.048678987 -0.19534758 0.14731301 0.17875198 -0.14876154 -0.11995596 0.14704327 0.105335265 0.045972776 0.019895596 0.14197645 0.12781085 0.03823399
명작 -0.107197165 -0.06399204 0.11937898 -0.07187531 -0.084616624 0.3188826 0.0903857 0.10877376 -0.211165 0.13584097 0.21491581 0.2501827 0.26132175 0.122152954 0.18028897 -0.13949285
난 -0.05807552 -0.18596978 -0.21439575 -0.10128473 -0.040764477 0.037091944 -0.011934388 0.16225173 -0.024596632 0.049926125 0.13182007 0.0077978047 0.07450216 -0.15106682 0.24847013 -0.15459569
또 -0.029357877 -0.023425227 -0.00075288874 0.22230344 0.11353257 -0.011754956 0.07640545 -0.19922502 -0.12456705 0.005468992 0.09002683 0.025874391 0.23711455 0.19815917 0.11246138 0.015252016
역시 -0.15274303 0.014422657 0.058751144 -0.021752467 -0.05296071 0.12300537 0.0056678946 0.0860754 -0.10534382 0.15982261 0.06271107 0.044105984 0.1492718 0.16738328 0.10577781 -0.15489994
여자 0.017763505 0.0018740334 -0.00642336 0.18676512 0.05264954 0.12105816 -0.07186638 -0.08840957 0.0054145153 -0.098202355 -0.12145389 -0.12248329 0.08816011 -0.069569625 -0.12663616 0.08772118
한국 -0.10058198 -0.10818787 0.03814597 0.07143372 0.19776347 -0.003957622 0.16292082 0.1251417 -0.08111888 0.07261181 -0.06058338 -0.0020507886 0.19252229 0.19263081 0.118088335 0.02952963
이상 0.01054676 0.15250848 0.010595707 -0.013732084 -0.054266296 -0.039998457 -0.012593768 -0.07465166 -0.067335725 0.022450168 -0.0149451755 -0.16731052 -0.09302733 -0.160018 0.06383844 -0.16360307
는지 0.013492698 -0.047026962 -0.10874702 -0.19768661 0.00065584347 -0.058091853 -0.082830906 -0.22075905 -0.04826097 -0.05973179 -0.058594603 -0.11445726 -0.078100555 -0.21906598 -0.020820614 0.13785255
많이 -0.14435 0.053446386 -0.08565116 0.11133186 0.069355205 0.016300695 -0.0030270263 0.12476847 -0.14689171 -0.20719378 0.07553458 -0.041866705 -0.11816099 -0.17645322 -0.017738791 -0.080053255
에게 -0.09270246 0.012543481 0.029221926 0.050864264 -0.11341032 -0.010774721 -0.23590462 0.06581474 -0.020107042 0.108334444 -0.0007664909 -0.105952725 0.15565115 0.021806315 0.043588724 -0.1281771
부터 0.010452571 0.16318104 0.35919988 -0.008360936 -0.09968277 0.11538793 -0.022685131 -0.24008168 0.0922193 -0.012019455 0.19852312 0.19849284 -0.21180102 -0.24082205 0.033179548 0.14481258
주인공 -0.044601522 -0.05749766 -0.057237893 -0.058328092 0.075393304 -0.10847174 -0.06820708 -0.065775566 -0.040330127 0.010358838 0.034743655 0.22120684 0.075886294 -0.13248235 -0.1001455 0.17299204
받 0.025598425 0.0047699325 -0.11171541 -0.0006308914 -0.16704573 0.113456085 0.1857429 -0.10806667 -0.01792671 0.017171215 0.019708637 -0.115012236 0.010540078 -0.032980297 0.07365653 -0.0049962522
합니다 -0.17375147 0.05004671 -0.15251374 -0.11839958 0.015718292 0.0959656 0.030907208 0.1093209 -0.028168363 0.17307243 -0.03739983 0.046511006 0.0806172 0.031053556 -0.021260368 -0.1095702
대 -0.104494914 0.113481015 0.021288754 0.09996261 -0.024409398 -0.07965629 -0.12311974 -0.040629297 0.05906956 -0.06917757 -0.022528537 0.2575411 0.1330393 0.096446104 0.0125190355 -0.0225676
두 0.01211171 -0.11780828 0.056509048 6.5904875e-05 0.15388426 0.21789412 -0.010793153 -0.025550712 0.1723701 -0.1498837 0.07503001 0.09796672 -0.227727 -0.026032703 0.08234721 0.021960437
우리 -0.22201903 0.00693729 -0.007256251 0.08082678 0.11887205 -0.014366186 0.054952133 0.105946325 -0.04300547 0.017953645 0.20690605 -0.10203384 0.17452823 0.045725606 0.11574714 -0.07452378
만든 0.1522626 -0.043130476 0.13172892 -0.10426346 -0.1504744 0.04545751 -0.15465914 -0.13848966 0.026639072 0.0016988973 0.035205733 0.1666827 -0.013962953 0.12851611 0.09948548 0.09994153
길 -0.07857068 -0.20152545 0.038293444 0.22283658 0.07552752 0.18090922 -0.15699172 0.07114012 -0.017176889 -0.0053417236 -0.15881729 0.0016840328 -0.05085284 0.05481776 -0.101752385 0.14723085
엔 -0.109861374 -0.08195595 -0.16414222 0.10359692 -0.033047486 -0.015355521 -0.17661047 -0.084686086 -0.087537386 -0.13229889 -0.078669675 -0.05268542 0.14173983 -0.03871734 -0.113576956 0.32859764
살 0.048594218 0.009330511 0.039678525 -0.08621817 -0.044472266 0.07168932 0.15303187 -0.15659523 0.01596037 0.11354271 0.11870917 0.20613368 -0.0015328953 0.28030384 -0.20063637 0.3219117
괜찮 -0.13767576 -0.069792435 0.16570055 -0.0975348 -0.18209112 0.26863208 0.09823137 0.08343905 -0.05473438 0.2104706 0.2822536 0.40225625 0.121289134 0.006400698 0.0044359276 -0.09450295
요 -0.116452195 -0.1154709 0.020196093 0.17394736 0.032278568 0.082184024 -0.14369655 0.09804853 -0.16322386 -0.044050917 -0.17464289 -0.005158608 0.055440154 0.017379904 0.08995338 -0.033943914
기억 -0.07360848 -0.21704221 0.2754944 -0.1850378 -0.19421537 0.10967408 -0.05526714 0.058459383 -0.014250634 0.17101094 0.046439216 0.1622359 0.015793968 0.15043378 0.15716952 -0.03960412
ㅡㅡ 0.067790404 0.18709634 -0.3760169 -0.11429197 0.15139528 -0.1541792 -0.03860854 -0.023440866 0.19409552 -0.17082168 -0.09386879 -0.21696025 -0.1975666 -0.09883799 -0.20535718 0.09789594
한다 -0.24714603 -0.07192693 0.081578985 0.2896048 0.0643282 0.06798669 -0.00970256 0.114834026 -0.03910464 -0.042665828 -0.11389875 0.119259745 -0.0855725 -0.24580207 0.20497848 -0.022439182
연출 -0.118580356 0.015974551 0.16659416 -0.105045006 -0.19090927 -0.10266461 0.050265577 -0.14158247 0.09580779 -0.26863366 -0.01707949 -0.11105164 -0.20742963 -0.10025768 -0.24970537 -0.1273171
ㅎㅎ -0.049901325 -0.18539453 0.14243734 -0.101305045 -0.23076575 0.015961012 0.30001754 -0.034539215 -0.19802104 0.104838274 0.23836152 -0.10708364 0.09884361 0.017698599 0.01741792 -0.19047181
때문 0.021799618 0.035067365 -0.0755735 -0.17378159 -0.017874677 0.038965113 -0.0047734906 0.12015972 0.0640319 0.05717093 0.02422192 0.07638691 0.07645713 0.08241511 -0.041462943 0.026606064
저 -0.074423775 -0.08651353 0.223711 0.11554771 -0.03855599 0.059758455 -0.00911212 -0.040557645 -0.10339294 0.07674907 -0.017643562 0.14470604 0.04071776 0.016618432 0.15947054 -0.122343585
이나 0.12168659 0.016785687 -0.21208943 -0.034825165 0.1494944 -0.10995293 -0.022668315 -0.16116576 0.25657463 -0.07839076 -0.11536572 -0.14834817 -0.029082354 -0.19441548 0.07901601 0.2720439
재 -0.13665946 -0.096879885 0.16371326 -0.20487013 0.03036959 0.044924743 0.3231559 -0.045405906 -0.16978914 0.08586526 0.21016385 0.02064829 -0.073429495 -0.016615106 0.06501407 -0.025423458
꼭 -0.01700221 -0.18644083 -0.22593404 0.20024648 -0.09758475 0.1768098 0.07990243 0.047636174 -0.2575362 0.03686139 0.33499926 -0.0059609218 0.24827243 0.10696012 0.122700185 0.09838597
며 -0.009919278 -0.10656218 -0.11935645 0.01000192 -0.014077425 0.089390844 -0.07233378 0.021396725 -0.13631818 0.18202876 -0.027330786 0.14570493 0.110232994 0.03876883 0.075147554 -0.05435008
현실 0.008909338 0.029674351 0.17357865 0.15620764 -0.046246998 -0.0868225 0.15649386 0.037276674 -0.05893752 0.022143109 0.15162633 0.17934504 0.033045415 0.017311942 0.20853773 -0.079173885
랑 0.06593215 0.06306333 -0.07991974 -0.15412019 -0.089180745 -0.14718275 0.03112266 -0.0062290095 -0.14382355 0.080518655 -0.07645086 0.07095854 -0.14812726 0.08419044 0.04421658 -0.08400115
긴 0.23558517 0.07276349 -0.023246672 0.1345744 0.21144237 -0.03587254 0.029992623 -0.026371595 0.090852685 0.0225531 0.123800404 -0.18597834 -0.099959336 -0.013840871 -0.055533525 -0.0272658
무슨 0.15765351 0.07133857 -0.17994595 -0.12516513 0.060183097 -0.058042306 -0.11802976 -0.0661561 0.26356402 -0.15022166 0.0716199 0.028504035 -0.048934937 -0.12018729 -0.33741757 0.18465197
내내 -0.17182726 0.01889383 -0.01045067 0.15316662 0.005220194 -0.04581321 0.048325464 -0.060568176 0.068278074 0.09925657 -0.16942775 0.22481614 0.033318706 -0.3060294 0.17756341 -0.048349265
죽 0.18651119 -0.081374064 -0.08048238 -0.07097183 -0.0713388 0.16165328 -0.1314966 -0.048473235 -0.020992348 0.004220106 0.089640714 -0.110966526 -0.13379163 -0.0114436885 -0.070376694 0.11640367
결말 0.084090635 -0.006987127 -0.026679708 0.07833331 -0.12840432 0.23189794 -0.06879896 0.031727094 0.0011292172 0.080332756 -0.065001495 -0.23594703 -0.001891429 0.011517255 0.11084968 0.0445364
남자 0.14864925 -0.07461618 -0.063850336 -0.017087607 -0.024763197 -0.058525566 -0.17726094 0.016329449 -0.07865366 0.11981708 -0.015154606 0.15964623 -0.020769939 0.14076072 0.035217747 0.11038218
전개 0.10430478 0.18015113 -0.08884369 -0.12838608 0.094702296 -0.00033609933 -0.09608264 0.08969267 0.068653874 0.12188138 -0.18218325 0.02458301 -0.25830048 -0.06348647 -0.027506497 -0.17015243
마음 0.107491955 -0.11639327 0.2480765 -0.07735893 -0.19227988 0.19329393 -0.02385986 0.12632434 -0.22947842 0.018581757 0.211234 0.244762 -0.095101885 0.12172186 0.08259724 -0.16358116
세요 -0.24159786 0.098629884 -0.008759672 0.015522753 0.040231157 0.06653846 -0.14947848 -0.01673621 0.17593683 0.20077088 -0.15996188 -0.044081457 0.09105881 -0.020975865 0.011322141 0.09717605
소재 0.12949893 0.11523634 -0.07370484 -0.122913614 0.047994584 -0.050110556 -0.094283715 -0.18873447 0.018070385 -0.04944104 -0.11233939 0.022455463 0.005950447 0.12993853 0.026192874 0.004502178
속 -0.08021818 -0.061798964 0.024128588 0.0004953495 -0.05363498 0.07433367 -0.04783433 -0.18199758 -0.05611295 -0.14390662 -0.09524936 0.026172962 -0.0013421157 -0.24197468 0.26325837 -0.13228166
아서 -0.059586998 -0.006609865 -0.07358921 -0.05634873 -0.15558353 0.0025928053 0.14247891 -0.043979343 -0.005183325 0.0027429024 0.08021646 -0.13853793 -0.14922667 -0.15007658 0.10514996 0.11041845
공포 -0.041693512 -0.023316782 0.049360722 -0.07957456 -0.1462733 -0.043474473 -0.040770132 -0.20790263 -0.01361001 -0.07137185 -0.048527777 0.017178025 -0.08988987 -0.14205915 -0.011139692 0.046243466
데 -0.07625735 0.034695584 -0.09428498 0.19471887 0.12296666 0.113111414 -0.041141808 -0.12168394 -0.058202516 0.116508774 -0.0008784813 0.041127313 0.029713023 -0.13263033 0.02095645 0.047612924
다른 0.078686744 0.01682096 -0.04684614 -0.15886298 0.10487598 0.22248523 -0.12828964 -0.057422984 -0.014297846 0.07433193 0.15794975 0.034947697 0.0397162 0.010844404 0.2237419 -0.016107598
인생 0.1073911 -0.07287538 0.056161515 -0.19878405 0.21510385 0.051717285 -0.06959253 -0.13423261 -0.116227105 0.1549801 0.2990589 0.12809394 -0.14617366 0.26745832 -0.09120885 0.0068948967
씨 0.11363315 0.042838696 0.035387974 0.0019846899 0.100534156 -0.039233796 -0.07024403 -0.271436 0.09625377 -0.18150765 -0.15846348 0.14688411 0.0059360485 0.036050927 0.06178557 -0.03157954
짜증 0.2922026 0.11824133 -0.22440039 -0.060346834 0.16286169 -0.0062213633 -0.16701502 -0.129435 0.095899805 -0.19870844 -0.36286497 -0.15863639 -0.16324441 -0.15700586 -0.23086458 -0.0055091092
뿐 0.09946149 0.15501224 -0.16966218 0.01026576 0.15142913 -0.009521412 -0.07954581 -0.064843625 0.19840062 -0.23630603 0.04103544 0.01947674 -0.1303224 -0.070930056 -0.17474996 0.0020679606
짱 -0.15765652 -0.20522428 -0.054252844 -0.16162921 -0.22040047 0.07941851 0.15849294 0.40829304 -0.339849 -0.117930725 0.23591481 0.11499197 -0.10453656 0.14267898 0.16290446 -0.06422929
은데 -0.015896419 -0.051280014 0.0020033985 -0.050782938 -0.08907444 0.12322028 0.10460372 -0.24995007 0.091887094 -0.17406301 0.07952497 -0.00043085823 0.060827266 0.16065498 0.16044454 0.0753544
아요 -0.033264194 0.008071608 0.14257911 -0.16032001 0.06775713 0.23745717 0.32061967 -0.025177386 -0.13634853 0.16063918 0.026570017 -0.092360854 0.110719554 0.089357756 0.0014978932 -0.052660186
아이 0.09786299 -0.16999678 0.063555114 0.07556002 0.11377018 -0.018803969 0.047692884 -0.033956956 -0.11711373 -0.0680592 0.011185388 -0.15842569 0.019726077 -0.14230153 0.079688966 -0.11208546
필요 -0.06729631 -0.268279 0.008344626 -0.13193597 -0.019401072 0.08208235 0.25652507 0.2093917 0.07117756 0.102052495 0.22505532 -0.019640516 -0.011177544 0.15075362 0.040413253 0.20097558
유치 0.23733626 0.12752849 -0.15934852 -0.08902393 -0.015628977 -0.08610736 -0.09968909 -0.18055104 0.2797905 -0.30842754 -0.16039135 -0.25757572 -0.17882095 -0.26973912 -0.18365914 -0.04926211
가장 -0.0007315885 -0.030496955 0.082325734 0.06901792 -0.13271338 -0.18261103 0.085317306 -0.109916225 -0.19531223 -0.0429803 0.23996702 0.13418113 0.092202775 0.14891855 -0.023313483 -0.18873414
음악 -0.11433801 -0.13128197 -0.06592163 0.02966434 0.06130276 -0.0041988296 0.16987897 -0.13543883 -0.07144298 0.23435445 0.10821663 -0.20322107 -0.04642816 0.0094035985 0.14766902 -0.044448856
일본 0.06301394 0.089545585 0.039908845 -0.094127275 -0.17804024 -0.058850866 0.0012219852 -0.037329547 0.18728611 -0.07077447 -0.014272309 0.12125673 0.10721522 0.0947059 0.1152223 -0.05321507
낮 -0.18566142 -0.39210495 -0.015746275 -0.0046496545 -0.100088544 0.28057677 0.10683985 0.22067836 -0.18748249 0.063938655 0.33533671 -0.22809239 0.19895771 0.2053456 0.26015413 -0.24215181
오 -0.035521585 -0.24368817 0.08284904 -0.07211238 -0.068443045 0.07356551 -0.005412145 0.10176244 0.20324698 0.04570663 -0.11869538 -0.1079036 -0.1166761 -0.040558293 0.1053163 -0.019585323
반전 -0.20133434 -0.06676461 0.17391607 0.19307669 -0.09851144 -0.024175681 0.07547415 -0.12212787 -0.16446866 0.15801553 0.16870323 -0.03461214 -0.108341254 -0.01673092 -0.0478418 0.013355462
수준 0.26173034 0.11447196 -0.103605464 -0.15470561 0.027925074 0.04957984 -0.1826678 0.21499638 0.08976897 -0.12428141 -0.18356022 -0.195146 -0.1645185 -0.14585957 -0.039731972 0.24057786
웃 0.12492332 -0.0031157476 -0.095471434 -0.26674184 -0.0071408832 0.017441304 0.14344877 -0.08368361 -0.04715165 0.10608258 0.10480836 0.19253305 0.047966093 0.018199496 0.057348706 -0.21820207
다니 0.028526347 -0.021476852 -0.06579735 0.10517744 -0.015229106 0.03443719 0.082883395 -0.18931213 -0.1777781 0.021026792 -0.0576276 0.020293197 -0.14157483 0.13102639 -0.13680811 -0.031414635
매력 -0.22276153 0.062827185 -0.28193977 -0.33220255 -0.35620257 -0.02086553 0.12948582 -0.14949033 -0.07005645 0.14658207 0.11916953 0.06625235 0.12944256 0.07144709 0.18287407 -0.12094931
별 0.104838245 0.07360008 -0.0048017795 -0.12029376 0.025103468 -0.069530986 -0.041720808 -0.06641984 0.17954788 -0.19218026 -0.055399816 0.07218893 -0.0024207658 -0.20171265 -0.16094486 -0.10809704
인지 0.11808928 0.2531947 0.012869077 0.053723603 0.017352592 0.19092949 -0.22824135 0.2526549 0.06741166 -0.038377974 -0.0021921366 0.00938716 -0.14544988 0.019825038 -0.09539079 -0.08088322
맞 0.007224072 0.08347778 -0.040652733 -0.065261245 -0.06057311 0.005689831 -0.06063173 0.26489577 0.008063789 -0.11767891 -0.12149101 0.03538525 -0.17986749 -0.10488573 0.040519238 0.098549165
가슴 -0.46733594 -0.28885978 -0.142242 0.108780846 -0.20955287 0.2710952 0.21107319 -0.18278797 -0.3011124 0.21356235 0.015102506 0.20747915 0.16100378 0.10467971 0.1620549 0.092367224
없이 -0.007549053 -0.0436185 -0.060448106 0.09855197 0.08217857 -0.20493497 -0.09102742 0.058308333 -0.016272772 -0.0037494306 -0.044532422 -0.10023481 -0.06095487 -0.03641824 -0.040135913 -0.052335024
원작 0.006960999 0.18782689 0.1765152 0.06376703 0.051583316 0.15133932 -0.0740229 -0.095324665 0.20028962 -0.012617195 -0.23733056 0.039291535 -0.09430085 0.039308988 -0.092139624 -0.049244802
인간 -0.23202197 -0.07330438 0.059864227 0.22659296 -0.06219088 0.2324166 0.03149416 0.05779449 -0.13223256 0.08275911 0.05075049 -0.0459755 0.087649316 -0.066794336 0.06775135 -0.10908721
굿 -0.18457791 0.07044197 -0.034976665 -0.053463925 0.16147621 0.11775753 0.37863338 0.3182631 -0.30517244 0.132592 0.27265093 0.10359783 0.38643363 0.17406029 0.11797332 -0.0939783
높 0.1501076 0.12356559 -0.17325635 0.1084633 -0.11776449 0.06474868 -0.16037068 -0.009630934 0.054978516 -0.20010638 -0.23333102 -0.0968515 -0.08988361 -0.13213594 -0.22139183 -0.121882826
ㄷ -0.15890384 0.0013590398 0.1593736 0.10416229 0.028525673 -0.12169486 -0.0057416055 -0.027083758 -0.067810096 -0.06571087 0.13397063 -0.100819826 0.15385701 0.015866863 0.13663577 -0.008982981
밋 -0.1827031 0.047607075 0.22988638 0.006191673 -0.0185664 0.21385029 -0.023990585 0.17488402 -0.23221318 -0.10490201 0.20721118 0.3415053 0.047662113 0.041762415 -0.060532987 -0.23789458
만드 -0.020352166 -0.04858121 -0.07363163 -0.10740629 -0.015707958 0.040606294 0.00398718 -0.047098693 0.18933174 -0.021435754 0.079924084 0.050467897 -0.06797734 -0.04339946 0.20433107 0.09480623
눈물 0.039493747 -0.12989448 0.046234112 -0.05540677 -0.098984405 0.26557508 0.20529711 -0.21011892 -0.029355625 0.32805562 0.35432157 0.023299307 0.07653607 0.048905954 -0.023485012 -0.074907616
급 0.016285619 0.12881167 -0.04312243 0.0010089853 -0.13867635 -0.06792356 -0.07559537 0.394397 0.0963818 -0.076069206 -0.09941855 0.06246348 -0.07817624 -0.23244566 -0.24600475 0.14483547
보여 -0.020267338 -0.030360894 -0.09700393 -0.091811985 -0.18169548 0.05234148 0.152543 -0.12410627 -0.13250092 -0.09623349 0.060310062 -0.012560504 -0.14567955 -0.11419797 -0.034487467 0.1611216
준 -0.072091386 -0.07242921 0.042666852 0.10242167 0.017334245 0.14285943 -0.075304374 -0.08045003 -0.1939818 0.12010428 -0.076199986 -0.21917883 0.04491344 0.03717446 -0.015987348 -0.0083565125
찍 0.21232167 0.028300287 -0.10656168 -0.124686606 0.21608266 -0.00897844 -0.10557116 0.10856997 0.08874878 -0.20183694 -0.15527627 0.034468114 -0.19868158 -0.2416313 -0.056631714 0.11994321
인가 -0.10804685 0.068175375 -0.07365422 -0.1316802 -0.05819351 0.10243411 -0.09293538 -0.12979832 0.064734 0.039350115 -0.015679743 -0.084169134 -0.037806503 -0.02060791 -0.038732182 -0.0154685015
노 0.47884694 0.14740169 -0.102629974 0.13173005 0.08189465 0.025979726 -0.31744385 -0.10111228 0.15954342 -0.45302978 -0.25170106 -0.112103775 -0.16937186 -0.1779883 -0.17352661 0.32800505
코미디 -0.13359301 0.11450935 -0.20408903 0.019023078 -0.05121595 -0.1318165 -0.21902716 -0.3201146 0.16135342 -0.04339943 -0.12925565 -0.023925193 0.17356236 0.11807252 -0.019581098 0.034725808
신 -0.011443618 -0.09063619 -0.043347366 0.017781936 -0.08507473 0.21586977 -0.065664545 0.17781365 0.0025012856 0.049620736 0.14410529 0.0448813 0.1153351 0.117725335 -0.07373199 0.086394936
용 -0.06044853 0.12221483 -0.08367428 -0.005041992 0.055495363 0.07408464 -0.1348718 0.11603741 0.101077445 -0.11168394 -0.1144827 -0.0054220012 0.04012731 -0.043389168 -0.08728235 -0.15868598
모든 -0.31308073 -0.26486638 -0.09672901 0.095625736 -0.14831807 -0.23037155 0.11610626 -0.0021082773 0.052429758 0.046104893 0.0053022434 -0.15338059 -0.07163568 0.10845352 -0.06200171 -0.03459443
마 -0.009207986 -0.02461651 -0.031965837 0.0032236918 -0.20199426 -0.14507738 -0.17047916 0.21383029 -0.064203836 -0.0012524906 -0.13763693 0.08752748 -0.20632371 -0.018070087 -0.02200319 -0.11138506
화 0.06416634 0.10182642 -0.067676514 -0.04313697 0.16579452 -0.025744814 0.123565935 -0.12241623 0.17578907 -0.2713133 0.077094585 -0.021043455 0.096946396 0.01860598 -0.16996591 -0.11490293
추천 -0.053681124 0.014148707 0.1518752 -0.038191 -0.06877735 0.20161107 0.22564451 0.011775337 -0.04226277 0.16480592 0.112615086 0.34478787 0.008726157 0.1878931 0.13557659 -0.12617248
아직 -0.088398784 -0.027981494 -0.20313632 0.14335044 -0.07751173 0.16381891 0.0017374577 0.23623471 -0.07400995 0.100093834 -0.07027787 -0.008678407 -0.011269998 -0.05353831 -0.019156266 0.18280324
아닌 0.011041675 0.21436729 -0.19172008 -0.10705093 0.12431416 -0.12001442 -0.101639345 0.14639066 -0.03754208 -0.20820738 -0.051099207 -0.13062157 -0.22313336 -0.15578839 0.1558798 0.018799167
처럼 -0.07664606 0.14517158 0.019013356 0.23669554 -0.16688858 0.13108647 0.045941114 0.07357085 -0.03685365 -0.023052804 0.05728896 -0.021669127 -0.15335856 -0.24483198 -0.16071378 0.1704175
쓰 -0.07723228 0.1230744 -0.09875797 -0.050134275 0.10797715 0.05851658 -0.05818117 -0.092985466 -0.037703797 0.0075672404 -0.22799261 -0.058512826 -0.15145011 -0.013618408 -0.055206444 -0.014872772
눈 0.088764876 -0.11772051 -0.037748758 -0.066278964 -0.03990244 0.14766392 0.013853066 0.14159557 0.049606048 -0.08432149 0.0009950957 -0.124418326 0.14704894 0.003951333 -0.058842424 0.060686428
자체 -0.1255026 -0.04851706 -0.050609447 0.038647853 -0.037266806 -0.080804944 0.07289109 -0.032586534 0.0551778 -0.25332868 -0.153226 -0.0900131 0.01078601 -0.21810383 -0.021886555 -0.088437095
울 -0.22400974 -0.18963723 -0.08003479 -0.042367797 -0.10827506 0.060632832 0.44052956 0.18651572 -0.15982337 0.12107051 0.32282028 0.07544801 0.2275115 0.090604715 -0.011151515 -0.11696284
몰입 -0.21873926 -0.1051509 0.30611253 0.2092244 -0.094640784 0.05683027 0.17421384 0.059998587 -0.095738545 0.06636247 0.0944714 0.23665905 0.12027177 -0.041978 0.3258845 -0.1105951
대박 -0.009177962 -0.16076207 0.048822742 -0.014487303 -0.03438509 0.09550903 -0.06481914 -0.08598963 -0.2063735 0.25501257 0.14272729 0.01029811 0.3499887 0.27755436 0.13252707 -0.3873331
란 -0.086350955 0.05137715 0.22951305 0.05072106 0.15485494 0.03625645 0.1541915 0.20420568 0.01408511 -0.017808583 -0.14193666 -0.1551884 0.069575086 -0.017570194 0.11368495 -0.03129555
스럽 -0.011966038 -0.04657594 0.0058170017 -0.0706687 0.12262546 0.030676045 0.007002157 0.051587112 0.11871287 -0.2714567 -0.028597701 0.06550635 -0.082921095 0.13172622 0.006810169 -0.18366851
몇 -0.14871289 -0.28187296 -0.06987978 0.30999848 0.080772355 -0.14436321 0.124405175 9.953647e-05 0.030360192 0.34266666 -0.12103453 0.14342634 0.0308082 0.16228127 0.011957764 0.07297548
을까 0.11196494 0.1713199 -0.07157722 0.081256084 0.17704383 -0.038034964 -0.11602021 0.010471053 -0.06706328 0.026932929 0.16254354 0.14846727 -0.047698937 0.13679938 -0.10701598 -0.18907355
실망 0.3707081 0.07220968 -0.3178985 0.049954638 0.43208972 -0.1799227 -0.2469967 -0.0062880726 0.31838575 -0.34790707 -0.25921264 -0.093249924 -0.2834105 -0.10440548 -0.13335331 0.17482984
대한 -0.13038203 -0.115212366 -0.1140476 -0.2491888 -0.0013863912 0.21396697 -0.07082999 -0.06946249 -0.21728234 0.057840485 -0.017848643 -0.09331902 0.18189009 0.08755147 0.24388742 0.027653776
는다 -0.16501147 -0.09878049 -0.070445366 0.019890452 0.0075052255 0.04731284 -0.051790398 -0.16706736 -0.05526411 0.1727876 -0.04913698 0.08852727 0.00030516298 -0.09357253 -0.06504836 -0.111845896
여 -0.2571968 -0.23070157 -0.09597978 0.17573324 0.026879808 0.12935019 -0.06268903 -0.00733874 0.16127916 -0.041163284 -0.23151596 -0.17096299 0.03842716 0.17735523 0.11376954 0.19947203
그런 -0.0054005412 0.047441944 -0.08274748 -0.06547833 0.12836105 -0.08154875 0.082429156 0.054190524 -0.013147587 -0.025093807 -0.09423164 -0.06031722 0.29088226 0.005857502 0.02283089 0.122971766
죠 -0.163634 -0.014181531 0.022918727 0.073048495 -0.19964157 -0.035194896 0.2748175 -0.21898997 -0.08815764 -0.018265361 0.07710298 0.18460956 0.067893155 0.08622421 0.05421463 -0.06458564
솔직히 0.078742735 -0.062931746 -0.2440219 -0.16175465 -0.03788445 0.07758473 -0.026040908 -0.047438662 -0.014612144 -0.16846684 -0.0843931 -0.015992235 0.05793433 -0.14948758 0.0051975716 -0.10394792
캐릭터 -0.079279594 -0.024688661 -0.003818145 0.08739819 0.067399524 -0.25666496 0.20909408 -0.3050667 0.021536684 -0.07505042 -0.102155715 0.104164794 0.113259934 -0.018360922 -0.21796632 -0.018562458
아주 -0.12899269 0.075293384 0.10731817 0.048198253 0.030181933 0.14337721 -0.009686819 0.005548365 0.12075999 0.0056096436 0.021252036 0.15858427 0.09725845 -0.017455371 0.00033528838 -0.09216042
모두 -0.103750765 -0.037334703 -0.24753736 -0.002865826 -0.018996572 0.15156688 0.001992057 -0.07911217 -0.25772431 0.09456638 0.089117125 -0.07037324 -0.000114915296 0.030229574 0.1418802 -0.13202251
전혀 0.15386935 0.17477821 -0.13134037 -0.026712364 0.03729752 0.0071040993 -0.24347804 -0.11273579 0.086337544 0.09942277 -0.16268535 -0.07613444 -0.1685056 -0.17168123 -0.29860365 0.20899537
가족 0.06630027 -0.014588052 0.08834848 0.247318 -0.15873896 0.17275861 0.029873572 -0.14573699 -0.28311807 0.022612553 0.118653476 0.04761802 0.10869726 0.34658694 0.09593094 0.062040918
여운 -0.32507238 -0.2212924 0.30965632 -0.22699605 -0.13792627 0.6016216 0.07900808 -0.12631716 -0.19888578 0.21104833 0.16177173 0.22424378 0.602624 0.22489804 0.19589928 -0.45653653
건지 0.110366225 0.09837174 -0.1352703 -0.20221327 0.015262234 0.057312556 -0.19902126 0.15140149 0.20543872 -0.06463842 -0.2458118 0.03182881 -0.20444351 -0.10686372 0.021593876 -0.020838153
연기력 -0.059924126 0.071237534 0.09906571 -0.015665015 -0.13422272 0.05538642 0.07002718 -0.07274434 0.13718371 0.047537096 -0.056308586 0.08605703 0.019172374 0.11322977 0.117284626 0.041339766
될 0.1251398 0.12913409 -0.12683865 -0.07224376 -0.022530653 0.12357867 0.005306083 0.03299308 0.13108957 0.043026652 -0.012612816 -0.1482984 -0.093188584 0.09335665 -0.09517834 0.11119966
다면 0.30615583 0.005856111 -0.107874714 -0.041267026 0.048414815 0.0024189404 0.017106678 0.13440333 -0.03896671 0.038707737 0.023514137 -0.08003065 -0.058351792 0.01790455 0.0661869 0.09511138
뭔가 -0.012568801 0.073389985 0.15091604 0.08452502 -0.09445507 0.054470528 -0.079646125 0.12803338 0.050099403 0.0056864806 -0.12936631 -0.011455142 0.12626137 0.021388322 0.022038314 0.11915294
그래도 -0.1440081 0.077277936 -0.17768814 -0.39536873 -0.22804071 0.10264573 -0.006515709 0.10616008 -0.16898344 0.12742876 0.036137894 -0.07168866 0.02457333 0.12716839 0.118689425 -0.15174662
후 -0.016754534 0.19855905 -0.14584206 0.02146443 -0.005758824 -0.20381744 -0.15724725 -0.18734083 -0.0508499 -0.31781122 0.011304813 -0.13828696 -0.23726077 -0.2548244 -0.27246782 -0.00025482167
나라 0.010583503 0.19712584 -0.059922274 0.0054035583 0.24335241 -0.18094152 0.05632029 -0.031625066 0.014006382 -0.14182495 -0.11865897 -0.18694046 0.19588554 0.016805828 -0.07805616 -0.0061637075
시리즈 -0.03790284 0.035994664 -0.058226395 0.011640488 0.041108757 -0.025133254 0.17405316 0.067946956 -0.051948268 -0.027069679 -0.036455583 -0.20779839 0.13386324 -0.0106503805 0.0026752413 0.10324155
ㅎ -0.2567994 -0.0055430587 -0.036951978 0.043009665 -0.11771987 -0.06766945 0.06290223 -0.10485455 -0.10885305 0.17414713 0.02136015 -0.11288627 -0.010323944 -0.16431555 0.15446144 -0.0068579977
근데 0.044877723 -0.12521623 0.060118206 -0.08775284 0.15795103 -0.072756745 0.055235963 0.1528194 -0.16161689 -0.037303627 0.017521184 0.046254177 0.077931374 0.013543225 0.24917825 -0.06548003
표현 0.04500897 -0.10453903 -0.008459885 -0.19535698 0.012658173 -0.15826537 0.2539133 -0.1325665 -0.295749 0.18816979 0.19405487 -0.026441965 -0.047835056 0.09981965 0.10977914 0.308615
모습 0.19070402 -0.10172039 0.1885068 0.050084256 0.1891041 -0.26308385 0.056738842 0.13788776 -0.06493554 -0.02423431 -0.035441667 0.12958859 0.157137 -0.014707728 0.107102625 -0.09918785
계속 -0.027407983 -0.12106924 -0.075948566 0.116277605 -0.21568727 0.24562019 0.15243101 -0.20476694 -0.09669352 0.185001 0.042664677 0.003886025 0.12762381 0.22050302 0.13558672 -0.12160866
작 0.122876294 0.027597195 -0.057462245 0.079536214 -0.19203061 -0.09181477 -0.01758304 0.1729417 0.05666646 -0.037920482 0.019402847 -0.10571544 0.2267608 -0.17365526 -0.010263404 0.17784515
공감 -0.07554192 -0.046497017 -0.081144154 -0.16261663 0.08413005 0.004417045 0.1194796 -0.0108028455 -0.12777232 -0.100624695 0.22053331 0.45700017 0.036028013 0.13541873 0.15346816 0.11059508
먹 0.124287225 -0.103437126 0.019668961 0.1616578 0.095750496 -0.025417874 0.16369475 -0.051530547 0.028319968 -0.16569732 -0.14522757 -0.022395898 0.084243216 0.038058545 -0.05652912 -0.08467381
제목 0.13620634 0.06043972 -0.02237936 0.028807763 -0.03156981 0.08712367 0.009721116 -0.040246774 -0.07197167 -0.100138485 0.07547487 -0.032012075 -0.041411676 0.039728574 0.06983149 -0.04401591
비 0.17897093 0.07673439 0.1191644 -0.1981522 0.22668 -0.08701734 -0.008801664 0.035025228 0.009150636 -0.15578263 -0.32270002 0.08823935 -0.05743803 -0.012725586 -0.24849297 0.072768494
이랑 0.13958214 0.04687432 -0.06941025 0.16897286 0.028490415 0.17396316 -0.084150895 -0.04667178 -0.0031899423 -0.14609914 -0.026422689 -0.13178772 -0.1895182 -0.068252824 -0.10813972 0.12339857
극장 0.14052697 0.07796302 0.21194457 -0.23061293 0.16508448 -0.037454613 -0.04610556 0.03429621 0.10421323 -0.042562604 -0.051816955 -0.039179638 0.04960879 -0.041779656 0.08468095 -0.24455573
치 0.100551836 0.19044396 -0.008365415 -0.056433003 0.09647049 -0.04900507 -0.05094448 -0.1826732 -0.04626254 -0.113925725 -0.053385254 0.11175092 -0.025972335 -0.055024445 -0.027265199 0.04800811
이걸 0.029162712 -0.0030087212 -0.26108965 -0.15815836 0.18658452 -0.090908535 -0.2502038 0.051421992 0.19447422 -0.13835765 -0.043159693 -0.121372536 0.06146187 -0.14675522 -0.15152688 -0.16517481
부분 -0.015482388 0.082493864 -0.029237473 -0.21517693 0.12050243 -0.13404286 -0.027667675 -0.024580186 0.06020338 -0.15108733 -0.05751268 0.032477584 -0.009745596 0.08354739 0.06378188 0.1060523
그렇 0.15368396 -0.09199241 -0.07642802 0.047042374 0.24514583 0.053542275 -0.21574004 0.07463642 -0.058411084 -0.21700907 -0.2149019 -0.0844256 0.036543157 -0.06652654 0.07611072 0.10119021
대사 0.053353336 -0.051583037 0.0463995 0.06551579 -0.08742577 -0.10641664 0.023598017 -0.15632445 -0.2304663 -0.20505942 -0.07977778 0.22088717 0.12943394 0.16331564 0.11167793 -0.08388568
바 0.12533179 0.08858016 -0.23592134 0.2557323 0.025486587 -0.17574981 -0.2997741 0.021916071 0.16618896 0.091604166 -0.24156728 -0.12428601 -0.18856592 -0.19077972 -0.14509368 0.13087028
대단 -0.07908719 -0.006058739 0.17194572 -0.07306935 0.04372198 0.010849947 0.17925936 0.018077495 -0.27585825 0.10939071 0.117876515 0.16541082 0.17715712 0.2715409 0.0018118167 -0.14771183
어디 0.12638953 0.12935618 0.0020872597 0.073200665 0.122343786 -0.01610715 0.031691067 0.13525778 0.0030547527 0.007190002 -0.087145425 -0.19092345 0.09090517 0.16487767 -0.055030257 0.11637531
개봉 -0.00027951342 -0.027394105 0.03858954 -0.03707995 0.14155677 0.00841373 -0.15519348 -0.05359421 0.062244292 -0.13344552 -0.082748614 -0.02600104 -0.15473075 -0.24786302 0.049425226 -0.09396469
진 -0.21683352 0.09161888 -0.11214156 0.01101499 -0.2659284 -0.121497095 -0.1029957 0.04145566 -0.27366832 0.056018703 -0.02653738 -0.102143176 0.06859257 -0.16006422 -0.01976625 0.03395744
아쉽 0.0499487 -0.073689006 -0.0314343 0.032964613 0.14113127 -0.09658273 0.090530396 0.0858681 -0.07099569 -0.19548826 0.13018203 -0.1798713 0.09049607 0.08662383 0.12434846 0.10317764
된다 -0.12156333 -0.16544786 0.24467485 0.029686129 -0.022562314 0.10732352 0.10707321 0.21545704 -0.09292238 0.07731322 0.21215472 -0.2175 -0.056220535 0.09058554 0.25002518 -0.14189701
기분 0.06893119 0.154981 -0.063411236 -0.00088472356 -0.16284722 -0.1299118 -0.09113602 -0.013780588 0.086949 0.040610116 -0.17198703 0.011433064 -0.06232646 -0.3000864 0.20865364 -0.0043321787
작가 0.06619276 -0.030709079 -0.2023702 0.010947427 0.13454898 0.009329382 0.06535691 -0.07072182 0.25997174 -0.052468028 -0.23774642 -0.006219786 -0.04350326 0.2558266 -0.0043022623 -0.0251419
진심 -0.040551398 0.29563943 0.10270654 -0.05109423 0.022863382 0.16829343 0.049470577 0.060989764 -0.041802254 0.013072989 -0.058763724 0.018513042 -0.16745621 -0.14536946 -0.062564015 -0.09544295
구 -0.23787586 -0.117504954 0.08008342 -0.022236945 0.021300923 -0.10927444 -0.01095914 -0.23793617 0.09514573 0.06867211 0.16905431 -0.00814339 0.24801461 -0.13080284 0.15482728 -0.12133573
해도 -0.021579498 0.23601352 -0.36162382 -0.034995172 -0.10556121 -0.18257591 0.06290836 -0.024373753 -0.0013785094 0.017241098 -0.052194044 -0.0005539371 -0.047498636 -0.13394675 0.0033100687 0.08434954
놓 0.02701959 0.17459409 -0.0431074 0.07304281 0.23508139 -0.33466578 -0.14234196 0.049661864 0.026626956 -0.1627725 0.113612965 -0.08907679 -0.2878336 -0.11559904 -0.17858537 -0.07499558
타임 -0.037073806 0.053125467 0.13604656 -0.15784773 0.0649407 -0.08429241 0.10137297 0.14580816 0.029361462 0.07526023 0.0044135395 -0.13332716 0.06653987 0.005386607 -0.11137896 0.09646107
봐야 0.12314571 -0.026468236 0.30109695 -0.16551353 0.022130974 0.27187067 0.34351555 0.1112799 -0.18244079 -0.16910967 0.13623194 0.06845504 0.2207529 0.046921913 0.03248932 -0.11640774
제 -0.13488318 0.15230744 0.11312222 -0.07003528 -0.024531074 -0.12791675 -0.118674055 -0.28668714 -0.18626687 -0.007580292 0.030429441 -0.16370791 -0.12271138 0.016130595 -0.05538998 -0.005295032
보이 -0.053612567 0.011939192 -0.02396391 0.067204066 0.031763986 0.050839435 -0.31021696 0.05867445 -0.10402129 0.057857078 0.051906567 -0.017109212 0.010680051 -0.07648327 -0.108921155 0.1704395
웃기 -0.02888382 0.06253621 0.15766574 0.06008622 -0.28196993 0.19047816 0.009679756 0.00550356 -0.008204903 -0.015310791 -0.06153468 0.1531411 0.061804064 0.029819226 0.0040215137 -0.09022867
막장 0.1672064 0.017882457 -0.15725 -0.10662657 0.22246616 -0.06645725 -0.1614922 0.14230767 0.26728547 -0.21056621 -0.07617102 -0.21589555 -0.21886414 -0.11036226 -0.08059426 0.21654795
삶 0.11098406 -0.17745791 0.31384426 0.0859474 0.093179606 0.04602765 0.28608343 0.12069722 -0.2560002 0.05272115 0.04899728 0.02824874 0.2593707 0.27851516 0.35104895 0.024097404
물 -0.058579896 -0.04235995 -0.06412447 0.01131511 -0.099425055 -0.04009176 -0.09791123 -0.12369594 0.18307 -0.016136622 -0.029880546 -0.040848166 -0.048051387 0.0021528366 -0.10590512 0.14123693
친구 -0.1563558 -0.14248118 -0.15078764 0.13212846 -0.06652526 0.28548154 0.06195931 -0.00831162 -0.056709055 -0.07820609 -0.14228074 0.17086482 0.007097597 0.26362023 0.10011744 0.08178029
잔잔 0.21189822 -0.31281626 -0.0036235787 0.43241686 0.16356198 0.024592398 0.22163205 0.020684138 -0.23010337 -0.07191853 0.12020588 0.080897905 0.116319194 0.09417992 -0.028264362 0.03594231
이제 0.12956132 0.23143621 -0.27916902 -0.14363652 0.06525772 -0.2703993 0.084246166 -0.28923902 -0.124016225 0.069589436 -0.15921937 -0.08030788 0.00429672 -0.14840291 -0.04304026 -0.12751648
조금 0.061220642 -0.15526542 0.03589987 0.18366781 0.046086147 0.061584394 0.054617416 0.07668382 0.084622145 -0.007851487 0.329428 0.009816006 -0.101967394 -0.13412671 -0.0073738345 0.089776464
억지 0.38745746 0.18830642 -0.2670543 -0.30821317 0.3169354 -0.12519053 -0.20685811 0.041423284 0.27207613 -0.31806678 -0.1968229 -0.27309996 -0.14391011 -0.11112204 -0.16190843 -0.27555016
가지 0.085595466 0.04548438 -0.040808152 -0.21191043 0.031096928 -0.041525397 0.13003372 0.031574268 -0.15146752 0.046983212 -0.04430465 -0.12086989 0.022381669 -0.05271436 -0.13582627 0.07040549
ㅠ 0.026106624 -0.28836188 0.10029077 0.36487395 0.045179155 0.114271194 0.018215328 0.14282188 0.19860014 0.38828814 0.0014390678 -0.23815133 0.14026819 -0.06934586 -0.027896255 -0.12515949
영상 -0.024082445 0.092022695 0.1297258 0.0823823 0.13065681 0.016153539 -0.042042617 0.2020127 0.08871991 0.053876586 0.0025692836 0.006447629 0.14107716 0.019081315 -0.02432597 -0.03604323
찾 -0.16973253 0.024433196 0.09700351 0.066752285 -0.10218981 0.034390002 0.0070441314 0.053407673 -0.06516686 0.08164554 0.10854828 -0.05955893 -0.16752277 -0.17723925 0.13257638 0.1469779
라도 0.013857017 0.13862115 0.06256796 0.063737616 -0.013552217 -0.0727494 -0.06562444 0.031537835 0.020678205 0.01714829 -0.23027284 -0.0071324427 0.011069274 -0.318884 -0.07130972 0.24237172
씬 -0.18981922 0.028553683 -0.055310365 -0.0897505 0.045875642 0.008806856 -0.025906775 0.10862769 0.026884157 -0.059269756 0.05282311 -0.09118436 -0.042947646 0.1900516 0.014239625 -0.21261199
딱 0.03680106 0.18390535 -0.12167611 -0.17886633 0.06956271 0.2288423 -0.0006391568 -0.04433671 -0.056350466 -0.21191125 0.03727796 0.1988227 -0.11656517 0.15659209 -0.06681777 -0.076361366
요즘 -0.033736676 -0.35350224 -0.0055461708 0.12938182 -0.1702767 0.098488964 0.12937555 0.218251 -0.07640199 0.09681523 0.28906474 -0.056172155 0.037282933 0.21517213 0.1315758 -0.06520497
같이 0.117110066 -0.10686089 0.18860863 -0.0797141 -0.03947964 -0.14325075 0.028990917 -0.053470552 -0.018848484 -0.21296541 -0.109363265 0.06930864 -0.12412069 0.070895374 0.12457766 0.037321866
스릴러 0.028201861 0.029430144 0.04078465 -0.15948811 -0.18529993 0.039170586 -0.12913607 0.02156271 0.025585191 0.04374087 0.121195 0.14044866 0.02657718 0.0024457737 0.02778419 -0.14058825
믿 0.0011630942 -0.03206061 0.024292411 0.23343644 0.010209029 -0.02699467 0.06636567 0.028300129 -0.07270341 -0.26747206 -0.06915997 0.21513827 -0.03571505 0.039043553 0.19757995 -0.00018041463
싫 0.10854498 0.014229744 -0.13164848 0.18879995 0.24295862 -0.29914093 -0.3408033 0.25906977 -0.003234759 -0.07661968 -0.06042477 -0.14485873 -0.1613875 -0.19280913 -0.23194404 -0.03901071
나왔 -0.018613255 -0.015502599 -0.081475966 -0.102660105 0.10575776 0.06271821 -0.02472584 0.08857985 0.05272629 0.08053484 -0.19968165 -0.12425087 0.05641278 -0.18294966 -0.13017145 0.100577354
아까운 0.062133256 0.2685949 -0.022826154 -0.06262592 0.09500416 -0.13787787 -0.1615428 5.7055964e-05 0.13908738 -0.1097959 -0.1610367 0.090843625 -0.2198134 -0.38196126 -0.26264796 0.12542376
중간 0.11023455 0.09942688 0.031543132 0.10867778 0.20314771 0.08962458 -0.16402468 0.018595785 0.047579866 -0.07426606 -0.077345274 0.057707753 -0.03889283 -0.0019905302 -0.01039377 -0.18772301
긴장감 -0.22274962 0.06276223 0.123055 0.106209934 -0.21688548 -0.047298912 0.031598635 0.15226945 -0.2612553 -0.10394091 0.15431423 0.17245911 0.10541266 0.07953759 0.11550481 -0.1402826
어떻게 0.007871712 0.05636069 -0.055911068 0.07242654 0.12505287 0.23701018 -0.011492711 0.1621381 -0.16337676 0.031558316 -0.079896644 -0.3083921 0.037245013 -0.12680425 -0.28823334 -0.012486616
개인 -0.031405564 0.014395789 0.018701237 0.16968535 -0.0716771 -0.34050027 -0.0027714092 -0.033181094 0.016046144 -0.12452769 0.037476964 0.084370986 0.025887735 0.08488623 -0.0861656 -0.06986507
제대로 -0.118352845 -0.0269401 0.36972988 -0.058465894 -0.19841164 -0.046709668 -0.30194154 -0.1036676 -0.09249214 0.25747797 -0.19103594 0.07794316 -0.0012077789 0.05439264 0.08582319 0.090526484
점수 0.14879301 0.190869 0.07638658 0.0053937505 0.013636194 -0.07802379 -0.17720398 0.1487107 0.10369665 -0.23788387 0.047756195 -0.13844772 -0.097809784 0.044595934 -0.11777665 -0.103396766
부족 0.28344497 0.117179364 -0.039078444 0.026548807 0.031132014 0.08070145 -0.06932385 0.07417824 0.08514916 -0.06755311 -0.06897339 -0.27505004 -0.087772936 0.093369074 -0.20875065 -0.052954074
이유 0.10692862 0.043643177 -0.15556087 -0.0001413689 0.033062123 0.028867131 -0.08387398 0.10661859 0.06941986 -0.0073157595 -0.12147969 -0.14867054 -0.05541535 0.0963672 -0.023491105 -0.11018284
노래 -0.0256163 -0.17265078 0.17281991 -0.13707235 0.060996845 -0.008977569 0.18506715 -0.3112342 0.06592923 0.0014718382 -0.0027606855 -0.039218955 -0.035550218 0.15540138 0.117046826 0.02457784
만큼 -0.12448076 0.119934306 0.0013419423 0.1524371 -0.04623442 -0.121539555 0.21189177 0.03590717 -0.035642054 0.14176425 0.13114119 0.13066052 0.15666121 -0.007997735 -0.028200835 0.1374672
ㅜㅜ -0.2936471 0.12772654 0.28780958 -0.15774685 -0.22582531 0.10439271 0.17149457 0.1999476 -0.088906094 -0.12344623 0.12860347 0.033210013 -0.025450878 -0.12626909 -0.26030785 0.06817422
라면 -0.2729234 -0.005392854 -0.15267229 -0.016034001 0.13982446 0.043587316 0.13893853 0.07712928 -0.09206947 -0.050786562 -0.019511905 0.035121005 0.11447417 -0.19304985 0.06710402 0.14050321
시작 0.045079835 -0.017281033 0.087542236 -0.23637451 -0.12393843 0.14407249 0.0066372748 0.054519616 0.020734051 -0.08336981 -0.107668445 -0.0462576 -0.107248776 0.011716369 -0.029075256 -0.08966223
잇 -0.018435396 -0.055741612 0.3052633 -0.055037715 -0.2571709 0.038358614 0.09095607 -0.031408805 0.05968013 -0.016291846 0.018897925 0.21211915 0.0057525393 -0.08457717 0.04880439 -0.15459132
구나 0.17899968 0.16249602 0.14998403 -0.2424858 0.089544035 0.2791217 0.09325279 -0.14383918 0.16298935 -0.019838974 0.048848625 0.071604975 -0.0582947 -0.07651739 0.2818345 0.12109405
한테 -0.11870767 0.14764708 -0.10770307 -0.11898836 0.15504767 -0.11078714 -0.07303853 0.033952545 0.08835397 -0.08571868 0.08832311 0.08009219 -0.028974548 -0.14528169 -0.19518839 -0.0657464
특히 0.11196079 -0.17895806 0.060865927 -0.17980784 0.18514754 0.22534397 0.23859899 -0.1839603 -0.13123871 0.11927224 0.21780731 -0.081291504 0.16766077 0.11978337 0.17996298 -0.035675704
려고 0.20884222 -0.024592007 0.060049072 0.14290698 -0.032866042 -0.09445807 -0.08308752 0.03462179 0.10369684 0.04540257 -0.10851666 -0.22647801 -0.13390747 -0.24531765 -0.19127364 0.09004987
날 0.02763221 -0.09448014 0.11103085 0.23185407 0.12285844 -0.045173164 0.10221125 -0.124705575 0.13268694 -0.064297535 -0.0037650673 0.07812843 0.15161586 0.16467266 0.1058571 0.1335742
제일 0.06673229 0.09179235 0.035575174 0.093610585 -0.07568964 0.009367562 -0.022538494 0.09609385 0.034037527 -0.15924412 -0.040025085 0.032398738 -0.080872856 -0.2936004 -0.093886115 0.06207564
아름다운 -0.3821263 -0.17309608 0.019682184 0.010238554 -0.4223674 0.21327698 0.06687252 0.20540783 -0.07513576 0.14473845 0.36814606 0.5483703 -0.022675326 0.23877345 0.10204237 -0.04744156
시대 -0.036819685 -0.32001382 0.1653002 0.12192239 -0.11740834 -0.08039219 -0.18570031 0.048931338 -0.08037662 -0.022527795 -0.07822962 0.07663062 -0.21564163 -0.04166238 -0.21641603 0.02175048
니까 -0.18428637 0.003062367 -0.03784642 -0.24976988 0.15823433 0.024368439 0.051409062 -0.011227824 0.06562805 -0.016347257 0.2975172 0.053739417 -0.015150495 0.12007316 0.07326119 -0.0542777
엔딩 -0.14631996 0.015941989 0.10417184 0.07697348 -0.024032136 -0.07772177 0.072036706 0.08705975 -0.10921843 0.0018188796 0.061831556 -0.13168603 0.0011648174 0.12400999 -0.0001827181 0.12753566
당시 -0.12673116 0.06924693 -0.0719343 -0.20489667 -0.10212833 0.15637393 0.09400034 -0.006719008 -0.072114125 0.094363086 -0.058487188 -0.09746614 -0.04739291 -0.00963665 0.11977161 -0.05356361
나름 0.06962964 0.07209073 0.17298584 0.005520118 0.1804132 0.13506944 0.1689159 0.0033924694 -0.19779019 -0.075880684 -0.031991974 -0.21670441 0.26661333 -0.08633405 0.16366258 0.16116142
무섭 0.014667897 -0.19567761 0.3485794 0.0331149 -0.16872825 -0.22394101 -0.014590971 0.102684766 0.04218831 0.034441076 -0.31282276 0.071702704 0.05737886 -0.041056458 0.181828 0.17423424
오랜만 -0.10072404 -0.1266253 -0.0063495063 0.18269292 0.04317645 -0.13789076 0.3275457 -0.100097254 -0.2472623 0.13927521 0.04591438 0.1376603 0.09404474 0.0832902 0.27030602 -0.1146002
나온 0.13710535 -0.12230601 -0.09358526 0.20998532 0.022895979 0.018573273 0.0873454 0.012999711 0.14932445 0.0713341 -0.08053104 -0.10754339 -0.026006635 0.015844123 -0.21083817 -0.07248705
이것 -0.03632626 -0.044938594 -0.118055664 0.17248316 -0.008558089 -0.06129812 -0.2229727 -0.06377714 0.23367761 0.02150041 -0.06683141 -0.019996546 -0.10768343 -0.16866437 0.023279063 0.19543816
봐 -0.050438814 0.047322642 -0.061919387 0.10006457 0.11755402 0.07546432 0.09131918 -0.10267934 0.07832403 -0.10291579 -0.08352445 0.13524981 0.2082428 0.055979446 -0.15493435 0.13337092
팬 -0.11052628 0.22203472 0.13483807 0.18309943 -0.3100582 -0.0020990414 -0.16707855 -0.07402657 0.076131605 -0.02704504 -0.16019057 0.22774956 -0.1464892 -0.15525271 -0.18775727 -0.13292484
해요 -0.09705472 -0.082781896 0.17073633 0.1757981 -0.24878702 0.27431193 -0.070032924 0.07361052 -0.030086154 0.18628648 0.04443403 -0.18079053 0.0101466775 0.20949674 -0.013921795 -0.030009344
사 -0.18654275 -0.021068579 0.08937886 -0.021247312 -0.027074235 -0.00071017834 0.12201711 0.03655832 -0.11111326 0.09468193 0.118002035 0.0683675 -0.08171587 0.14205797 0.044340953 -0.16575864
차라리 0.5086836 0.3098039 -0.34708327 -0.12778366 0.15469146 -0.21126023 -0.3885773 -0.11399605 0.34878668 -0.15935785 -0.3415972 0.10194137 -0.19829872 -0.22667384 -0.31587458 0.068611786
절대 0.10852717 0.18273978 0.020798057 0.16038096 -0.040985487 0.09453734 0.03540864 -0.064782985 0.11153017 -0.056570318 0.028188493 0.18959603 -0.22159916 -0.09912132 -0.15845262 0.14767078
세상 -0.25324762 -0.063246444 0.20534134 0.004099124 0.05746026 0.018342897 -0.062313143 -0.1229621 -0.006423687 -0.055997703 0.032898247 -0.08458585 0.19184887 0.009756187 0.11675822 0.050099432
못하 0.17826317 0.13659571 -0.16835451 0.09658303 -0.031750813 -0.1432647 -0.18304335 -0.0055775046 -0.048827782 -0.16003107 -0.09828634 -0.24823543 0.1251316 -0.24727719 -0.0071355486 -0.07923206
감 -0.057311993 0.03269422 0.0451451 -0.13100687 0.08212121 -0.07682146 0.008631758 -0.053730473 -0.1594528 -0.0813057 0.17965853 0.046463393 -0.05553013 -0.11145667 -0.13292423 -0.15921727
의미 0.11214925 0.1239175 0.04541239 0.23508553 0.033691563 0.052850936 -0.13234755 -0.18591921 0.07947217 0.1797912 0.099569984 -0.10661055 -0.102926254 -0.14050257 0.118065074 -0.13608928
봄 -0.11114644 -0.2562484 0.08141542 -0.1598293 -0.17766042 0.22630917 0.074490875 0.0693139 -0.14098914 0.20942995 0.0029978552 -0.08028452 0.025146924 0.11953763 -0.15332349 -0.11549323
훌륭 -0.18304607 -0.032536767 -0.11716451 -0.2466308 -0.21699998 0.30847222 0.16745381 0.06583733 -0.16793281 0.19248593 0.13328989 0.2059594 0.26842922 0.2689461 0.24260458 -0.30220327
욕 0.090562075 0.21489769 -0.3888975 -0.09043746 0.05292148 -0.06726303 -0.19070782 0.13445643 -0.09495582 -0.0989433 -0.040176906 -0.06368147 -0.29601043 -0.334003 -0.07374235 -0.046481427
너무나 -0.13299319 0.25691715 0.24904935 -0.16196196 -0.21672074 0.1714426 -0.20747505 -0.017786574 -0.17448366 -0.07766366 -0.024926407 0.09069196 0.22445112 -0.07936107 0.24217182 -0.12421997
강추 0.24593124 -0.27222753 0.20225665 0.08584036 0.10742197 0.20377277 0.07748983 0.1336516 -0.09969015 0.068955824 0.31024626 -0.0076216976 0.13239947 0.16706046 0.30809373 -0.003576649
드 -0.045886558 -0.09860568 -0.11440524 0.08334553 -0.07835864 -0.047333576 -0.01688423 -0.12782326 0.043904074 0.003636821 -0.17572723 -0.1847869 0.115080304 0.078390755 -0.05732403 0.008682379
따뜻 -0.16091417 -0.14311762 0.010636873 0.05230512 -0.12894249 0.2846139 0.20983042 -0.1874217 -0.05792025 0.25300387 -0.008406216 0.19969389 0.18697111 0.23155834 0.32798478 -0.0366627
됨 -0.031075614 0.0070542926 -0.06305208 -0.21261948 -0.04439438 0.055174287 0.047790136 0.12921913 -0.18204828 0.18329027 0.0018425015 -0.04775092 -0.029266672 -0.27349254 0.12665154 0.076153085
빼 0.122433975 0.2689691 -0.24941371 -0.2157173 -0.13385148 -0.1846402 0.07667096 -0.19388017 0.15626822 -0.08347974 -0.028450632 -0.03676096 -0.13004754 0.18190338 -0.066498294 0.042241994
느끼 -0.36118525 -0.1161105 -0.16674785 -0.039112862 -0.0211658 -0.057977337 0.19303836 0.28620544 -0.08401979 0.13897267 0.021748057 0.03763244 -0.06272429 0.06328845 0.064902484 -0.20335956
해야 -0.13124698 -0.036315795 0.08140434 0.03714669 0.07516099 -0.15340923 0.12842947 -0.19152987 -0.053483665 0.12389457 -0.02856278 -0.17373212 -0.10312446 -0.13595454 -0.048266917 0.14405061
명 -0.0029488485 0.063075475 0.03827755 0.13274392 -0.429062 0.08076733 -0.12280547 0.023580251 0.03694214 0.038434777 0.21566823 -0.15662447 -0.04581954 0.15191184 0.039362613 0.3079141
글 0.27349502 0.047967296 -0.0675438 0.04335382 -0.11525115 -0.16705857 -0.2570603 -0.07970952 -0.04626123 -0.22414577 -0.28081748 -0.21501881 0.048816346 -0.06408756 0.04279029 -0.007548867
던데 -0.18920368 -0.28213808 0.10093068 -0.004422647 0.10484939 0.17162016 -0.11274006 0.17975806 -0.1548285 0.018114844 -0.27885696 -0.0770031 0.10746021 0.054530922 0.19776058 -0.026971191
뻔 0.1631876 0.048407692 -0.064562574 0.2503839 0.19336994 0.11428488 -0.042292066 0.17297478 0.11124148 -0.17864452 -0.0352655 -0.05130701 -0.10024078 -0.18673429 -0.034138173 0.10773787
도대체 0.04056623 0.14715244 -0.14392331 -0.11273423 -0.021729555 -0.22753692 -0.01569526 -0.26295274 0.052513126 -0.13323382 -0.27804464 0.053174496 -0.038041532 0.00022529204 -0.10043749 0.04449254
어야 0.038336363 0.1686088 -0.11508889 -0.14257568 -0.05901813 0.022868713 -0.11632504 -0.03125499 0.09758517 0.019465797 -0.2203136 -0.11958826 0.14846498 -0.13694063 -0.00028559618 0.25869006
마다 -0.20209847 0.25648326 -0.1954474 0.115103856 -0.22334526 0.046807706 -0.02929991 0.051874097 -0.015949566 0.07283946 -0.063762575 0.022416867 0.14066415 -0.022774352 0.05806914 0.06101667
답답 0.18728375 0.19665343 -0.06417931 -0.07089137 0.26951274 0.25034696 -0.12086667 -0.108373046 0.15076162 -0.3692485 -0.11942237 -0.21848817 -0.07934502 -0.09697833 -0.200511 0.09988788
전쟁 0.17873463 0.056760468 0.124495186 -0.041980453 -0.10611032 0.19584793 -0.20245618 -0.04217157 -0.05085397 0.037313662 0.33223173 0.33029556 0.17684485 0.109858096 0.0883379 -0.21582149
놈 0.11732644 0.07156866 -0.12939586 0.15041623 0.13948713 0.16378038 0.00058087596 -0.025991252 0.044043157 0.049071223 -0.026005996 -0.08159177 0.012443858 -0.09402262 -0.04795296 0.039263032
무엇 -0.11384147 0.004529823 -0.08760834 0.0056568077 0.19944455 -0.10084874 0.12297129 0.09648243 -0.15219347 -0.15815501 -0.13020575 -0.13773938 0.033511702 -0.106444195 0.15766187 0.21045755
설정 0.12452554 0.13427618 -0.050840825 -0.031148367 0.17974806 -0.12179593 -0.10711469 0.19325835 0.08974031 -0.25734118 -0.19994994 0.1699704 -0.24614593 -0.037560254 -0.23701526 -0.07070569
흥미 -0.26936552 0.14463565 0.07368736 -0.04131989 -0.066028126 0.021307202 -0.037899863 -0.2330767 -0.08433824 -0.040276453 -0.10897504 0.12696725 0.025815545 0.19646822 0.3029261 -0.12773143
만화 -0.012731294 0.06572986 0.0074630375 -0.040722612 0.022105973 0.12403356 0.02300314 0.20180129 0.2347478 -0.13272196 -0.17712374 -0.17994142 0.0074042133 0.15006536 -0.21255907 0.20927383
그저 0.31927508 -0.12103293 -0.27991363 0.07311283 0.18762422 -0.2564332 0.042728588 0.12373651 0.13867547 -0.15130661 -0.14257991 0.020120269 0.0967535 -0.13742775 -0.033057842 -0.0033153156
감정 -0.025587142 0.013361954 0.13456216 0.14320664 -0.3043956 0.064749494 0.16776489 -0.14043458 0.08246063 0.22121231 0.075124934 -0.020387642 0.09549367 -0.041441914 0.107010484 0.07068895
준다 0.31155092 -0.08528957 0.14347292 0.030058606 -0.23674734 0.047813684 -0.09142699 0.15340547 -0.14477947 0.07261406 0.055155136 0.06928122 0.2942597 0.09050672 -0.1965704 -0.0059315516
수작 -0.3256298 -0.32652307 0.27250522 -0.12432491 0.0048325513 0.22366095 0.22092141 0.17085774 -0.4427213 0.26127633 0.25274113 0.035402346 0.3450977 0.30615273 0.41989067 -0.41832045
행복 -0.14391756 -0.02373904 0.009980589 -0.12903228 -0.0037281823 0.17923726 0.13486096 -0.030095814 -0.23753646 0.21178247 0.27918288 -0.05998088 0.23326395 0.15502335 0.05594334 0.03615305
신선 -0.18069042 -0.15125038 0.033923205 -0.09897136 -0.18479244 0.118167445 0.31029004 0.031085828 -0.13203204 0.13607687 0.28861514 0.21602862 0.16377586 0.11172572 0.24560261 -0.045061048
미국 0.013064831 -0.048377637 0.06487357 0.088489935 0.030879583 0.046143048 0.04054432 0.22651878 -0.11134465 -0.098326385 0.26335493 -0.11260436 -0.021218196 0.15564936 -0.0853904 -0.059251215
앞 -0.125523 0.06282344 -0.018084224 0.14855185 0.22052704 -0.17077467 0.029906606 0.12610196 -0.18363716 -0.13400465 0.087077 0.063320674 0.25588885 0.00270699 -0.16006412 0.03496187
허접 0.27009845 0.103739716 -0.2940129 -0.16845419 0.19683199 -0.117175646 -0.16480075 0.021679003 0.25823957 -0.20054787 -0.22046305 -0.017870918 -0.38964957 -0.28969294 -0.15409788 -0.23279151
형 -0.120954745 -0.022890897 0.057793155 0.22295247 -0.08792344 0.04818628 -0.018695245 0.23125142 0.1503904 -0.031357016 0.042895563 -0.11183261 0.04608109 -0.020907259 0.12774761 0.06374216
세 0.04215312 0.003597497 0.0170079 0.044973798 0.13299419 0.116383016 0.07130817 0.17004012 0.0724113 -0.0074296794 -0.19457091 0.082347214 0.03674503 0.091244444 -0.22457944 -0.24992524
시절 -0.23084584 -0.026164638 -0.19821557 0.039063513 0.2028216 -0.085783884 0.09390606 0.115906395 -0.1989374 0.2523625 0.17871922 -0.09157826 0.26212838 0.20765461 0.21910769 -0.0067355526
관객 0.1091989 0.14365636 -0.3260506 -0.09962434 -0.0061985347 -0.055877894 -0.14383319 0.22450355 0.30103114 -0.2385011 -0.15315634 -0.053958096 -0.17681375 -0.078998476 0.0060871616 -0.06688045
사실 0.12091483 -0.06474587 0.14088893 -0.21228729 0.044697076 0.07332905 -0.0035602164 -0.13510251 -0.031560034 -0.014379715 0.09961563 0.09334018 -0.0054747574 0.26003057 -0.16651067 -0.11116936
배경 -0.18278159 -0.15066257 0.072042525 0.105573274 -0.15134688 -0.041256253 -0.06674802 -0.0765144 -0.1735501 -0.2007187 -0.046923645 0.06695225 -0.01892393 -0.08903758 -0.08696543 -0.11652241
어도 0.08301448 0.04300425 0.16172941 0.035300262 -0.14983858 0.08964558 -0.11542924 -0.086239725 0.10643331 -0.16007133 -0.086597286 0.05647279 0.052888103 -0.14537145 -0.014349368 0.029296253
답 -0.09050921 0.078245655 -0.00051589066 -0.19781159 0.16097264 -0.06818155 -0.20545349 0.07605608 -0.10922363 -0.2126925 -0.1472404 -0.048911292 0.10151649 0.025819257 0.023230044 0.05223301
초반 0.15640217 0.03335066 -0.071656495 -0.008532752 -0.016600188 0.11322636 0.008740273 -0.0449316 0.17380467 -0.022355385 -0.21217555 -0.16167024 0.026519006 0.008655765 -0.2786315 0.11519187
웃음 0.085226 0.0022658445 0.12124889 -0.112246625 -0.20817193 -0.06985195 0.1103614 0.15137771 -0.119191185 -0.054137878 -0.10201233 0.089780584 0.13951235 -0.27812347 0.15784822 -0.117587514
엄청 -0.16107824 -0.042365603 -0.07182475 0.02923824 -0.1060738 0.10976893 0.052170772 -0.008158655 0.10713907 -0.068533346 -0.030952025 0.19529673 0.059507433 -0.12856445 0.33322608 -0.21604382
자신 0.14645593 -0.10126542 -0.040379956 0.113720946 0.09281731 0.104589775 0.04973781 -0.069496356 -0.23182505 -0.11412005 -0.12056473 -0.09478139 -0.11081313 0.1905344 0.013027833 -0.010985933
더라 -0.060061425 0.04174423 0.08229615 -0.025030673 0.061094876 0.28650975 -0.09583802 0.07969484 -0.30301595 0.15091832 -0.026755596 -0.34948534 -0.09764366 -0.037099294 0.13420406 -0.02280965
추억 -0.111395195 -0.21827546 -0.014982769 -0.37060124 -0.1486223 0.021724893 0.073035955 -0.28734225 -0.079929404 0.21386814 0.1870055 0.115712985 0.09628966 0.15148246 -0.112156786 0.05401674
군 0.113671355 -0.050299052 -0.039812934 0.13148417 -0.08574217 0.19449446 -0.35852858 0.26039422 -0.017390234 -0.012701776 -0.1508851 0.07137426 0.08847582 -0.13471523 -0.110224165 0.04654559
질 0.08041174 0.094338916 -0.12828138 -0.14181867 0.09223932 -0.20251745 0.1020765 0.120761156 0.03399572 -0.18292785 -0.02992518 0.023499448 0.12399456 -0.015359089 -0.1495859 -0.087804995
캐스팅 0.021806926 0.12569356 -0.05219509 -0.1475193 0.11665843 0.15515144 -0.10679077 -0.14431788 0.12997505 0.0233923 -0.09716344 -0.054477345 -0.08338862 0.008878689 -0.074974075 0.12398194
멋있 -0.19158374 -0.2513751 0.14254816 -0.012285244 -0.17202905 0.08314602 0.033832625 -0.007994251 -0.1346907 0.27826864 0.19658044 0.032910775 0.14860918 0.077771164 0.31528723 0.07362082
라니 0.042948492 -0.013970626 -0.010270058 0.24973142 0.013355533 0.1412339 -0.08355514 -0.04234761 0.12319179 0.12775563 -0.108751304 -0.047573823 0.19929811 -0.18140808 0.0641741 -0.27426597
시나리오 -0.13797191 0.15326758 0.0228883 -0.07088168 0.08908447 -0.19742236 -0.22236864 0.09964463 0.18402669 -0.117766984 -0.028289126 0.16442125 -0.08185856 -0.11545144 -0.09754687 0.04605397
정신 0.01902259 -0.009326024 -0.07781182 -0.11024784 0.16732845 0.089180976 -0.09189012 0.05064525 0.15954448 -0.24542019 -0.12089571 0.055897065 -0.12411933 0.035124674 -0.09378275 0.1960502
어색 0.26494148 0.11082468 -0.3200524 -0.002426505 0.12983184 -0.08944231 -0.38625294 -0.18324395 0.16216682 -0.102100246 -0.23266116 -0.24104516 -0.23489742 -0.16015321 -0.09355798 0.008149495
첨 0.040155683 0.07749021 0.24098958 -0.124199025 -0.10409847 0.06701509 -0.109745756 -0.057683095 -0.19653073 -0.08345125 -0.05262256 -0.09221131 0.008750089 0.21011677 0.05155076 0.061457187
머 0.06694162 0.06064073 -0.06808381 -0.15251465 0.046625577 -0.03180502 -0.07688876 0.12089133 0.094208114 -0.21933526 -0.045567974 -0.00012220841 0.04014287 -0.0073536565 -0.08228418 0.021490993
슬프 0.014429094 -0.16748129 0.13896917 0.09958157 -0.08607503 0.2432601 0.110920414 -0.28860298 -0.2061587 0.18769217 0.26097435 0.035602152 0.43517712 -0.087184146 0.2909798 -0.26849538
밖에 -0.044281196 0.13494495 -0.27394792 0.037261397 0.061283927 -0.277706 0.06630238 0.016660618 0.023101708 0.026494937 0.08191133 -0.037658326 -0.07244668 0.07053408 -0.18703768 0.15256551
분위기 -0.030150117 -0.025813973 0.027379146 -0.28806224 0.022766812 0.014146536 0.2333702 -0.28073218 0.048553724 -0.06552103 0.028575229 0.08732169 0.12678228 0.16583651 0.09759326 0.1726825
소름 -0.3431057 -0.16938497 0.028978303 0.11916425 -0.2832386 0.21296771 0.18929946 0.08864296 -0.3869497 0.0037420704 -0.040871225 -0.13388568 0.10661081 -0.037354514 0.22791721 0.117609575
멋진 -0.027141629 0.08255042 0.3909327 0.02093875 -0.21767443 0.31519288 0.1864036 0.10928464 -0.27177948 0.21469462 0.13338369 0.19599068 0.09950073 0.16456209 0.19815958 -0.13722603
힘들 0.14140967 -0.05534589 -0.22410005 0.104973495 -0.0622812 -0.12209811 -0.08333377 0.10594644 0.28299925 -0.048953827 -0.040775117 -0.28580114 -0.25957367 0.06914066 -0.0029454029 -0.017422676
오늘 -0.108108036 -0.21701951 -0.20389223 -0.1879853 -0.026795091 0.12666684 0.03530867 0.07127051 0.08911426 -0.03760066 0.31198213 -0.060577817 0.12697701 0.10081595 0.058236368 0.090807706
어이없 0.21460097 0.19534567 -0.25275528 -0.21552879 0.15196353 0.070194595 -0.12216541 -0.07120867 0.06388306 -0.3582927 -0.24631077 -0.4923137 -0.42069206 -0.31557393 -0.3432355 0.24890935
봐서 -0.10402348 -0.07499916 0.06321051 0.2356326 0.05512361 0.04071296 -0.13651672 -0.30003834 0.07149609 -0.0133375535 -0.0466374 -0.11100181 0.1602335 -0.039846912 0.11013828 0.09193903
간 -0.07564148 -0.092496954 0.04017842 0.106440976 -0.07194661 -0.014196345 0.19610232 0.035739817 0.21750279 0.1325525 -0.16948652 -0.121855415 -0.015147802 0.017214492 0.05163144 0.42454398
집 -0.08429809 0.063881144 0.16008231 0.10734899 -0.09316888 -0.097968146 -0.13037977 -0.06729231 -0.2738136 -0.11468782 0.1696292 0.0217651 0.08986091 -0.1256969 0.1516537 -0.01958792
구성 -0.032517668 -0.09704257 -0.07874102 0.21402146 -0.22049046 0.03353678 0.045960464 -0.21259286 0.019884203 -0.10271457 0.0012345095 0.044070072 -0.2254189 0.07551674 0.13767506 0.076799765
잡 0.13583751 0.027701853 -0.042122144 0.11222289 -0.09559681 -0.056538522 -0.20412262 -0.30454168 -0.14569248 -0.018330647 -0.21954907 0.030028878 -0.0131219905 0.13195562 -0.0043736533 -0.20535636
엄마 -0.08880099 0.008366598 0.004323867 -0.044056796 0.13553014 -0.20039277 0.11156848 0.057556022 -0.04041172 -0.1029508 0.07334962 0.080491826 0.1059821 -0.18188597 0.0059525413 -0.024893545
함께 -0.25407246 -0.2798121 0.0036003878 -0.21240593 -0.15958431 0.1405885 0.046345968 0.08159282 -0.085305244 0.22904514 0.23372889 -0.03248772 0.07982483 -0.03983876 0.22464693 -0.10053422
위해 0.17625533 0.34099078 -0.1539541 -0.021930242 0.012615326 0.10477142 -0.07013585 0.10497832 -0.038676087 -0.023454785 -0.14388488 0.08414297 -0.2722753 -0.20329651 -0.06310162 0.050710373
잊 0.014999566 0.033140223 0.034409862 0.06494934 -0.2003739 0.200581 0.26326945 -0.2365918 -0.107612126 -0.018688409 0.24608171 0.1909624 0.22495212 0.31666097 -0.089950226 -0.12293144
졸작 0.2597631 0.16494447 -0.44126365 0.06644794 0.33670488 -0.15848154 -0.32135344 -0.025573684 0.31535366 -0.44806764 -0.2993247 -0.35346496 -0.29832268 -0.17158051 -0.38899598 0.3003639
류 0.018161053 0.22140265 -0.17679578 -0.41856357 -0.008255132 -0.21246587 0.034399327 0.055693503 0.3595674 -0.092329875 -0.029257668 0.0005448977 0.14987527 -0.30740806 -0.3124138 0.008186493
이딴 0.32903954 0.356043 -0.16924176 -0.1307064 -0.04211026 -0.1088557 -0.39214757 -0.03530706 0.08662374 -0.116751045 -0.2843191 -0.088484645 -0.17289916 0.007919058 -0.119342096 -0.0673517
문제 0.11149058 0.04576631 -0.119536385 0.06673807 -0.029924214 -0.23360516 -0.15399306 -0.05626356 -0.060821872 0.05277482 0.077770114 0.03562537 -0.04237824 -0.06460892 -0.32591686 0.265695
등 -0.36108845 0.12585554 0.045466334 0.28049308 -0.08600489 0.11110905 -0.07626906 0.12027764 0.17025797 0.26519692 0.070225716 -0.06896762 -0.02340584 -0.023714496 -0.13743532 0.08763639
유쾌 -0.102490276 -0.23376198 0.18349838 -0.16543017 -0.04967244 0.2101493 0.23500754 0.14195415 -0.09834599 0.2606452 0.30599058 0.09416265 0.17907828 0.22437923 0.1049179 0.013223172
킬링 -0.057572093 0.016063904 -0.124604866 0.020108635 0.036673166 -0.089711584 -0.07634085 -0.0023784845 -0.034598246 -0.042143803 0.025044091 -0.023512458 -0.047034528 -0.087060496 -0.07953271 0.07161996
스러운 -0.18445936 -0.03349527 0.077125765 0.048422348 -0.27634546 0.104858354 -0.20302442 0.040781613 -0.16508092 -0.031027175 -0.32175794 -0.1137244 -0.0826848 -0.12837914 -0.077513106 0.19604635
결국 0.03899932 -0.013408764 0.08993118 0.013703548 0.08732427 0.049944334 -0.13914967 -0.1354586 0.050541162 -0.088702954 -0.1656616 0.08243122 -0.09142927 0.04165523 0.22863266 -0.021312153
소리 0.22243494 -0.09687633 -0.1633787 0.14402607 0.32925627 -0.20003904 -0.20068477 -0.11123523 0.1823251 -0.2576805 -0.10409165 -0.015568992 -0.07251844 -0.010438819 0.015141506 -0.2780745
낫 0.00020665198 0.06827534 0.017831434 -0.1006276 -0.060105596 -0.06640027 0.04898252 0.09963482 0.1920272 0.17716953 0.13486528 -0.04930476 0.016496988 -0.08000405 -0.002155873 -0.13275282
뭘 0.04449692 0.139846 -0.095107846 0.021202864 0.07670106 -0.06290585 -0.21718626 -0.25348407 0.12836802 -0.040378924 -0.23126899 -0.19790792 -0.08055394 -0.01784078 -0.02633323 0.21788219
뭔 0.23908064 0.1508956 -0.117532164 -0.16357458 0.010089602 -0.034180835 -0.32332587 0.016657576 0.0830295 -0.05258203 -0.15677646 -0.15082714 -0.14601508 -0.041766472 -0.21074675 -0.19864997
한데 0.07435913 0.056769174 0.015471876 -0.074480645 0.041375183 0.02176523 0.039630763 -0.19491388 -0.08051735 -0.043064594 0.015459108 -0.043705385 -0.004800607 0.13063389 0.14155476 0.014654508
역사 -0.021513894 0.11273675 0.053683043 0.15713856 -0.08217397 -0.094697565 -0.046489935 0.19366667 -0.07067433 0.1156305 0.010636181 0.21616894 0.27974367 0.12736505 0.09983319 0.033187214
제발 -0.09920978 0.19036525 0.1638375 -0.037383832 -0.09422014 -0.034767207 -0.13575904 0.08388991 -0.04732113 -0.041435227 -0.0038292476 -0.06040291 0.18269046 -0.08484482 -0.20906729 -0.002348722
포스터 0.19608285 -0.012462691 -0.011270748 -0.24310581 0.17246732 0.20201108 -0.17387567 0.017787548 0.13137591 -0.45305556 -0.18339619 0.12015256 -0.15984492 0.1562303 0.096874624 0.20258522
아무리 0.08084635 0.022425942 -0.11049287 -0.15006241 -0.020955121 -0.03165121 -0.36128804 0.092767514 0.21208966 0.042336944 -0.08065978 -0.19827656 -0.04785546 -0.12053187 -0.31879318 0.23988205
코믹 -0.1958303 -0.04600843 0.07036197 0.10091665 -0.053609457 0.16315782 0.12991261 -0.033425104 -0.029031873 0.029054388 -0.14296126 -0.03362601 -0.11607285 -0.12205079 0.035113927 0.011642164
어떤 0.0003907526 -0.02361965 0.0824931 0.11982137 -0.1711345 0.009454125 -0.045464993 0.29140836 0.039945133 -0.08581082 0.1823332 -0.15987334 0.12908724 0.036507107 -0.08045715 -0.14385875
얼마나 -0.028223628 -0.007005549 -0.12193526 -0.0459884 -0.057414178 0.101367936 0.07080933 -0.14789623 0.12031735 0.088244624 0.020278815 0.10247568 0.28615484 0.02478848 -0.07376484 0.033004623
완벽 -0.3882505 -0.13711709 0.4884396 -0.049284935 -0.27246326 0.20971732 -0.016081676 0.30930054 -0.15931208 0.15745987 0.24109626 0.30630875 0.16386926 0.05111141 0.24492231 -0.3307974
맘 -0.3514693 0.034139894 0.1405035 -0.009081161 -0.4816599 0.11930802 0.10885273 0.14344129 -0.068590276 0.10301484 0.3018644 -0.06663141 -0.004943194 0.03809814 0.07080366 -0.17004962
애니메이션 -0.30002517 -0.13728587 0.077507034 0.0777384 0.14734705 0.1177222 0.1789831 -0.17222457 -0.2113137 -0.023807053 -0.023880774 -0.07609023 -0.00041279028 -0.06037184 -0.028876299 -0.023100851
러 0.21491463 -0.052577868 -0.0010018769 -0.30832586 -0.06594265 0.17915104 -0.06361637 0.083744235 0.0287698 0.06722494 0.023992274 -0.19068246 -0.19039239 0.081681125 -0.015396603 -0.11080073
주연 0.06334625 0.034392606 0.08985199 -0.0993664 -0.11885281 0.062134646 0.03250887 -0.048515454 0.016024387 -0.03706428 -0.124242224 0.0114555005 -0.12460488 -0.07582132 -0.19040422 -0.1062519
보고 0.02739104 -0.23782091 -0.12025383 -0.035841625 -0.165524 0.27121207 -0.112442695 -0.06804931 -0.0044196555 0.026708405 0.019919297 -0.072945274 0.07873572 -0.029008843 0.06157369 0.0032673145
후회 0.09840735 -0.040016554 -0.19060877 0.1101046 0.29853353 -0.13696516 0.14804675 0.18322107 0.11052093 -0.013483844 -0.13590771 -0.15672253 -0.119276725 0.27138063 -0.13943735 0.17854652
버리 0.09753316 0.004286057 -0.19370651 -0.027468989 0.17449076 -0.31021157 -0.05099901 -0.06324616 -0.04896722 -0.2666328 0.02265882 -0.22107475 0.016017595 -0.07348184 -0.026625428 0.06484561
뻔한 0.27630436 -0.00970318 -0.23523961 0.04169944 0.47745377 -0.20172866 -0.006093034 0.00017306721 0.12850721 -0.13519807 -0.103883825 -0.13785946 -0.27863586 0.035414416 -0.31331688 0.028631123
나요 -0.0072707166 0.0046745413 0.0934515 0.112024195 0.16577263 0.04121964 -0.019903269 -0.0707435 0.15207365 -0.14437214 0.0664999 0.3794999 0.10639047 0.16450909 0.094737984 0.2999313
어릴 -0.17522423 0.08268639 0.021304768 -0.10782433 -0.2591301 0.44921198 -0.3395153 0.037173443 0.009562259 0.2167228 -0.04579088 0.03894889 0.23247147 -0.052483644 0.11124246 0.12084959
진부 0.19662243 0.12315 -0.20035157 -0.21113403 0.13388033 0.086259335 0.12791866 0.02686229 0.31419063 -0.1815706 -0.3059649 -0.08325645 -0.24852306 -0.10267313 -0.1585873 0.032864638
나올 -0.08764489 0.11870832 0.22446059 -0.07603131 0.1944403 0.10223518 -0.076848276 -0.013337056 0.054880224 -0.017179798 -0.30931318 0.11763452 0.053064458 -0.033403922 0.25881493 -0.0014112347
장난 0.022958584 0.1261245 -0.3207719 -0.028130658 0.23049308 0.17068222 0.21968797 -0.12652656 0.36159062 0.04244038 -0.09342883 0.019795578 -0.12101207 0.09459263 -0.44306228 0.28305084
출연 0.11725459 -0.049031124 -0.18042287 -0.016720142 0.14928693 0.10744718 -0.18522254 -0.0670808 0.1617176 -0.19049063 -0.03492712 0.00046943632 -0.08648214 -0.07996995 -0.17748429 0.18953091
보단 0.050221995 0.0007053673 -0.06804984 0.17297424 -0.049525097 -0.17885588 0.053560216 -0.115526944 0.14109601 -0.22113755 0.17664413 -0.3421534 -0.0029644852 0.026118321 -0.2289594 0.16254084
큰 0.02835156 -0.008707113 0.036965754 0.36235946 0.09455707 -0.15854658 0.101742245 -0.28191957 -0.06917844 -0.023484223 -0.097505465 -0.11038841 0.021293323 -0.058367457 -0.061214514 0.087754354
책 0.21293637 0.0460426 0.20321572 0.113202356 -0.11482328 0.22327583 -0.0985541 -0.047809392 -0.31089127 -0.15222968 0.05886375 0.02112378 0.005906736 0.11511838 -0.13028954 0.11873166
됐 0.2437316 -0.04278208 0.12998854 0.09992636 0.079455905 0.053864278 0.07221691 -0.049588885 0.2233018 0.17326218 0.11642889 0.2645368 0.070573285 0.0869052 0.10101325 0.00028117595
영화관 -0.02639012 0.04036574 0.19540137 -0.20941532 0.15934393 -0.072716355 -0.013297366 -0.080957055 0.050274346 -0.045776896 -0.15923412 -0.19198412 0.12172955 0.07050986 -0.09391252 0.110353746
밖 0.14124034 0.13544084 -0.19442162 0.0425938 0.37197673 0.041838106 0.26259235 0.20750494 0.201818 0.16681102 0.04339312 0.09923312 0.15629335 0.030282719 -0.10178857 0.1714681
더니 0.07341805 -0.035609987 -0.36911032 -0.16207856 -0.0030388043 -0.16975085 -0.026291179 -0.16080308 0.23602812 0.11585128 -0.09164604 -0.09148115 -0.15813258 -0.24706398 -0.1247935 0.26990634
개연 0.23510605 0.25560328 -0.03883919 -0.14094295 0.11178595 -0.11730419 0.111222126 0.08836783 0.36684668 0.014238477 -0.09968671 -0.061841384 -0.19815497 -0.16129456 0.066134 -0.07743245
둘 -0.10265752 0.042545874 -0.15434998 0.07185707 0.09826166 0.04652862 0.09271836 0.010280669 -0.021405911 0.063654386 -0.04286121 0.17409974 -0.15496671 0.09715476 -0.055023346 0.013852889
ㅅ -0.09260269 0.06544459 -0.12855077 0.1571419 -0.14258377 0.040921077 -0.09124736 0.11055654 0.10022026 0.018030616 -0.15351427 0.082202286 -0.16539839 -0.097292416 -0.34343633 -0.08998155
충격 0.022606678 0.023603247 -0.04297258 0.1906495 0.08972474 0.024846695 0.14658938 0.03273608 -0.10004119 0.059984356 0.04923933 -0.18682025 0.19713515 -0.018886007 0.19094536 -0.04667069
여기 -0.053984992 0.0041669714 0.2401346 -0.06663011 -0.05673078 0.052483834 0.0024972162 0.05747537 0.029679976 0.0046760077 0.049160417 -0.14924952 0.09269839 -0.21074696 -0.14095786 -0.036437057
극 0.13266598 0.08741949 -0.045175325 0.06627644 0.09473416 -0.3279625 0.039528742 -0.2534628 -0.08463087 0.009942834 0.13357505 0.012357419 -0.1949088 -0.14474422 -0.035612676 0.08583539
난다 0.04271791 0.07773383 -0.27819398 -0.1778732 0.042672783 0.042166587 -0.13984212 -0.08095033 0.18760078 -0.18577887 -0.18272878 0.042556614 -0.06955378 -0.14919296 0.03256823 -0.2745511
평가 -0.13468327 -0.100556485 -0.08271555 -0.13895918 0.064552866 0.1263889 -0.30408925 0.2217505 -0.011289473 0.085700214 0.23751447 0.014686534 0.11807965 0.08679429 0.025238538 -0.11645197
잔인 0.14049271 -0.012523874 0.088732734 0.08839801 -0.09002396 0.09336908 0.13938372 0.11730087 0.031852722 0.08368119 -0.14802597 0.08140843 0.028691668 0.080034666 0.0008464704 0.2295101
아름답 0.032194976 0.053957663 0.08719881 -0.13950583 -0.071517445 0.124469176 0.16327427 -0.098273665 0.0071842386 0.06361084 0.0798405 0.3766778 -0.027711302 0.2534431 0.13738051 -0.26213655
줬 -0.09499947 -0.06723924 -0.11420707 0.09279384 -0.13449466 -0.24837144 -0.00088266784 0.1899539 -0.15343337 -0.0791504 0.023862422 0.012669545 -0.30691472 -0.11563712 0.09927607 -0.0059394697
얘기 -0.012848454 0.22332 0.13918824 -0.122204795 0.044967618 0.081374556 0.0017180553 -0.10757403 0.10247703 0.3165528 0.011955799 0.2144569 0.046974566 0.06474389 -0.025743162 0.25107282
예술 0.05177701 0.0413599 0.053308178 -0.13745515 -0.0671381 0.081693485 0.06833724 0.025697319 -0.101138815 -0.12711738 0.030005667 0.18317065 -0.08412509 0.03863862 0.04287456 0.105693705
갈수록 -0.14882451 0.2306751 0.017747557 0.060383562 -0.3149877 -0.091959104 0.07269195 -0.15558669 0.055244103 -0.021219067 -0.039121833 0.3030202 0.061493155 -0.02196618 -0.19321358 0.10777696
매우 -0.26509684 0.046006102 -0.21197551 0.03621428 -0.199797 0.07868079 0.03951425 -0.04363131 -0.035436384 -0.19383058 -0.08800727 -0.12451642 -0.04063761 -0.17437133 0.13164286 -0.057528626
든 -0.16199672 -0.06679943 -0.1822642 0.096487574 0.09101134 0.029827606 -0.0444139 -0.09827289 -0.08753354 0.020600917 -0.028800966 0.07283475 0.12282835 -0.19355187 -0.07077756 0.09008334
위한 0.07323308 -0.055491503 0.27948135 -0.039216824 0.053384904 0.07848986 -0.19837254 0.09994246 0.03990996 0.07974764 0.0031983778 -0.100134335 0.024818968 0.014239785 -0.1802657 -0.053094786
