9996 16
영화 -0.062222924 -0.37574115 -0.055352755 -0.4133214 -0.19656481 -0.35403493 -0.5140864 -0.3713768 -0.41069397 -0.4072539 -0.3344832 -0.49074736 0.24044554 -0.16981433 -0.23996538 -0.51094264
다 -0.07628471 -0.3961785 -0.3785974 -0.4207018 -0.38951194 -0.557203 -0.5200332 -0.3638358 -0.17645173 -0.11849521 -0.35270882 -0.47779098 -0.061199974 -0.1876394 -0.3983171 -0.5256744
고 -0.06978834 -0.39491445 -0.38423675 -0.41994745 -0.40115902 -0.2859257 -0.5142329 -0.52721834 -0.6103376 -0.58706504 -0.38001975 -0.46925524 -0.06473874 -0.16827586 -0.5247566 -0.51930445
하 -0.06292678 -0.2434931 -0.24560434 -0.42405137 0.052966394 -0.21158035 -0.34387603 -0.38305682 -0.3247765 -0.31655738 -0.43251243 -0.48905137 -0.07231197 -0.16253048 -0.13023825 -0.48578665
을 -0.08053006 -0.3393746 -0.34835112 -0.4233856 0.06068746 -0.29789087 -0.49986547 -0.3237268 -0.5048185 -0.53628284 -0.3683355 -0.3212913 -0.082521275 -0.17774978 -0.2536538 -0.27345374
보 -0.060113166 -0.17853087 -0.12696235 -0.4065946 0.050881274 -0.39901632 -0.37354067 -0.16804038 -0.4300908 -0.3293182 -0.43772417 0.05380689 -0.08045663 -0.15626088 -0.18315813 0.013990611
게 -0.05398206 -0.31396008 -0.105197996 -0.41015312 -0.2845971 -0.1229451 -0.39926666 -0.541539 -0.5947432 -0.53136027 -0.4220291 -0.32088298 -0.058908593 -0.14781776 0.012881334 0.09332739
지 -0.076393865 -0.38090256 -0.35674095 -0.39817676 -0.39445704 -0.39851812 -0.11217797 -0.3139324 -0.352675 -0.5840965 -0.2911898 -0.49338216 -0.07631051 -0.1539581 0.102178164 -0.51240444
있 -0.07801013 -0.4104932 -0.38158783 -0.4277886 -0.1068934 -0.42794052 -0.11319246 -0.4897025 -0.5627742 -0.43455502 0.2355724 -0.48035517 -0.06649745 -0.01772694 -0.44459277 -0.5009832
없 -0.056712147 0.06338669 -0.122668706 -0.019049076 0.015503569 -0.5190749 -0.24566326 0.06969156 0.07881746 0.3693177 -0.40757307 -0.47549662 -0.07560507 -0.17456813 -0.35920024 -0.49734035
좋 -0.060295068 -0.41167042 -0.39096165 -0.42904744 -0.38992518 -0.09393035 0.30739105 -0.5740988 -0.60180694 -0.5858433 -0.23006095 -0.12222916 -0.074728794 -0.18867631 -0.57540953 -0.1624487
나 -0.08125412 0.09311822 -0.38827285 -0.26207638 -0.3862726 -0.090443924 -0.5053428 -0.40077075 -0.21552764 -0.08873956 -0.3080764 -0.48458987 -0.06165841 -0.12112811 -0.39826936 -0.530335
었 -0.05719819 -0.12463309 -0.3845001 -0.42197323 0.026832785 -0.3173475 -0.38208216 -0.5836258 -0.59147143 -0.56908476 0.0811557 -0.49887353 -0.07883025 -0.15358712 -0.21561505 -0.50846845
만 -0.07460822 -0.0327973 0.25941202 -0.23626149 0.038244307 0.053416137 0.1320959 -0.26734772 0.15418158 -0.57155323 -0.39849323 -0.13103949 -0.1705295 -0.121145844 -0.4895534 -0.1597683
는데 -0.07470837 -0.4002072 -0.36544096 -0.42573634 -0.39434224 -0.41254434 -0.2604904 -0.56625915 -0.6142253 -0.5664339 -0.17965657 -0.3935495 -0.07254391 -0.13822123 -0.5676379 -0.1679585
너무 -0.08001974 -0.3299953 -0.27148095 -0.42492145 -0.24788563 -0.52655363 -0.51963884 -0.57060635 -0.3075137 -0.5779742 -0.3736663 -0.3216309 -0.07827577 -0.09911984 -0.19606766 -0.35233116
봤 -0.0784543 0.0036642677 -0.24936073 -0.41228947 -0.4074293 -0.33115232 -0.20423712 -0.38777763 -0.3970827 -0.14941213 0.086492725 -0.31261215 -0.05943787 -0.060687963 -0.2390665 -0.22336838
적 -0.0801531 -0.14300388 -0.22229345 -0.41549516 -0.18405642 -0.3026448 -0.35665986 -0.1269504 -0.61724335 -0.5697324 0.104902 -0.46321535 -0.08828111 -0.09862063 0.10468494 -0.15735175
안 -0.07889575 0.14767121 0.10829331 0.12921132 -0.36031684 -0.0062430757 0.18523037 -0.23312941 0.09900213 0.24620911 -0.4125312 -0.28655297 -0.07254321 -0.15598716 -0.079427294 -0.513538
정말 -0.07495732 -0.18058208 -0.380115 -0.43802533 0.1418201 -0.5389771 -0.44405007 -0.5774252 -0.6063893 -0.5648995 0.2129134 -0.23146604 -0.078984804 -0.1701432 0.03448836 -0.29832152
로 -0.08436612 -0.03478004 -0.34689838 -0.19513732 0.021796916 -0.5224981 -0.51087755 -0.020086404 -0.32956204 -0.40372774 -0.42766535 -0.47836816 -0.059475232 -0.098512225 3.1016461e-06 -0.5075069
것 -0.07706485 -0.3742936 -0.298755 -0.40545443 -0.34525752 -0.37369147 -0.51736087 -0.171755 -0.20927651 -0.22363263 -0.39545238 -0.4825773 -0.073023655 -0.15431966 -0.005184147 -0.5109826
음 -0.052009497 -0.3998395 -0.37886882 -0.35864496 -0.07769168 -0.4398615 -0.47127116 -0.52705276 -0.5134189 -0.3127115 -0.3253238 -0.28356567 -0.07321155 -0.17013766 -0.24086986 -0.3260711
아 -0.07524577 -0.3936164 -0.344537 -0.40326577 -0.21800224 -0.24119522 -0.51177996 -0.35993287 -0.18703254 -0.38532186 -0.4313885 -0.48823783 -0.059299383 -0.18181668 -0.25730532 -0.5123421
네요 -0.065179296 -0.3929709 -0.10882363 -0.011180714 -0.06764812 0.12908728 -0.5047805 -0.5743308 -0.5983304 -0.59039515 -0.06096778 -0.44557148 -0.078670025 -0.15773143 -0.575933 -0.39396495
어 -0.06162495 -0.005036517 -0.39397258 -0.23993656 0.031299487 -0.50899416 -0.2935358 -0.11729324 -0.5967603 -0.01701066 -0.40326986 -0.32982114 -0.058051873 -0.1602307 -0.2708364 -0.505918
재밌 -0.079080716 -0.41680807 -0.3715931 -0.4175753 0.04758723 0.054920968 0.16332495 -0.57149655 0.22320811 -0.59287035 -0.3980981 -0.46184805 -0.086920835 -0.19216354 -0.58943546 0.38454857
지만 -0.05806413 0.08007544 -0.07566634 0.15301491 -0.37779173 -0.3881801 -0.08291624 -0.4105237 -0.1510849 -0.066304974 -0.008750555 0.25000057 -0.057976615 -0.1216116 0.19349746 -0.43630978
같 -0.053862672 -0.15205827 -0.34389594 -0.30819333 -0.17165074 -0.5219391 -0.50517094 0.05695783 -0.17863746 -0.22326721 -0.43041447 -0.4833344 -0.057158783 -0.123555735 -0.13223024 -0.5157021
진짜 -0.0573964 -0.4142882 -0.39176142 -0.050187536 -0.41384432 -0.34938467 -0.51820457 -0.5808557 -0.60547096 -0.5630563 0.14441167 -0.4920716 -0.06189975 0.042581294 -0.5548982 -0.5288336
에서 -0.055370167 -0.089936174 -0.07845824 -0.39309984 -0.12237171 -0.20976518 -0.17258993 -0.39109042 -0.43023232 -0.2712278 -0.36813807 -0.43387192 -0.07937373 -0.16496457 -0.22429423 -0.42860937
했 -0.056555353 -0.39749143 -0.03332947 -0.25323313 0.1689057 -0.27507877 -0.23499517 -0.55892825 -0.5433546 -0.445234 -0.2248745 -0.27503198 0.26859534 -0.18039012 0.057860386 -0.5094403
기 -0.079429895 -0.04874514 -0.33608443 -0.3938755 -0.05255748 -0.54784584 -0.51389134 -0.3597482 -0.45914552 -0.36111382 -0.28237063 -0.49814948 -0.0838116 -0.14483562 0.2567953 -0.534239
네 -0.080976725 -0.36075976 0.07021706 0.20769198 -0.32274178 -0.19767329 -0.34679425 -0.41353533 0.0853011 -0.44570872 0.1667994 -0.25833282 -0.057418913 -0.0461293 -0.2828024 -0.5112999
않 -0.08282293 -0.37631974 0.1385061 0.3845626 -0.3785391 0.31042853 0.26016575 0.14685346 -0.06953377 0.26625806 -0.37122345 0.050707188 -0.08241168 -0.15850934 -0.36580658 -0.4929823
점 -0.078200534 -0.3426048 0.27413267 -0.187671 -0.36080638 -0.30932683 -0.14122912 -0.44816524 0.19216603 0.023064867 -0.390628 -0.045918763 -0.081314914 -0.17118202 -0.42512608 0.27179125
거 -0.055360544 -0.27235687 -0.3728518 -0.3965646 -0.24805726 -0.040445846 -0.052182004 -0.35738915 -0.4921801 -0.16938707 0.14677975 -0.38116595 -0.060966615 -0.16128 0.27270308 -0.3676547
았 -0.058008205 -0.3967858 -0.38105336 -0.41489366 0.20074846 -0.014777096 -0.03042047 -0.5660024 -0.59382737 -0.5741351 -0.17407332 -0.13696913 -0.08338231 -0.16617142 -0.55944604 -0.4698511
수 -0.05833501 0.16056019 -0.17828971 -0.42530012 0.023042528 -0.36213306 -0.50995547 -0.41253343 -0.4123895 -0.32838202 0.28383777 -0.33440545 -0.08545666 -0.14433806 -0.2691647 -0.50787675
되 -0.078448065 -0.39914072 -0.36063498 -0.28821635 0.10979785 0.029200757 0.15565245 -0.3982584 -0.44434983 -0.47528422 -0.25633723 -0.47457534 -0.07191892 0.013086785 -0.39955625 -0.49502203
면 -0.071992174 -0.3114207 0.19276978 0.052378483 -0.14624776 0.12874298 -0.46253914 0.025303956 -0.4287388 -0.5230115 -0.09450358 -0.024353571 -0.065364 -0.16444093 -0.4231148 -0.4455631
ㅋㅋ -0.060306568 -0.13300587 -0.37513524 -0.41567397 -0.29155213 -0.5583258 -0.5199831 -0.13718857 0.02280546 -0.045251053 -0.445812 0.2619758 -0.09250144 -0.12857737 0.19719991 -0.435507
인 -0.059228286 -0.22450434 -0.3749275 -0.43160695 -0.3720974 -0.02467279 -0.27340433 -0.3758271 -0.5680925 -0.5461636 -0.40150818 -0.14752428 -0.057316303 -0.013457825 -0.40077364 -0.4810199
말 -0.08247103 -0.39423898 0.14699996 -0.41127446 -0.38765326 0.2359684 -0.5052424 0.09439154 -0.5527291 0.20592818 -0.17362489 -0.49071878 -0.072767265 -0.16081256 -0.18654923 -0.49952638
연기 -0.068947546 -0.40201092 -0.37899446 -0.42588413 -0.3869763 -0.29784763 0.16801049 -0.14168827 -0.28722844 -0.27901706 0.0437241 -0.07795256 -0.08498445 0.018489327 -0.46864405 -0.4959942
주 -0.08114438 -0.055936225 -0.34855673 -0.4147453 -0.38138065 -0.3348902 0.131693 -0.08713284 -0.4221829 -0.48934892 -0.40424815 -0.48965377 -0.07559684 0.077110685 -0.09029551 0.025133878
최고 -0.069640115 0.09787889 -0.17256908 -0.44099918 -0.4042105 0.19506784 0.005135991 0.14322324 0.08959612 0.06183543 0.21549833 -0.41498974 -0.081619956 0.04123345 0.11118206 0.4181701
내 -0.06675285 -0.3978877 -0.37423876 -0.26489925 -0.38154492 -0.51926345 -0.49042976 -0.40869457 -0.11619272 -0.4893308 -0.43958762 -0.419693 -0.057381567 -0.12234564 -0.37737364 -0.50305337
평점 -0.082155034 -0.4156632 0.23726988 -0.21580511 -0.37972286 -0.42756924 -0.5053477 -0.19347356 0.30254105 -0.43086603 0.08742981 0.088570416 -0.06437326 -0.1716065 0.13760422 0.2277805
이런 -0.07592144 -0.36565948 -0.16026242 -0.41406953 -0.3591222 -0.5096003 -0.46326226 -0.3499196 -0.41136548 -0.41339132 -0.4139542 -0.49039802 -0.06327016 -0.17721875 0.1749486 -0.5150944
던 -0.07627667 -0.3689876 -0.36589426 -0.4329443 -0.36469036 -0.28770173 -0.4396942 -0.576661 -0.5980554 -0.5861874 0.009518651 -0.36152214 -0.083572775 -0.16967537 -0.43165076 -0.4412582
어요 -0.069634184 -0.3966395 -0.37530115 -0.14243716 0.115651354 -0.48378533 -0.5027985 -0.2728812 -0.6149032 -0.35538852 0.28323406 -0.3372472 -0.07652547 -0.16107796 -0.56345284 -0.1900469
할 -0.07885809 0.07782451 -0.11707332 0.023836639 0.05691433 -0.4028085 -0.49169728 -0.1521065 -0.40351698 -0.39868113 -0.061300285 -0.3131494 -0.058457624 -0.17496628 -0.37131917 -0.26943183
왜 -0.08187161 -0.17429054 0.19780591 -0.1406628 -0.31487915 -0.21154143 -0.25412208 -0.13078539 0.23587582 -0.4104705 0.19986238 -0.2748111 -0.071107276 -0.08124092 -0.09200448 -0.14240263
겠 -0.07890536 0.13031751 -0.38703552 -0.42558694 -0.049313106 -0.23785546 -0.4137564 0.05991935 -0.09398777 -0.026360724 -0.060961906 -0.06558385 -0.06352794 0.29751715 -0.4491224 -0.17439516
스토리 -0.0727779 -0.12922332 -0.3675295 -0.41464445 0.26980567 -0.5210364 -0.35728213 -0.33267856 -0.5833529 -0.4672915 -0.415638 -0.47318718 -0.07310791 -0.15686727 0.1532395 -0.51713943
해 -0.061888635 -0.1974631 -0.36225787 -0.09036476 -0.3263085 -0.5196581 -0.5104651 -0.04613148 -0.3338831 -0.07908698 -0.24950945 -0.4814449 -0.066894695 -0.15291893 -0.10877307 -0.5127407
ㅋㅋㅋ 0.3961728 -0.13051565 -0.16149731 -0.08717006 -0.13418207 -0.3368316 -0.28248236 -0.13126679 -0.16584873 -0.29217696 -0.3442397 0.18558665 -0.08407986 -0.4297059 0.0838438 -0.14508457
습니다 -0.06878848 -0.39434677 -0.39303866 -0.41079745 -0.065670334 -0.28357813 -0.39167193 -0.5756854 -0.59322965 -0.56889176 0.27610084 -0.32189012 -0.07802257 0.015148851 0.1980566 -0.5056496
듯 0.24358977 -0.41744402 0.045619883 -0.25892466 -0.19365302 -0.45607388 -0.5041555 0.09581272 -0.58545727 -0.56901026 -0.42233303 -0.47159752 -0.06312093 -0.047620863 -0.11125229 -0.36564413
아니 -0.0836709 0.2411547 0.030238323 0.016704887 -0.20085801 -0.21173574 -0.53575957 0.18189509 0.060472623 -0.047355175 -0.39164516 0.17423221 -0.067664646 -0.17056318 -0.17174184 -0.08008572
드라마 0.34730837 -0.2732325 -0.38012367 -0.40217364 -0.09424476 -0.4593154 -0.52044606 -0.34821218 -0.24268883 -0.28692678 0.16327235 0.08439693 -0.078158274 -0.105868064 0.04884752 -0.35759506
생각 -0.06508237 -0.14241558 -0.35520318 -0.32959262 0.22157286 -0.42371815 -0.011598211 -0.32230172 -0.42380583 -0.13551258 -0.4320467 0.00095443113 0.41719517 -0.11122135 -0.0134874545 -0.5119167
더 -0.07683999 -0.1282871 -0.024066431 -0.08235417 -0.33673906 -0.093741685 -0.20551693 0.03200909 0.07839169 -0.43502206 -0.37758192 -0.16234498 -0.059678998 -0.16610278 0.18885632 0.104506314
그 -0.06431042 -0.3123973 -0.13782446 -0.42733532 -0.40324655 -0.29938748 -0.116530195 0.08933593 -0.03799125 -0.07744528 -0.20728524 0.09989807 0.26032808 -0.17647912 -0.44541076 -0.51829004
싶 -0.062709786 0.050878923 -0.01725163 -0.24889503 0.1815102 -0.27932367 0.15328513 -0.36635476 -0.45330682 -0.42799342 -0.3593918 -0.49251676 -0.07717362 -0.14786477 -0.35191318 -0.50185406
사람 -0.05369343 -0.3948867 -0.3432734 0.04738628 -0.340794 -0.25376335 -0.40829274 0.056922566 -0.42908847 -0.29379886 -0.2258857 0.12560402 -0.07859997 -0.1694791 -0.37182292 -0.4829516
때 -0.059291046 0.18170327 -0.36029842 -0.05116245 -0.37828192 -0.103204764 0.2700821 -0.41708624 -0.42672554 -0.4998492 -0.31749064 -0.34152347 -0.084136076 -0.12656464 -0.41159263 -0.2674915
감동 -0.059453346 -0.3987999 -0.3651117 -0.42126834 -0.39808908 -0.0027047207 -0.088984616 -0.57415736 -0.59696996 -0.57539564 0.1227736 -0.460386 -0.06633941 -0.15786526 -0.55256975 0.2707318
배우 -0.06404126 0.019062167 -0.37482587 -0.05390219 -0.1913756 -0.54727477 -0.5147549 -0.1735214 -0.48849908 0.07372836 -0.38506517 -0.48124456 -0.07911304 -0.15116145 0.027641384 -0.19794996
함 -0.08310764 -0.3454648 -0.2592477 -0.39841142 -0.1587274 -0.34982482 -0.50847536 -0.17347966 -0.29236364 -0.4633172 -0.40717706 -0.4298297 -0.07083077 -0.112885535 -0.26820916 -0.5064561
본 -0.0640449 -0.25354338 -0.30094507 -0.23149364 -0.12116212 -0.33574322 -0.5129333 -0.31741598 -0.4858501 -0.21126436 0.018643029 -0.122845374 -0.08222819 -0.1264912 -0.44435415 -0.5247826
까지 -0.07342621 -0.2438127 -0.37331253 -0.3860976 -0.38340944 -0.4008823 -0.07472064 -0.33748126 -0.42909396 -0.46848077 -0.3218065 -0.43738168 -0.055594157 -0.15430366 -0.12341468 -0.40916204
뭐 -0.065167345 0.13416684 0.089248456 -0.30748436 0.24548157 -0.19070491 -0.519598 -0.513979 -0.33421355 -0.3442463 -0.18804361 -0.49097085 -0.076246895 -0.17795917 0.052998286 -0.5281436
알 -0.08349242 -0.21011046 -0.3185096 -0.10160649 0.18892086 -0.16869336 -0.15938185 -0.15806541 -0.39978573 -0.36550653 -0.2189135 -0.033355776 -0.0687993 -0.05459021 -0.035442233 -0.2854583
만들 -0.06525865 -0.06318552 -0.34590346 -0.30593708 0.32637808 0.15995602 -0.17459418 -0.37506858 -0.4368562 0.020773446 -0.21403918 -0.20958012 -0.06323301 -0.011556031 -0.23920155 -0.12978719
내용 -0.07665666 0.29651296 -0.39262047 0.028272567 -0.34105444 -0.22353373 -0.27942228 -0.5822192 -0.20119908 -0.06671223 -0.16235018 -0.4548199 -0.06128423 -0.021043869 -0.48550445 -0.18895286
볼 -0.07621175 0.016294936 -0.34616372 -0.41046035 0.09693969 -0.38689816 -0.42760697 -0.39290878 0.19778658 -0.38954872 0.041663546 -0.47041753 -0.06654748 -0.09280762 -0.16890258 0.1568715
보다 -0.07891616 -0.25757757 -0.11815127 -0.2559035 -0.09158708 -0.49513546 -0.5130129 -0.41057616 -0.047049884 -0.33520675 -0.4159654 -0.34372443 -0.07424974 -0.1666717 -0.33349863 -0.49602556
감독 0.18672886 -0.18151325 -0.17563833 -0.4265988 -0.19641547 -0.08028366 -0.39802834 -0.55247915 -0.22366342 -0.57648623 -0.3186995 -0.13913459 -0.054308377 0.40087694 -0.10643953 -0.28695416
라 -0.059465572 -0.23496036 -0.3042261 -0.08879393 -0.10907928 -0.45372277 -0.15493292 0.08367421 0.031261355 -0.22926576 -0.39318258 -0.45993435 0.30460757 -0.12962592 -0.024118874 -0.46775693
재미 -0.07127373 -0.27916563 0.25662646 -0.29056427 -0.3944687 0.10656691 -0.2992148 -0.26456004 -0.3077398 -0.18590215 -0.06422937 -0.4724755 -0.07306794 0.21641958 0.15422931 0.22090122
그냥 -0.080740176 -0.4157614 0.34106728 -0.41334727 -0.35937807 -0.077989474 -0.50821155 -0.10940524 0.06265298 -0.17790936 -0.27748156 -0.12686783 -0.06179908 -0.12238027 -0.081084356 0.043127254
시간 -0.06957352 0.1797844 -0.18128504 -0.4123682 0.13183682 -0.5284616 -0.5359167 -0.39830604 -0.436051 0.088459685 -0.42371437 -0.4840785 -0.06989254 -0.16823603 0.20089765 0.09864789
지루 -0.08333074 0.06957524 0.1186798 0.41445324 0.003518508 -0.5319783 -0.52098083 0.14155297 -0.084910065 0.26972783 -0.4132225 -0.5002404 -0.07043163 -0.17899427 0.22796518 -0.5141062
중 -0.06401563 -0.22954902 -0.29475752 -0.23122336 -0.18397419 -0.50395924 -0.49332747 -0.24863304 -0.20492017 -0.21876808 -0.24892524 -0.45645183 -0.06531507 -0.09344453 -0.11734211 -0.51099616
재미있 -0.058459964 0.08246676 -0.37171957 0.11223575 -0.022428963 0.18045239 -0.5172022 -0.09406264 -0.5977675 -0.064916305 -0.3023714 0.29777426 -0.08240185 -0.16761371 -0.5639082 0.14057757
였 -0.062051985 -0.41403234 -0.37713808 -0.4317074 -0.4110165 -0.4499323 -0.34447762 -0.41006708 -0.497637 -0.47332612 -0.3657721 -0.44302136 -0.08269154 -0.15411422 -0.24362777 -0.48463002
잼 -0.05198361 -0.20459269 -0.36626145 -0.24319477 -0.3354776 0.08159851 -0.23393227 -0.2743176 -0.11598779 -0.21401408 -0.09074821 -0.4876756 -0.057606857 0.1805291 0.1680118 0.35110697
년 -0.069814086 0.16196975 -0.34763765 0.10839733 -0.07229567 -0.24265803 0.12807602 -0.27288622 -0.24900027 -0.060520664 -0.15240602 0.17055213 -0.053397242 -0.16793078 -0.14518714 -0.1510844
사랑 -0.076869145 -0.122980826 -0.38585997 -0.010081968 0.14263304 0.17050205 0.07852899 -0.52866215 -0.545623 -0.5299384 -0.30568543 0.29652795 -0.083545275 -0.15821193 0.19325094 -0.08018786
못 -0.05966941 -0.090745844 0.18384086 0.29196876 0.031692903 -0.44833317 0.2081912 0.067170836 -0.24719465 -0.07682151 -0.38659814 -0.009719277 -0.074783616 -0.13994528 0.17427206 -0.5117634
재미없 0.37246394 0.092521966 0.18608531 0.08325893 0.08793084 -0.5187952 -0.5068688 0.063092165 0.24050064 0.13500531 -0.40540695 -0.48952228 -0.07316511 0.21241392 0.37832803 -0.51141626
냐 -0.059298974 0.044595335 0.25973576 -0.35469767 -0.3112645 -0.51346874 -0.53013104 -0.305605 0.2908467 -0.27812886 -0.4008275 -0.4896682 -0.058596775 -0.16934326 0.11527728 -0.5352777
쓰레기 -0.0564411 0.34103116 0.17458907 0.27993923 0.04003123 -0.52320904 -0.47472718 -0.24715856 0.34393227 0.2761104 -0.4044623 -0.3040699 -0.060651068 -0.09969686 0.01891871 -0.5180777
서 -0.0805765 -0.30256703 -0.3618958 -0.39008227 -0.36192593 -0.2631947 -0.4695599 -0.37997827 -0.40602332 -0.3653907 0.06950211 -0.3396325 -0.05681295 -0.16293833 -0.32136217 -0.4258687
라고 -0.062107038 -0.013216325 -0.31875762 -0.014114174 0.017489403 -0.47071922 -0.14081776 -0.10921997 -0.15938623 -0.23137794 0.011559431 -0.4816265 -0.06560467 0.06469527 -0.39495224 -0.5362054
니 -0.05686025 -0.22533113 0.044582624 -0.39150122 -0.052561745 -0.046471342 -0.50269043 -0.25296456 0.06814336 0.12105123 -0.40677202 -0.47929475 -0.07936409 -0.14628407 -0.37393957 -0.50504184
면서 -0.054501183 -0.37005115 -0.13258487 -0.42197993 0.07657078 -0.051638383 -0.4836696 -0.031022683 -0.42790776 -0.3808572 0.12133607 -0.2073841 -0.07413891 -0.13647437 -0.26293498 0.106519245
다시 -0.07626363 -0.39528856 0.23060864 -0.41609514 -0.3934733 0.30420485 -0.14298089 -0.54201174 -0.56718975 -0.5303891 -0.37934178 0.053489342 -0.07152265 -0.14126353 -0.53611785 -0.3206566
번 -0.056368627 0.15261686 -0.024804333 -0.10695894 -0.036879268 -0.46922696 0.104742 -0.36035553 -0.579875 -0.5192858 -0.18428224 -0.16469392 -0.07066742 -0.095416844 -0.27452382 0.17692477
나오 -0.0810593 0.12576847 -0.3497276 -0.3757422 -0.37863538 -0.46036297 -0.072520085 -0.37300587 -0.4305155 -0.29272595 -0.38189015 -0.4406886 -0.06397266 0.24230686 -0.41238877 0.016945854
하나 -0.074724935 0.0009118368 -0.34911796 -0.34379247 0.27249768 -0.4150193 -0.31909633 -0.3417835 -0.36653227 -0.3448869 -0.0415369 -0.097653046 -0.07434534 -0.101075195 -0.24501303 -0.4997116
작품 -0.053262286 -0.2721662 -0.36720705 -0.42498666 -0.40756106 -0.21470611 0.24662831 -0.23346063 -0.32051808 -0.28392413 -0.11017182 -0.07328622 -0.05378084 -0.07171179 0.16590337 -0.165395
야 -0.08129892 -0.41539612 -0.35823062 -0.26459008 -0.062426493 0.15803371 -0.52273506 -0.113943286 0.16859253 0.036358427 -0.2851511 -0.19788246 -0.08574099 -0.14594692 -0.42759278 -0.35340515
이거 -0.065580174 0.048310287 -0.35525283 0.0007977492 -0.34822887 -0.23013146 -0.40310803 -0.24965546 -0.24988165 -0.18412033 -0.16108851 -0.14585085 -0.05792959 -0.11182436 -0.23736854 -0.3236877
줄 -0.075208776 0.22284563 0.14020021 -0.40535244 0.07883992 -0.41437042 0.18554325 -0.41121757 -0.4306355 0.10907364 -0.35407856 -0.35633847 -0.06309883 -0.07898633 -0.16231234 -0.39422837
해서 -0.07839129 -0.19169116 -0.34852672 -0.24428141 -0.3729074 -0.4897723 0.085254475 -0.19185707 -0.11340923 -0.18703116 -0.19025542 -0.11331252 -0.06042653 0.03733372 -0.38760424 -0.49539334
남 -0.05841015 -0.3858306 -0.38104978 -0.41307378 -0.37055445 -0.2564375 0.017520877 -0.43335107 -0.46739274 -0.5336606 -0.41071862 -0.33182248 -0.08041756 -0.028619856 -0.29852197 -0.18087628
마지막 -0.05853786 -0.4087873 -0.024228053 -0.428623 -0.40690503 0.15269604 -0.359753 0.27955174 0.029003851 -0.010638171 -0.14090404 4.995919e-05 0.48202363 -0.16949864 -0.5650557 -0.24902257
끝 -0.08135499 -0.40531227 -0.26718152 0.119760096 0.102020994 -0.42555705 -0.10588102 -0.41384304 -0.44052356 0.022842787 -0.08374794 -0.49770194 -0.057615336 -0.13393712 0.20529808 0.011095377
정도 -0.07710909 -0.0057031447 0.14632675 -0.37019712 -0.0034509527 -0.4214368 0.0420457 0.035319366 -0.14124958 -0.5128105 0.03552893 0.060077835 -0.055871695 -0.08450651 -0.22203082 -0.21180083
이건 0.39571995 -0.38197714 -0.19186696 -0.43903312 -0.042702906 -0.55626637 -0.5110337 -0.36845824 0.38229743 -0.17205952 -0.24622354 -0.027111907 -0.0829682 -0.1504884 -0.3924401 -0.5126858
액션 -0.05464937 0.07615285 -0.2452691 -0.4220719 -0.39100415 0.011072759 -0.12091814 -0.13342278 -0.05628857 -0.24736102 0.14907251 0.087915614 -0.08168634 -0.09437916 -0.42839313 -0.20391352
개 -0.05383979 -0.19697616 -0.33451527 -0.089578345 -0.38480163 -0.5184957 -0.506889 -0.5111179 -0.02148074 0.2641045 -0.42318213 -0.4851908 -0.058772888 -0.12825103 -0.4828373 0.010968691
임 -0.07906897 -0.41237536 -0.36719534 -0.3490814 -0.39684436 -0.3654174 -0.532282 -0.46003094 -0.5877824 -0.561255 -0.42561024 -0.41033804 -0.054530207 -0.03552232 -0.47276804 -0.49167347
건 -0.05109896 -0.3483095 0.099363424 -0.37814003 -0.33988595 -0.47754806 -0.4804442 -0.2237022 -0.3371085 0.23290005 -0.39496386 -0.24228014 -0.07482593 -0.13580701 0.14106023 -0.49179718
기대 -0.056158 -0.2765655 -0.3575552 -0.4160456 -0.3823123 -0.25801635 -0.23280112 -0.22727914 0.1482718 -0.28376368 -0.2716642 0.071980245 -0.06919631 -0.17640077 -0.4352941 -0.04874877
다는 -0.05431031 -0.19764161 -0.36066163 -0.35603315 -0.1869274 -0.3975062 0.15793067 -0.37871128 -0.40788636 0.16126756 -0.37547064 -0.33588088 -0.056254923 -0.14282818 -0.12672862 -0.022470318
입니다 -0.07393285 -0.41726843 0.09951087 -0.43683404 0.17781717 -0.4771071 0.15478969 -0.5628777 -0.59670675 -0.020248037 -0.3762766 -0.2847251 -0.12181795 0.049262773 0.015681636 0.19126074
라는 -0.08123357 -0.35139057 -0.34112987 -0.4197531 0.06321381 -0.39620364 -0.33481842 -0.14521748 -0.4063565 -0.16411397 -0.38062397 0.048662167 -0.0696172 0.06068006 -0.28491226 -0.19912216
완전 -0.06724353 -0.25149474 -0.38285518 -0.4160236 -0.1434815 -0.40000376 -0.3268687 -0.14768928 -0.40798244 -0.277155 -0.043764118 -0.19784634 -0.05659288 -0.0859842 -0.5520247 -0.5120067
참 0.3460878 -0.39839563 0.08824762 -0.4333052 0.23270874 -0.53928745 -0.51934433 -0.3332334 -0.3668645 -0.4056225 0.06020686 -0.4900288 -0.06104899 -0.17816597 0.09496295 -0.51469755
많 -0.07976193 -0.038801 -0.13509335 -0.4064221 0.1165337 0.23697898 -0.5218556 -0.24337895 -0.42650747 -0.007826272 -0.39994264 -0.45687926 -0.0704759 -0.062055226 -0.042052176 -0.24630131
ㅋ -0.06618015 -0.3434878 -0.37676194 -0.24932943 -0.31606445 -0.3629891 -0.34868336 -0.25651386 -0.22466953 0.02758988 -0.43391675 0.23700291 -0.07323481 -0.16547605 -0.3308416 -0.5163852
처음 -0.052324172 -0.23767056 -0.3334339 -0.08146487 0.14631689 -0.48065534 -0.32628006 -0.36278623 -0.2633322 -0.07543325 -0.387918 -0.20437987 -0.0635864 0.026527524 -0.41364864 -0.07130872
장면 -0.06621549 -0.41766068 -0.052682742 -0.13198885 0.13114464 -0.22688748 -0.249446 -0.14160906 -0.41179878 -0.40637302 -0.1364461 -0.04516551 -0.05222052 -0.13314871 -0.43269086 -0.03457594
다가 -0.061355542 -0.30736294 -0.12166122 -0.19453368 -0.11533424 -0.45052737 -0.3793044 -0.04657259 0.23841879 0.19261447 -0.38461322 -0.23755941 -0.064876236 -0.02742426 -0.23469475 -0.37068525
아깝 0.3982603 -0.36663035 0.08521182 0.45891637 0.1638022 -0.5572023 -0.5136876 0.17434677 -0.15660536 0.24313086 -0.10692402 -0.48339057 -0.07385681 -0.17407086 0.1234381 0.12475591
으면 -0.08199018 -0.3620381 -0.36787617 0.012389307 -0.213201 -0.30823886 -0.3358801 0.026296305 -0.10357857 -0.035572793 -0.31783196 -0.35412925 -0.08144748 0.12648465 0.07727348 -0.44072247
모르 -0.071304865 -0.31144184 0.11180019 -0.19176167 -0.07233628 0.23159304 -0.4154183 -0.4141982 -0.41351894 -0.10260486 0.032585137 -0.13058677 -0.07565458 -0.15245458 0.12844312 -0.40033877
지금 -0.07965569 -0.3934464 -0.35877547 -0.41786024 -0.34214023 -0.38709256 -0.090389356 -0.4465696 -0.5537493 -0.5377469 -0.22683042 -0.06186501 -0.053597346 -0.10140255 -0.37580013 0.19959517
이렇게 -0.07550371 -0.14997917 -0.3523407 -0.3986461 -0.38257834 -0.07694282 -0.49856645 -0.34232715 -0.09406486 -0.45357645 0.016961887 -0.38849533 -0.076873995 -0.16115232 -0.25442386 -0.44217888
분 -0.05747883 -0.39225262 -0.25368524 0.19888309 -0.2744209 -0.43077165 -0.22784372 -0.03759717 0.14290461 0.18391381 -0.3077081 -0.44671184 -0.083369955 -0.11024991 -0.542695 -0.0037337039
돈 -0.069285475 -0.32990262 0.11003362 0.22755617 0.13193132 -0.51982415 -0.50859314 0.0099651925 -0.15930766 0.19758672 -0.41590762 -0.47353974 0.23572929 -0.11689825 0.32900804 -0.49445552
이게 -0.05704821 -0.17380202 0.17988555 0.26292616 -0.40272728 0.050036035 -0.5295276 -0.026709305 0.03855317 -0.12873717 -0.41303802 -0.48900434 -0.07229965 -0.09372756 -0.3170493 -0.51999164
ㅠㅠ -0.0631071 -0.3034405 -0.28675684 -0.41145095 -0.08808115 -0.47652343 -0.19476189 -0.34413338 -0.32717136 -0.32045612 0.25053698 -0.39992735 -0.2418348 -0.1735224 -0.17378655 -0.30266532
성 -0.057521526 -0.32199323 0.094619736 -0.40032405 0.046622466 -0.395936 -0.4008634 -0.43071795 -0.40336668 -0.37452534 -0.14720456 -0.4625192 -0.06312885 0.1186011 0.22685632 0.08263454
느낌 0.29676965 0.0821675 -0.062817566 -0.43787858 -0.36609742 -0.4023185 -0.4304474 -0.4523216 -0.45157918 -0.47078997 -0.38612983 -0.18154027 -0.06228527 -0.07004242 -0.44354305 -0.41363522
이야기 -0.07585259 -0.066679135 -0.37044296 -0.42091066 -0.083085716 0.20102033 -0.49987456 -0.51454085 -0.55235666 0.037904903 -0.4186601 -0.046532147 -0.070004344 -0.16569433 -0.16688547 -0.49897262
일 -0.052648887 0.06811789 0.046531867 -0.32586262 0.11921733 -0.5271012 0.05795575 -0.12255877 -0.32049412 -0.3323256 -0.40764546 -0.46189496 -0.06227246 -0.10509155 -0.25554094 0.13450111
최악 -0.07251837 -0.17115098 0.4488458 -0.0072293524 0.29066062 -0.4995348 -0.50709295 0.093606554 0.48248965 0.021948183 -0.40319777 -0.46788394 -0.055531602 0.117506064 0.39519188 -0.49916086
된 -0.08223276 -0.36167622 -0.3404043 -0.42434895 -0.35518083 -0.24220675 0.18026744 -0.39710233 -0.4326601 -0.467165 0.08059378 -0.18234892 -0.05564559 0.016734295 -0.333846 -0.38975346
시 -0.08233872 -0.39109945 -0.3558657 -0.41165105 -0.39496368 -0.33218172 0.10162258 -0.073049806 -0.5183108 0.12974872 -0.25006163 0.12930326 -0.06883046 -0.16641864 -0.45614475 -0.31639528
봐도 -0.07797175 -0.39106733 -0.38032025 -0.42774433 -0.3999395 -0.10178633 -0.14529751 -0.5270595 -0.5760609 -0.55213594 0.2877751 -0.19613299 -0.067666195 -0.06622019 -0.52511597 -0.50482994
님 -0.07940449 -0.40436018 -0.33950755 -0.39098233 -0.39688623 0.19441013 -0.17220892 -0.37590507 -0.4361771 -0.44599694 -0.20153116 -0.003455507 -0.0657283 -0.18280947 -0.42276248 -0.2786213
어서 -0.05654728 -0.039242793 -0.31740597 0.01176887 -0.10391067 -0.46114677 -0.4816457 -0.40436584 -0.32432723 -0.32962635 -0.4195239 -0.46790916 -0.07574663 -0.049504146 -0.14287356 -0.28823376
애 -0.078979485 0.16110851 -0.35367373 -0.17591377 -0.38813853 -0.3821283 0.11067636 -0.43180484 0.04591 0.09742731 -0.15459602 0.07668261 -0.08285057 -0.0079533085 0.12517369 -0.05714415
편 -0.059924494 -0.4011494 0.031000098 0.1058319 -0.39065474 0.21388538 -0.31049255 0.14298777 -0.07943332 -0.091570705 -0.18311003 -0.30427274 -0.06939337 -0.10424759 -0.24497588 -0.47544017
다고 -0.063014366 -0.40276712 -0.3132834 -0.3930804 0.20472679 -0.41306296 0.13831152 -0.48128507 -0.08050639 0.14894538 -0.40502042 -0.17300777 -0.066981 -0.1767475 0.3410724 0.23659645
넘 0.34416676 0.05906947 -0.36061168 -0.42524844 -0.36650112 -0.39274365 -0.07919342 -0.17666353 -0.59576905 -0.14374761 -0.22828676 -0.30412513 -0.081600726 0.048042577 -0.584901 0.14372304
인데 -0.059334617 -0.37543434 -0.11768257 -0.35194084 0.10115888 -0.3634484 -0.4779467 -0.24984288 -0.029612575 -0.45913392 -0.41923785 -0.36994392 -0.083991416 -0.08924192 -0.36555493 -0.21745178
이해 -0.06470288 -0.30769226 0.05875539 -0.08398321 -0.34346035 -0.09054167 -0.14463681 0.017680418 0.07246987 -0.12100445 -0.4291088 -0.2448836 -0.060911927 -0.10748272 0.008515008 -0.31871483
전 -0.05534126 0.103251085 -0.35262144 -0.40780285 -0.37776798 -0.27388325 0.112495825 -0.5069714 -0.42722678 -0.53936833 -0.2578502 -0.17238367 -0.06853223 -0.18060818 -0.5357441 -0.25379848
별로 0.35878003 0.12423565 0.21930386 0.15759322 0.34029412 -0.515712 -0.53158015 -0.2906132 0.11094877 0.34403592 -0.44510698 -0.48323756 -0.08015664 -0.17782187 -0.23587759 -0.29588318
걸 -0.08333388 -0.015696155 -0.35101578 -0.40415365 0.1595208 -0.4676447 -0.37545747 0.006320827 0.13483709 -0.45065442 -0.19256991 -0.49308586 -0.059461664 -0.123648554 -0.25913543 -0.4866415
그리고 -0.058633722 -0.36540705 -0.35511857 -0.40425587 -0.37477794 -0.30030176 -0.4137525 -0.40472594 -0.4143777 -0.39607245 -0.35351798 0.21012926 -0.079306364 -0.14521663 -0.41962954 0.09744573
명작 -0.06440344 -0.3926049 -0.37693 -0.41467157 -0.40533215 -0.27837536 0.05139436 -0.57137 -0.5837075 -0.5634505 0.4152832 0.13971007 0.08204228 -0.15912493 -0.5367727 -0.31921625
난 -0.07584663 -0.39360675 -0.38070276 -0.41074738 -0.40855113 -0.28032288 -0.49185446 -0.5530507 -0.58492416 -0.5634455 -0.3451001 0.20051226 -0.0730875 -0.028331904 -0.45435122 -0.49551287
또 -0.06266935 -0.38221335 -0.3610356 -0.4143347 -0.06008855 0.06475701 -0.49731472 -0.37744543 -0.449311 -0.42727372 0.20234533 -0.39637744 -0.06700773 -0.02747389 -0.43030825 -0.5094695
역시 -0.08222872 -0.4049297 -0.16846326 -0.33887404 -0.2079018 0.09942833 -0.48158458 0.08389508 -0.61542934 -0.57510835 0.16855174 -0.40403897 -0.05664211 -0.0884361 -0.5739954 -0.010729308
여자 -0.059129175 0.13515072 0.29586512 -0.0065886327 -0.32408068 -0.37402222 -0.17131667 -0.48023367 -0.47690699 0.17630547 -0.041598227 0.10810201 -0.07801265 -0.04968996 -0.050315708 0.15362972
한국 -0.051123206 0.09538627 -0.34528074 -0.02766717 -0.3174697 -0.06581506 -0.36570418 -0.41689953 -0.2597082 0.046833884 0.08754499 0.069513015 -0.05606338 -0.040902734 0.18280607 0.12902233
이상 -0.078061126 -0.32507336 -0.26632354 -0.4118927 -0.35604972 0.025364354 -0.5210717 -0.23797542 0.012860028 0.080503695 -0.4185548 -0.50667876 -0.07870863 -0.15412991 -0.42051986 -0.51749945
는지 -0.06254468 0.23458461 -0.3312436 0.08450801 -0.3115113 0.114596784 -0.38020247 -0.01420748 0.20528784 -0.22779438 -0.32469222 0.0048287343 -0.060647532 -0.1086789 -0.11945727 -0.42008054
많이 -0.08132874 -0.09201816 -0.092699595 -0.34997687 -0.084193066 -0.25539264 -0.3930764 -0.07767047 -0.58912003 -0.51239103 -0.017012449 -0.45778003 -0.0631927 0.11474201 -0.42241713 -0.49061203
에게 -0.058334235 -0.26827812 -0.33909997 -0.3587165 -0.16667953 -0.09903309 -0.355854 -0.363715 -0.3703362 -0.0329912 -0.20630123 -0.29187432 -0.05804619 0.009100131 0.096072756 -0.45216498
부터 -0.071032524 -0.25675976 -0.24634562 -0.38334534 -0.2980487 -0.20516656 -0.39900726 -0.34031188 -0.37070277 -0.3494381 -0.3800326 -0.47894454 -0.08011994 0.15006684 -0.033281405 -0.50554955
주인공 -0.06762871 -0.4025444 -0.041810777 -0.41836184 -0.16884476 -0.18230186 0.027751913 0.24665199 -0.42479002 -0.2829316 -0.1455807 0.19328195 -0.082200885 0.10311425 0.12968756 -0.45593798
받 -0.08137054 -0.36193955 -0.3649613 -0.16756962 -0.30448717 -0.13209064 0.07484397 -0.3692792 -0.032114692 -0.324374 -0.19441545 -0.44992575 -0.055505496 -0.17720014 -0.10672689 -0.31752616
합니다 -0.062195 -0.076628126 -0.0979616 -0.21611775 -0.3903688 -0.4534877 -0.4952755 -0.057202317 0.086572565 -0.19551794 0.011656578 0.112444244 0.20894158 0.019937227 0.089690775 0.045537427
대 -0.07891891 -0.1451331 -0.17992015 -0.37191543 -0.32748553 -0.08165649 0.1563249 -0.15691328 0.044527143 0.28840983 -0.2381308 -0.27824843 -0.059579305 -0.059642483 -0.26077634 -0.48919803
두 -0.0719218 -0.392215 -0.3846922 -0.4084673 0.046193216 -0.4078848 -0.1468986 0.14144179 -0.4767389 -0.15900902 -0.23950292 0.042448122 -0.05781889 0.09196789 -0.4044313 0.0662728
우리 -0.07801767 -0.3951957 0.03614889 -0.4043401 -0.19816773 -0.22324455 -0.18498608 -0.5274542 -0.275361 0.24022791 -0.29960576 0.30441415 -0.077569686 0.030602356 -0.36830142 0.06598234
만든 -0.07857566 -0.40222237 -0.36361802 -0.41978464 0.23556744 -0.008060063 0.03587056 -0.55514544 -0.5521768 -0.5566313 -0.265973 -0.2502391 -0.058171872 -0.009628008 -0.49197987 -0.097340584
길 -0.07874976 0.11100656 0.18973355 -0.2759226 0.031015946 0.2049786 -0.2865731 -0.07262481 -0.18705094 -0.15494172 -0.39418286 -0.30076015 -0.06019303 -0.15560952 0.09340823 -0.4772216
엔 -0.06891702 -0.3662531 -0.18819568 0.009851855 -0.3248409 0.0847522 -0.3703999 0.12891833 -0.37658855 -0.013307476 -0.31060845 -0.4544504 -0.07314132 -0.15711053 -0.32253906 -0.4674058
살 -0.08282323 -0.36374024 0.112233594 -0.41693944 -0.34858674 0.12122583 -0.4808659 -0.1205108 -0.4389702 -0.44709462 -0.29585272 0.19056451 -0.07967076 -0.15106179 -0.16114946 -0.36449748
괜찮 -0.061396234 -0.39910498 -0.37434015 -0.43899214 -0.38833767 0.17734252 0.023701547 -0.048270967 -0.062044717 -0.5803225 -0.1401322 0.16521959 -0.06647429 -0.07251391 -0.5522338 0.14438121
요 -0.08029903 0.12627444 -0.08361879 -0.43263137 0.2650177 0.24877669 -0.065998904 0.06333885 -0.59382004 -0.5860174 -0.38687345 0.12622544 -0.07882179 -0.14478 -0.112510405 -0.5041424
기억 -0.07181747 -0.38031176 -0.35882816 -0.41242185 -0.38265327 0.18340889 -0.42592654 -0.52775615 -0.5014187 -0.5588891 0.00050009956 -0.017313013 -0.06863057 0.062222365 -0.37069735 -0.16829486
ㅡㅡ -0.047198474 -0.097947516 0.33616123 0.24141717 -0.381648 0.17400976 -0.5326137 -0.19244802 0.23906521 0.10921641 0.03320381 -0.027617756 -0.07506824 0.10347398 0.05553104 -0.24049203
한다 -0.05676704 -0.40349057 -0.15426302 -0.07748456 -0.04921783 -0.33286065 -0.5057885 -0.18566392 0.1364644 -0.26355416 -0.25406578 -0.44796103 -0.08094308 -0.18381101 -0.44862226 0.16735284
연출 -0.06569208 -0.40103486 -0.3629631 -0.25188005 -0.3957601 -0.4222252 -0.4855737 -0.2753118 -0.40776536 -0.024226693 -0.36908534 -0.44927093 -0.067825854 0.2348335 0.03081523 -0.48077154
ㅎㅎ -0.07382455 -0.40897235 -0.1704769 -0.066504925 -0.012254354 -0.21042997 -0.27217177 0.06057671 -0.20002775 -0.30468673 -0.36317116 0.36312136 -0.06595831 -0.009357666 -0.39772996 -0.09328349
때문 -0.054248314 -0.37144563 -0.039278835 -0.3694756 -0.008602686 -0.55323005 0.0051714666 -0.52585214 0.08895166 -0.036991958 0.22538371 -0.21021928 -0.07711915 0.13692977 -0.21539293 -0.14974086
저 -0.07559671 -0.40307322 -0.3778923 -0.16879526 -0.38701528 0.09685716 -0.4887909 -0.02806028 -0.46904656 -0.4571602 0.07933007 -0.46614185 -0.061192304 -0.132415 -0.4062028 -0.4965903
이나 -0.0776247 0.070249304 -0.17570843 -0.04027107 -0.08441983 -0.12699673 -0.36726984 0.23290014 -0.42599827 0.043501273 -0.3669655 -0.4092844 -0.0735724 -0.029657079 -0.31951955 -0.1690783
재 -0.070880935 -0.40591803 -0.35920063 -0.41095355 -0.19911443 -0.118966445 0.25129002 -0.43991312 -0.5926649 -0.5637297 -0.35936964 -0.2059644 -0.07959494 -0.089217275 0.014880167 0.0018719605
꼭 -0.08479806 -0.38104203 -0.34391117 -0.053543553 -0.39208063 -0.24572973 0.13485761 0.03433106 0.14634863 -0.55199534 0.36415452 -0.09862854 -0.05631528 -0.15872622 -0.33509213 0.12978862
며 -0.0587292 -0.34546164 -0.2748057 -0.4103683 0.06259892 0.09104939 -0.37305117 -0.36939994 -0.22536473 -0.33840492 -0.18768613 -0.14331403 -0.07921975 -0.13840367 -0.25210404 -0.42747742
현실 -0.05458234 0.12799114 -0.027058888 -0.3089485 0.13536315 0.24365015 -0.29886964 -0.492878 -0.23784813 -0.10994946 0.10118842 -0.46285003 -0.0650648 -0.10363214 -0.47919828 0.014092627
랑 -0.05195281 -0.3272799 -0.3484612 -0.32094577 -0.21000104 -0.36229143 -0.037550207 -0.35624486 -0.4296763 -0.34689733 -0.32317707 -0.39635324 -0.066648185 -0.07311173 -0.41950744 -0.36895645
긴 -0.05271792 0.0323258 -0.3252771 -0.3695916 0.21849282 -0.32872015 -0.30746704 -0.0074417917 -0.051208146 0.002624992 0.049239065 0.030242478 -0.070520274 -0.083403 0.23349364 -0.5023551
무슨 -0.07045752 -0.14540872 0.3216279 -0.4144627 -0.37002745 -0.5089774 -0.5001421 0.068164654 -0.18975963 0.10027105 -0.41171053 -0.4787943 -0.06995719 -0.17120892 0.09320905 -0.51455796
내내 0.43666646 -0.22185495 -0.18096213 -0.40767425 0.042400524 -0.05161877 -0.1597994 -0.3505953 -0.4546653 -0.061090004 -0.4359694 -0.40767002 -0.06610714 -0.15630631 -0.29758456 -0.30709413
죽 -0.08238495 -0.39356273 -0.35613906 -0.33729017 -0.3787936 -0.041949816 -0.43598258 -0.52798223 -0.50751936 0.005426922 0.103695855 0.088902555 -0.07712325 -0.14440958 0.35847005 -0.51538116
결말 -0.051873114 -0.22395335 -0.33348504 -0.3753902 0.21645051 -0.26962933 -0.3933526 -0.04562975 -0.3909489 -0.31418565 -0.34745958 0.12580328 -0.058100324 -0.032177303 -0.17306168 -0.15160824
남자 -0.076644 -0.39993078 -0.3675444 0.039742213 -0.3963393 0.12764922 -0.28626895 -0.27828923 -0.4476845 -0.41656548 -0.34790134 -0.12909397 -0.057857387 0.1273142 -0.42744493 -0.22312495
전개 -0.057147883 -0.2333131 -0.36407536 0.30753994 -0.26430038 -0.43302247 -0.5066497 -0.41078284 -0.2629835 -0.14744425 -0.40277356 -0.45517308 -0.07988372 -0.114870444 0.10201286 -0.4914356
마음 -0.0767072 -0.38244158 -0.37185168 -0.42867637 -0.3890313 -0.38196397 0.1770644 -0.52941257 0.11897862 -0.48335642 -0.3838497 -0.1643765 -0.06711113 -0.17435884 0.22217014 0.31669524
세요 -0.072317466 -0.38579375 0.008643686 -0.41819018 -0.079993054 -0.19271135 -0.13589934 -0.23536697 -0.46322387 0.18488403 -0.16153911 -0.3693989 -0.07610907 0.11918069 -0.2133917 -0.27735674
소재 0.24103127 0.23525172 -0.28674486 -0.40183413 -0.20907909 -0.037799474 -0.4536509 -0.4136156 0.24885668 -0.115479715 -0.35552266 -0.40487966 -0.07796902 -0.08570604 0.10064568 -0.48764092
속 -0.08044775 -0.03473023 -0.35386857 0.06937874 -0.37600604 -0.22536498 0.15616329 0.10006717 -0.43235895 0.05163618 0.119132824 -0.46017173 -0.06874909 0.09531604 -0.38356304 -0.4616881
아서 -0.07645743 -0.062326107 -0.07244163 -0.40985435 -0.04661928 -0.41306815 -0.43930408 -0.4308671 -0.4162859 -0.041571822 0.01988112 -0.3403721 -0.080963425 -0.1065189 0.10099975 -0.14060342
공포 -0.07562765 -0.21470028 -0.2770308 -0.3509189 0.23662482 -0.479044 -0.3314607 -0.3880084 -0.44827008 0.08673623 -0.38006306 -0.1151665 -0.06505791 -0.10981448 -0.3895301 -0.51912373
데 -0.071153976 0.058257308 -0.3677075 0.04900053 -0.38214278 -0.29750478 -0.37834573 -0.39776945 -0.4471425 -0.5533972 0.059155744 -0.36999848 -0.08060764 -0.14044608 -0.39789173 -0.3767774
다른 -0.06890047 0.10852209 0.06345744 -0.23000005 -0.37832448 -0.32368737 -0.35662338 -0.38832992 -0.43317208 -0.052926686 0.23316905 -0.04253948 -0.06712979 0.04049423 0.048635475 -0.24291374
인생 0.1163294 -0.41579884 0.08962149 -0.34795392 0.2591614 0.058733426 -0.17188105 -0.5519558 -0.47374776 0.13336393 0.08242836 -0.30936164 -0.081094205 -0.17746219 -0.4339409 0.30562317
씨 -0.079083145 -0.39382476 -0.3445306 -0.37345424 -0.3952753 -0.30872026 -0.112530045 -0.14280744 -0.38207832 -0.347785 -0.36720303 -0.38169056 -0.058167428 0.11984907 -0.43469486 -0.39082137
짜증 0.51202595 0.060510248 -0.10120176 -0.25598985 -0.09496141 -0.5087752 -0.52961427 -0.12334745 0.27057126 0.22590585 -0.42315057 -0.47633633 -0.08051738 -0.016895493 0.40662 -0.5143846
뿐 -0.056689557 0.24024835 -0.13991402 -0.063874654 0.05935314 -0.46243396 0.07120054 0.19216375 0.10978326 -0.017232094 -0.37098378 -0.39763433 -0.0732547 -0.007093384 -0.21014509 -0.40337253
짱 -0.069962226 -0.40671632 -0.3871048 -0.20250829 -0.27681303 -0.24294437 0.08837405 -0.58565944 -0.6108291 -0.5897781 -0.35310483 -0.46285614 0.32052842 0.008085485 -0.566494 0.2774333
은데 0.054903954 -0.40855062 0.013687408 0.04803974 -0.38900045 -0.41010255 -0.4850007 0.112828255 -0.5935438 -0.57724714 0.18361591 -0.27591583 -0.06814105 -0.16782002 -0.5542808 -0.4292365
아요 -0.07875831 -0.1537621 -0.38666275 -0.42664823 -0.23703393 -0.25596282 -0.117824174 -0.08417849 -0.16542728 -0.10521712 -0.11137258 -0.1016806 -0.06817002 -0.15203361 -0.06404136 0.17415972
아이 -0.07082216 -0.13351804 -0.319033 -0.33501992 -0.11937147 -0.29881537 -0.522724 -0.15158382 -0.4300627 0.02135162 -0.08968524 -0.4802226 -0.08728414 -0.10692908 0.02160405 0.10422664
필요 -0.062274568 0.12467049 0.10925681 -0.41048586 -0.39838305 -0.33190244 0.20181784 0.14681867 -0.5602001 0.35132995 -0.020367121 0.23007561 -0.08553094 -0.17855138 -0.400416 0.17822239
유치 -0.079817355 -0.28006583 0.089068145 0.13242175 0.30812743 -0.48248827 -0.52931726 -0.12550883 0.033681873 0.08452366 -0.1593526 -0.47483933 -0.062375776 0.20587938 0.25048435 -0.50649375
가장 -0.08091855 -0.4010378 -0.35537034 -0.4225161 -0.2986955 -0.43627736 -0.47562623 -0.4041196 -0.4258325 -0.14635998 -0.06811871 -0.030212611 -0.062891014 -0.17287329 -0.4031759 -0.47847456
음악 -0.077073425 -0.17110342 -0.35631242 -0.41731364 -0.41489217 0.21829562 -0.0224475 -0.5535469 -0.5913454 -0.0710792 -0.1350153 -0.2137209 -0.07698413 -0.17707807 0.023240248 -0.14797792
일본 -0.06662681 -0.12514786 -0.35568926 -0.40279692 -0.1168429 -0.46925867 -0.49073714 -0.38789642 0.09182939 -0.14178523 -0.38163057 -0.4216166 -0.06925334 -0.023362383 0.24770708 -0.48797074
낮 -0.051083438 -0.42025217 -0.30595285 -0.27585545 -0.40167105 0.45398474 -0.005126138 -0.2948576 0.3352584 -0.46568725 -0.3662727 -0.13344519 -0.058243845 -0.11668579 -0.25123107 -0.14169888
오 -0.051039513 -0.057879202 -0.038164504 -0.10124569 -0.11970923 -0.29053542 0.06413458 -0.3195608 -0.07916901 -0.20634875 -0.36258045 -0.124327004 -0.07428308 -0.06588724 -0.21744205 -0.2713591
반전 -0.054038815 -0.16770943 -0.36565763 -0.42401588 -0.38455588 0.015232289 -0.49039876 -0.44933695 -0.42798325 -0.46725646 -0.15968452 0.012308058 -0.05489873 -0.16691698 -0.45436624 -0.48439568
수준 -0.049818706 0.33565968 0.30788574 -0.29670504 -0.12554519 0.12466356 0.01532536 -0.062243953 0.16845231 -0.33967707 -0.43262073 -0.47458583 -0.0517792 0.17724171 -0.24338144 -0.49149778
웃 -0.054113947 -0.3051312 -0.3708339 0.09444293 -0.37921557 0.04963208 -0.5127641 -0.39062056 -0.06679538 -0.079040915 -0.42237473 -0.46437225 -0.061446145 0.078506224 -0.5134939 0.20447381
다니 -0.080278866 0.09159585 -0.34629604 -0.42139643 -0.36597213 0.18702275 -0.4910621 -0.4166636 0.13579805 -0.44773114 -0.019352831 -0.4330597 -0.061522853 0.18702988 -0.2558995 -0.4686625
매력 -0.07694072 -0.25412515 -0.24790037 -0.25860023 -0.38476083 -0.40878963 -0.4902005 -0.0792938 -0.5516622 -0.22648305 0.20638959 0.21560049 -0.05364055 -0.045174386 0.09667757 -0.47853476
별 -0.081947304 -0.40574664 0.19835609 -0.38296843 0.06164088 -0.03757091 -0.24618551 -0.33194476 -0.0720536 0.20154329 -0.4099366 -0.29363123 -0.08058269 -0.115687996 -0.24689347 -0.49641973
인지 -0.05901913 -0.28588763 -0.33782586 -0.38127467 -0.045225356 -0.40013534 -0.51141346 0.14027494 -0.36307886 0.0132463835 -0.3584732 -0.48555174 -0.06573982 -0.15852852 -0.25477865 -0.49773875
맞 -0.07520274 0.07335727 -0.3340697 -0.20305462 0.119076446 -0.4445082 -0.3789826 -0.32859978 0.22172879 0.046442386 -0.21551958 0.1516086 -0.060938857 -0.046063926 0.188893 -0.11761013
가슴 -0.059959855 -0.25045988 -0.35303727 -0.41258377 -0.16091613 0.04864284 -0.19761182 -0.50604606 -0.5180815 -0.5293408 -0.37058803 0.1738443 -0.055913936 -0.089891545 0.040879812 0.22504847
없이 -0.078391135 -0.33076635 0.053424772 -0.17367078 0.019567916 0.041250978 0.052385163 -0.34216222 -0.4183745 -0.073689 -0.20617169 -0.39228868 -0.07486978 -0.16361701 -0.16454503 -0.25863656
원작 -0.05129727 -0.050410204 0.13011216 0.12117705 -0.365651 -0.25180188 -0.5055998 -0.12631702 -0.36364636 0.047769308 0.20878242 -0.39986953 -0.069055475 0.2967481 0.1819204 -0.45294443
인간 -0.081570834 -0.34148538 -0.36423513 -0.42192647 -0.21481529 0.26424807 -0.018300518 -0.34027675 -0.46854368 0.16319644 0.025153482 -0.36806604 -0.08175418 -0.11986979 0.09465972 -0.19198228
굿 -0.07283911 0.026058001 0.063717514 0.072478235 0.025444144 0.39559412 0.1941341 -0.42955586 0.100353666 0.27773252 0.13828997 -0.120946765 0.14880428 -0.18310623 0.044841222 0.24322946
높 -0.05229735 0.33297485 -0.25503498 -0.05052461 0.2500987 -0.5173284 -0.53569514 0.0805082 -0.3486715 -0.22145052 -0.4043552 -0.34872726 -0.07360805 0.041327827 -0.26984948 0.28718635
ㄷ -0.07478425 -0.06721807 -0.04278209 -0.2177181 -0.14988755 -0.5253033 -0.17708755 -0.25141293 0.10264819 -0.05298639 -0.4326511 0.20027192 -0.05882336 -0.0945953 -0.20099728 -0.16549663
밋 -0.07949356 0.17891784 0.05237669 0.12306407 -0.30662546 0.28450996 0.34009188 -0.10799628 -0.5957433 -0.59008515 -0.35756248 -0.24027431 -0.06214854 -0.034583967 0.04380955 0.057914007
만드 -0.057468325 -0.23498787 -0.095352806 -0.33041266 0.23638849 -0.37668568 -0.38956523 -0.3563487 -0.41645905 -0.119768 -0.07901649 -0.4532675 -0.06574698 -0.09240133 -0.23962264 -0.4816157
눈물 -0.07034802 -0.4021488 -0.3420531 -0.4057225 -0.385383 0.40582445 -0.034366608 -0.5569897 -0.58097875 -0.5649968 -0.26995477 0.045229267 0.16488872 -0.16320279 -0.5486822 -0.26288995
급 -0.08207524 -0.17278156 0.14423703 -0.4303495 -0.051993456 -0.22230102 -0.31205815 -0.34539205 -0.42467985 -0.33597913 -0.23284392 -0.284775 -0.08058132 -0.08208606 0.30515292 -0.21350782
보여 -0.066841386 -0.23454857 -0.33150125 -0.40081856 -0.35423854 -0.14513884 -0.22573648 -0.15403336 -0.43466213 -0.45727146 -0.33898422 -0.05386806 -0.08061966 -0.06708972 -0.2546132 0.034433853
준 -0.05432793 -0.35061032 0.10604465 -0.38746917 -0.30417308 -0.25350598 0.081251584 -0.3595054 -0.13200545 -0.37706676 0.06397947 -0.31498128 0.13242872 -0.1570152 -0.26023462 0.13791507
찍 -0.05306308 0.2572158 -0.16390583 -0.1495272 -0.22964256 -0.3703334 -0.3612951 -0.32967532 0.29130614 -0.21452574 -0.35972083 -0.42969605 -0.076156184 0.06935816 -0.19882624 -0.3648255
인가 -0.0640388 0.15069212 -0.34406346 -0.11302274 -0.37785614 -0.21026434 -0.49579304 -0.2031295 -0.0327791 -0.04486515 -0.40305895 -0.48369816 -0.07673613 -0.16294721 0.30778298 -0.49101081
노 -0.0680481 0.15422009 -0.34735987 0.084771834 -0.24641427 0.20384473 -0.5201805 0.3015701 0.37292075 0.00020204301 -0.047035825 -0.48913336 -0.05587848 -0.1543913 0.49137875 -0.47816867
코미디 -0.074772224 -0.052985944 -0.16563216 -0.28125104 -0.18328547 -0.07812473 -0.14411058 -0.47474954 -0.43131343 -0.23586215 -0.4407009 -0.07156464 -0.043481912 0.22297399 0.15419492 -0.21461861
신 -0.064497754 -0.4020532 -0.34817222 -0.42521903 -0.40146148 -0.1467667 -0.21634752 -0.3627854 -0.37405315 -0.46040055 -0.3073066 -0.32926324 -0.07393275 -0.052538123 0.05068435 -0.29401135
용 -0.07934626 -0.39293373 0.03265882 0.13862419 0.09373236 -0.41384345 -0.41339368 -0.27305153 -0.45683843 -0.46049753 -0.1698857 -0.37473255 -0.06370847 -0.12931132 -0.41308096 -0.43298385
모든 -0.08231105 -0.3791189 -0.341261 -0.40510616 -0.31601143 -0.3776734 0.22163467 -0.34247735 -0.3790935 -0.22354221 0.15969715 -0.4258627 -0.062489264 -0.17135075 -0.38650236 -0.50475216
마 -0.059129845 -0.31745496 0.11950714 0.15419048 -0.30542222 -0.40228662 -0.3233163 -0.111439 -0.18459316 -0.04730436 -0.30742517 -0.4712637 -0.056858316 -0.07699872 -0.2278471 -0.5075596
화 -0.0556999 -0.14868924 -0.10630901 0.29932344 -0.10999767 -0.52307826 -0.03330282 -0.090120174 -0.1786382 -0.2745296 -0.43222916 -0.4815976 -0.06921559 -0.014276126 -0.3632016 -0.5050214
추천 -0.07886788 -0.3966499 -0.36168286 -0.20460176 -0.39687678 -0.05096569 0.26576883 -0.5615351 -0.58530116 -0.5730652 -0.10240279 -0.15677245 -0.05057582 -0.11014562 -0.5666373 -0.07677958
아직 -0.07929586 -0.3904252 -0.019354627 -0.41547972 -0.12541634 -0.3853986 -0.20224026 -0.41988194 -0.13262926 -0.52492815 0.092265464 -0.45926353 -0.07136181 -0.16645107 -0.33999938 0.18041226
아닌 -0.07880681 -0.026201803 -0.3241981 0.212925 0.2217834 -0.47905403 -0.5215869 -0.32060808 0.008564623 0.029810473 -0.39661875 0.07212494 -0.06693787 -0.10963065 -0.07081481 -0.5100619
처럼 -0.057879865 -0.0064835986 -0.34933367 -0.36335617 -0.38584995 -0.19022956 -0.00059867935 -0.38238677 -0.36651778 -0.28945157 -0.22488385 -0.3513737 -0.063692205 -0.050623875 -0.42145976 0.16028959
쓰 -0.074919894 0.22897498 0.07031319 -0.1961191 0.028752806 -0.52142495 -0.105203666 -0.20490278 -0.2810259 -0.23375101 0.17368689 -0.28029615 -0.0671205 -0.080021665 -0.019053115 -0.48946643
눈 -0.065459274 -0.20171277 -0.09493902 0.27293465 -0.19619967 0.20635271 0.19828036 0.09593745 -0.41331175 0.26164922 -0.42902926 -0.45959115 -0.079323374 -0.17205913 0.08967984 -0.4799253
자체 -0.07881842 -0.30126303 -0.29811302 -0.05897249 -0.40160352 -0.2495733 -0.454845 0.029137269 -0.17385931 -0.1685919 -0.036150947 -0.42192435 -0.05291522 -0.17581289 -0.41564345 -0.51814747
울 -0.06884038 -0.38676196 -0.038248252 -0.41376978 -0.3643429 -0.41454816 0.16670825 -0.39810053 -0.5129053 -0.4971506 -0.14799489 0.27078575 -0.07183735 -0.073000014 -0.038164925 -0.36328
몰입 -0.07218133 -0.39743668 -0.3555504 -0.18765324 -0.36888152 -0.25302258 -0.03069216 -0.53181237 -0.48540756 -0.5174109 0.045987666 0.2585918 -0.054212898 0.0903673 -0.48457375 -0.45319736
대박 -0.07122601 0.17578152 -0.28744495 -0.33842495 -0.41597804 -0.19796352 0.026783343 -0.2870553 0.020322205 0.14276095 -0.36920902 0.41272572 -0.057677116 -0.19404283 -0.122061655 0.14898512
란 -0.080738634 -0.40160447 -0.35129067 -0.3962539 -0.36773738 -0.350274 -0.38639155 0.030292735 -0.43548128 -0.4316335 -0.03159449 -0.063165046 -0.08124888 -0.12757382 -0.44086942 0.08310802
스럽 -0.06944082 -0.31278583 -0.3591567 -0.3437357 -0.037779775 -0.44230607 -0.5207372 -0.36004883 -0.37763438 -0.45480037 -0.19581823 -0.46594363 -0.07705216 0.14309205 -0.27057242 -0.49957073
몇 -0.06980457 -0.18185629 -0.29476252 -0.26427215 -0.24634597 -0.2902149 -0.18101972 -0.3541489 -0.49192104 -0.54391307 -0.32977805 -0.070217595 -0.07619768 -0.023435047 -0.3133367 -0.13352732
을까 -0.07510991 -0.1661324 -0.13273263 -0.019365583 -0.26532713 -0.36493856 -0.43376043 0.23958308 0.048026428 -0.41794616 -0.3522638 -0.014151411 -0.07494197 -0.10464342 0.06932458 -0.4382083
실망 -0.07097114 -0.23532295 0.11316788 0.38145858 0.16735421 -0.49210358 -0.5205915 0.34210676 -0.04331435 0.27196693 -0.38099363 -0.485037 -0.06771276 -0.114607915 -0.20716022 -0.51107633
대한 -0.061033618 -0.089083664 -0.33826873 -0.3305195 -0.25455156 -0.13564354 0.20842697 -0.3553538 -0.3955783 -0.32285497 -0.28647688 0.018226542 0.12232534 -0.1122213 -0.3783351 -0.04377073
는다 -0.081787616 -0.17851403 -0.21131425 -0.4167446 0.20571974 -0.36843106 -0.41860035 -0.004572823 -0.21838625 -0.51330966 -0.35383335 0.05288728 -0.059704646 -0.14061768 -0.062884785 -0.17974617
여 -0.0720692 -0.38314572 -0.17513196 -0.4105385 -0.064575896 -0.45609567 -0.52596706 -0.017405597 -0.57478666 -0.58425534 -0.015301909 -0.44741634 -0.054875065 -0.07993601 -0.093254365 -0.19260341
그런 -0.067273095 -0.017154425 -0.05697348 -0.19497205 0.13448904 -0.46267763 -0.511979 0.06374051 -0.31222758 -0.3341232 -0.42063466 -0.48990777 -0.056260217 -0.16405627 -0.26427788 -0.42915067
죠 -0.058420572 -0.10184276 -0.19613329 -0.4259507 -0.21745831 -0.33882716 -0.033289135 -0.5547099 -0.5544915 -0.5737547 0.05224546 0.07541373 -0.08780324 -0.11980433 -0.055218067 -0.274561
솔직히 -0.05047034 0.19450161 0.21623331 -0.4121017 -0.19523789 -0.49697304 -0.51763284 -0.4074708 -0.13506724 -0.047209192 -0.27405292 -0.33734637 -0.058283888 -0.13079628 -0.2016566 -0.5118231
캐릭터 -0.05301525 -0.16489929 -0.31121057 -0.28585866 0.24018152 -0.45296043 0.020211091 -0.21180227 -0.572321 -0.40545446 -0.38167804 -0.387919 -0.056026235 0.008067658 -0.013579149 -0.45388094
아주 -0.0691526 -0.4032426 -0.39393976 -0.4066834 -0.40387976 -0.07477588 -0.2240492 -0.56309325 -0.59874964 -0.56009704 -0.05084557 -0.4143622 -0.06750815 0.05332663 -0.5657367 -0.12798212
모두 -0.05767854 -0.3897768 -0.37482294 -0.42552125 -0.37144357 0.0061262134 -0.28591415 -0.52054304 -0.479664 -0.283013 0.05374377 -0.04489957 -0.059397243 -0.13451454 -0.42415106 0.16963848
전혀 -0.078212045 0.026560891 -0.2765793 0.43292212 -0.17949666 0.19413014 -0.48672956 -0.2534365 -0.2372933 0.011752179 -0.3717284 -0.47253278 -0.05941881 -0.14668044 0.22983977 -0.17798464
가족 -0.0811589 -0.41326082 -0.39385676 -0.04847816 -0.39100915 0.22103952 -0.18074116 -0.14991894 -0.21994664 -0.5307695 0.08570656 -0.3070854 -0.0692701 -0.07039504 -0.44694045 -0.29526123
여운 -0.071655996 -0.38874152 -0.3458369 -0.41874266 -0.38152385 0.06254107 -0.10580223 -0.405269 -0.43279278 -0.5136104 0.17436875 0.18000901 -0.032462895 -0.11656474 -0.29345146 0.4143831
건지 -0.06336499 0.009490055 -0.3313599 -0.14298928 -0.004930226 -0.34387264 -0.41774762 0.04012697 0.32348353 0.035021268 -0.41123223 -0.43456376 -0.07654464 -0.11430339 -0.29765695 -0.48966804
연기력 -0.075660825 -0.1161809 -0.32729417 0.05989786 0.0527239 -0.5034003 0.18831886 -0.10484165 -0.38179207 -0.25406784 -0.41933182 -0.47776693 -0.07134223 -0.1177593 -0.26156074 -0.47796747
될 -0.074209526 -0.2770211 0.12576503 -0.16209075 -0.19547753 -0.32135993 -0.43251142 0.1691354 -0.14145114 -0.41044456 0.14315237 0.077003665 -0.06976671 -0.044292916 0.15159862 -0.42576906
다면 -0.07342157 -0.33659232 -0.30079952 0.054755878 0.12413359 -0.32668674 -0.2882711 -0.34489003 -0.17215872 -0.2517512 -0.37496135 -0.3178763 -0.06832534 -0.08867713 -0.26144814 -0.30521002
뭔가 -0.063144006 -0.12680581 0.070733786 -0.42375153 -0.06013183 -0.011872602 -0.06510393 -0.35877112 -0.43239787 -0.44946072 -0.37569335 -0.4808372 -0.06048055 -0.06626215 -0.13137546 -0.49838984
그래도 -0.05806234 0.10597458 -0.064335056 -0.391761 -0.13464396 0.101438686 0.107252404 -0.524878 0.09466094 0.06499694 0.21707968 -0.26287368 -0.07089023 -0.1590999 -0.39335084 -0.06564854
후 -0.056061983 0.03538113 -0.33735585 0.06847028 -0.2592644 -0.24852525 -0.32645145 0.074025065 -0.19066496 -0.31245667 -0.21437658 -0.023666669 -0.052991055 0.2578165 -0.39743006 -0.1954601
나라 -0.07145175 0.28119776 -0.3481249 -0.41096807 -0.3673069 -0.10151938 -0.28826535 -0.004777997 -0.4351305 -0.4402823 -0.20344467 0.10209582 -0.069846295 -0.13817671 -0.45573318 0.0715419
시리즈 -0.07571628 -0.3990031 0.009563721 -0.41777933 -0.37488976 -0.50873035 -0.13390958 -0.46272013 -0.4657995 -0.41721737 -0.20364828 0.10275865 -0.057421863 -0.064749755 -0.43128955 -0.47715348
ㅎ -0.07168663 -0.35927698 -0.38614774 -0.3814426 -0.25785145 0.31750223 -0.39197227 -0.25773716 -0.2906395 -0.15823597 -0.3456946 -0.3430278 -0.06277812 -0.10953899 0.07598302 -0.21520615
근데 -0.0710138 -0.18388708 -0.3407366 -0.114837565 -0.2856077 -0.33109742 -0.12567355 0.058792222 -0.20955719 -0.3862567 0.14523643 0.1676222 -0.06946341 -0.16136047 -0.2529439 0.14498734
표현 -0.05743573 -0.3397512 -0.33770317 -0.37504384 -0.19066851 0.14884533 0.16129279 -0.36591783 -0.38194197 -0.34804377 -0.3665786 -0.39853242 -0.06992338 -0.16922228 -0.33256736 0.1462902
모습 -0.05287802 -0.19349298 -0.3334979 -0.3334507 -0.33301458 -0.30902606 -0.02552135 0.010291644 -0.41889286 -0.0075471895 0.1899932 -0.19084299 -0.07957199 -0.08523796 -0.04220256 -0.1984425
계속 -0.067222744 -0.37568513 -0.33941093 -0.3973718 -0.3273755 0.049993116 -0.24601251 -0.38511714 -0.4458231 -0.4609552 0.15739474 -0.012086031 0.20020065 -0.12965456 -0.4087411 -0.12863718
작 -0.0722744 -0.047922943 -0.14884838 -0.3828049 -0.13409102 0.090198524 -0.5149702 -0.3672385 -0.04249654 0.13190985 -0.40020218 -0.46392328 -0.07471108 0.22703968 -0.22223209 0.2244414
공감 -0.049861822 -0.19939469 -0.37790754 -0.41571388 0.1890039 0.24413751 0.066226736 -0.4562559 -0.4898543 -0.46359605 -0.30760792 -0.008291869 -0.0731688 -0.076514855 -0.43772337 -0.21488376
먹 -0.076897256 -0.15553986 -0.0889831 -0.23908739 -0.090249114 0.23212075 -0.41998875 0.16018246 -0.42419583 -0.22135979 0.056616332 -0.18170378 -0.062162932 0.23214558 0.05379508 -0.19540994
제목 -0.075167224 -0.07061753 -0.24662116 -0.24662428 0.17470397 0.14390785 -0.16624732 -0.18287773 0.094773464 -0.045787454 -0.37686732 -0.4854821 -0.067117006 -0.17624885 -0.39749783 -0.48733538
비 -0.04903339 -0.40731278 0.047841698 0.13952877 0.25004694 0.10824567 -0.49872836 -0.23012903 -0.102873325 0.168684 -0.058754805 -0.19070424 -0.0773463 -0.16759866 -0.41690764 0.031825323
이랑 -0.051222377 -0.33286473 -0.35513884 -0.16574003 -0.26939875 -0.32979107 -0.016260501 -0.050198797 -0.44453987 -0.26758745 -0.29439235 -0.31036514 -0.05763067 -0.0015267526 0.069821954 -0.26902887
극장 -0.06819727 0.16610916 0.07304577 -0.38655347 -0.06797819 -0.33639672 -0.21945748 -0.31950733 -0.06537412 -0.3008256 -0.38087794 -0.4014144 -0.043028843 -0.13655782 0.07399528 -0.23224491
치 0.38522604 -0.20084523 0.046892796 -0.25994247 -0.22293372 0.081108004 -0.37270474 0.024596302 0.06060576 0.30859604 -0.09608312 -0.23192008 -0.054733414 -0.09898025 -0.09907872 -0.47837862
이걸 -0.051215693 -0.055157855 0.21231507 -0.41094765 0.017542297 -0.39497447 -0.16031031 0.28535843 -0.13107039 -0.10469379 0.07133897 -0.4942974 -0.05989075 0.10756046 -0.33717093 -0.50122637
부분 -0.05857125 0.03804983 -0.33575425 -0.3722061 -0.32815778 -0.3451814 -0.2276837 -0.35502583 -0.43974185 -0.3005835 -0.29847068 0.054144002 -0.060174335 -0.18372573 0.07926562 -0.4056749
그렇 -0.05382728 0.30465695 -0.12994982 0.17210205 -0.31498602 -0.47597408 -0.49606198 -0.17070334 0.093575284 -0.12983315 -0.39660648 -0.47541967 -0.0812684 -0.12047529 -0.2910806 -0.48944575
대사 -0.0535798 -0.38227054 -0.36602166 -0.41877708 -0.32017606 -0.09299138 -0.37138125 -0.36701068 -0.36676392 -0.28176418 -0.35958064 -0.46526143 -0.05344757 -0.1628765 -0.32972547 -0.43783376
바 -0.06868048 -0.2552138 -0.31962955 0.15214892 -0.029604591 -0.42163447 -0.47841874 -0.34478977 -0.3932982 0.28589424 0.013595331 -0.44041896 -0.061174784 0.31404787 -0.24164692 -0.33052567
대단 -0.055174246 -0.18146804 -0.074150056 -0.08542603 -0.24543926 -0.22219567 -0.19496953 -0.5602429 -0.5924549 -0.5782858 0.31835204 -0.16893359 -0.057271887 -0.09272062 -0.22366792 -0.11329571
어디 0.48071364 0.1414984 -0.23921674 0.038958106 -0.23304771 0.18641147 0.053643942 0.09863671 0.2819446 0.080788605 -0.41483176 -0.3785175 -0.07709674 -0.14753672 -0.3891812 0.26727003
개봉 0.3431508 0.08442002 -0.17707953 0.26454565 -0.30910042 -0.3324945 -0.46523178 0.22120333 0.12644452 -0.043831155 -0.39360592 0.23018269 -0.05655781 -0.11106147 -0.046401232 -0.044031594
진 -0.07543623 0.24502864 -0.18108647 -0.042696394 0.3391481 0.27216992 0.09887158 -0.10984711 -0.17204612 -0.07699608 -0.4194724 0.12967953 -0.070730574 -0.096937664 -0.20158279 0.05528134
아쉽 -0.05206674 0.019542502 0.10750832 0.13026893 -0.07180831 0.26887518 -0.081078894 -0.055275697 -0.23340316 -0.29875457 -0.39954212 -0.48186982 -0.07232365 -0.1006128 0.13125658 -0.4929759
된다 -0.07214012 0.038117666 -0.20840558 -0.26233393 -0.041169778 -0.46262553 -0.39815107 -0.15145956 -0.3708377 -0.26390585 -0.21854526 -0.31779954 -0.05470462 -0.14627606 -0.43247327 -0.51193106
기분 -0.049962036 -0.18629487 -0.189836 -0.37617406 0.08955688 -0.4979943 -0.26197165 0.15885274 -0.3807667 -0.1349802 0.08054837 -0.09007828 -0.0732459 -0.17132603 -0.13829796 -0.15453665
작가 -0.07469644 -0.23832448 -0.317397 -0.08821066 -0.32249007 -0.37339336 -0.38721326 -0.18116933 -0.0020522736 0.10821936 -0.28948584 -0.06252009 -0.057033528 0.42387447 -0.14425933 -0.40802622
진심 -0.0780415 -0.39129764 -0.36488473 -0.43248838 -0.3959838 -0.12447578 -0.51801974 -0.5307869 0.10108508 0.043667026 -0.40285712 -0.4939227 -0.0695581 -0.16742927 -0.4499432 -0.508884
구 -0.047557164 -0.38460422 -0.36465997 -0.20551121 -0.3924276 -0.32669014 -0.39846936 -0.006002808 -0.13870256 -0.17442681 0.16772693 -0.11956417 -0.058723677 -0.10311187 -0.48355195 0.05065395
해도 -0.057845548 -0.23613068 -0.25005642 -0.22167674 -0.220205 -0.2823691 -0.42234817 -0.19226816 -0.11487543 -0.030297268 -0.30294493 -0.13704427 -0.08578613 -0.11035926 -0.114693485 -0.39561152
놓 -0.072364144 -0.2790493 -0.22246459 -0.25049824 0.0683489 -0.29386488 -0.34811383 -0.22936295 0.21061552 -0.31666553 -0.28403074 0.18379436 -0.058305107 -0.010743282 -0.19618593 -0.302134
타임 -0.050510433 -0.24801219 -0.023632634 -0.24271418 -0.33437783 -0.20761912 -0.3087396 -0.33699614 0.03560238 -0.10182696 0.12520151 -0.34119606 -0.08170814 -0.07650476 -0.05100606 -0.3146256
봐야 -0.05276854 -0.40180874 -0.024206538 -0.1373873 -0.3948181 0.13195582 -0.30694318 -0.37449574 -0.43140098 -0.41212493 0.09977335 -0.15902863 -0.063618965 -0.15659669 -0.22953552 0.18445048
제 -0.07970347 -0.39334014 -0.3399185 0.17410578 -0.39319354 0.069490835 -0.4744607 -0.39851898 -0.42012852 -0.22741215 -0.3518784 -0.29507524 -0.072025225 0.07633672 -0.43299955 -0.039629996
보이 -0.07982777 -0.33936793 -0.28398564 -0.35790813 -0.35071248 0.15872149 -0.3564884 -0.3125275 0.15930848 -0.30296502 -0.038845073 -0.34826952 -0.060886357 0.050521057 0.040451303 -0.2080037
웃기 -0.051859956 -0.3080857 -0.37911022 -0.16694146 -0.20097382 -0.50800806 0.22818607 -0.42649442 -0.47800374 -0.5748077 -0.3944821 -0.2545409 -0.05576861 0.3839423 -0.37230706 -0.501918
막장 -0.053358123 0.18202674 0.195134 -0.41730207 0.27207974 -0.017391153 0.15184815 0.21631832 -0.245259 -0.27065057 0.10649021 -0.4809611 -0.05523867 0.35820115 0.22287875 -0.5109786
삶 -0.05882945 -0.39516702 -0.35528997 -0.02344936 0.052043933 0.13812305 -0.34918118 0.030433312 0.078992024 -0.0096537415 0.042807408 0.34537283 -0.05424841 -0.092546806 -0.4202228 -0.19980879
물 -0.06983996 0.14765699 0.121409945 0.078831546 -0.25355166 -0.3918407 -0.40945473 -0.02120331 -0.30835786 0.054460187 -0.4046436 -0.45796743 -0.06093603 -0.1222508 -0.31955436 -0.440861
친구 -0.05742006 -0.11940865 -0.19535346 -0.36982173 -0.009851731 -0.20777763 0.0039032672 -0.408159 -0.45992467 -0.20453513 -0.14173548 -0.111560196 -0.07806859 0.10120334 -0.1837361 0.07988813
잔잔 -0.056054663 -0.39948294 0.12125436 -0.41655916 0.28676426 -0.5066334 -0.1314454 -0.5531892 -0.53165376 -0.5499103 0.016985955 0.34283 -0.08103701 -0.12604503 -0.4637812 -0.28646627
이제 -0.054234512 0.09733986 0.17533633 -0.40066084 -0.30354387 -0.45264396 -0.501255 -0.3647454 0.15599343 -0.27749252 -0.4165541 -0.4936243 -0.054988615 -0.07782507 -0.016727613 0.16046806
조금 -0.057752952 0.026197623 -0.046659898 0.037884682 0.18578374 -0.2550322 0.27547076 -0.095460236 -0.30733535 0.06022951 -0.43434897 -0.47478032 -0.07779682 -0.12082356 0.19371912 -0.0063993298
억지 -0.072736174 0.24330735 0.09098589 0.23053557 0.17275167 -0.44400156 -0.50247467 0.31028947 -0.0090445 0.057802416 -0.38045296 -0.48202568 -0.07558392 0.03238348 -0.0145078525 -0.45159099
가지 -0.0661335 -0.24503994 -0.2877929 -0.26448134 0.1178856 -0.37312087 -0.28928587 -0.13058832 -0.42745963 -0.2890389 -0.42133185 -0.26429912 -0.058609467 0.026520727 -0.27492142 -0.44071966
ㅠ -0.05914504 -0.3873027 0.11211335 -0.4231566 -0.38000414 0.09614898 -0.012394288 -0.27398095 -0.5848768 -0.5610149 -0.16631147 0.104601964 -0.019283205 -0.091583565 -0.46259984 0.15118487
영상 -0.04961634 -0.39068133 -0.36854705 -0.4105144 -0.39752483 -0.25189096 -0.06415088 -0.5682719 -0.5123512 -0.53246063 -0.22226341 -0.14940399 -0.07264459 0.21059719 -0.24990706 0.06017169
찾 -0.056641135 -0.3216133 -0.34349066 -0.3408017 0.10237488 -0.33075404 -0.34381813 -0.33466095 -0.42136508 -0.41715032 -0.33295926 -0.33672532 -0.055313256 -0.13719952 -0.28528866 0.09942463
라도 0.22453822 0.39326665 -0.043457884 -0.28301015 -0.259714 -0.3768302 0.1760267 -0.3640588 -0.03587656 -0.020048173 -0.13436125 -0.33585405 -0.063945964 -0.1349612 0.04706626 -0.45921227
씬 -0.07268861 0.058119137 -0.3119269 -0.011219498 -0.11499019 -0.15504469 -0.05389578 -0.35432497 -0.28751063 -0.2888258 -0.13047841 -0.15031102 -0.08156172 -0.09200394 -0.3542462 0.15259698
딱 -0.05547044 0.19217166 -0.23575646 0.30618197 -0.2334535 -0.3524684 0.05214208 -0.061403833 -0.42740828 -0.28067183 -0.19713172 0.10601604 -0.05816916 0.029655667 0.19487645 0.009669032
요즘 -0.080723904 -0.39029777 -0.358699 -0.051056784 -0.3707031 0.22229995 -0.1118677 0.0717768 -0.442364 -0.046524655 -0.25200015 0.230247 -0.06608097 0.053266443 -0.4147368 -0.3765384
같이 -0.056920514 0.15222955 -0.30302957 -0.0007320561 -0.18205373 0.0053504393 -0.4438955 0.18373957 -0.41882756 -0.15105642 -0.33699784 0.18403064 -0.059336647 -0.11404923 0.06535105 -0.3842399
스릴러 -0.069372535 -0.10846101 -0.24691826 -0.41357023 0.23214515 -0.51878756 -0.5110789 -0.50372213 -0.56116724 -0.5644973 0.1565669 -0.41650054 -0.06287528 0.05763084 0.006474983 -0.4819102
믿 -0.0727438 -0.14132524 -0.33995387 0.18696652 0.074771166 -0.33738828 0.14406429 -0.015073698 -0.44253436 -0.44040957 0.0007212524 -0.20522268 -0.07948122 -0.17640077 -0.33543542 0.20794101
싫 0.27828214 0.22612788 -0.35245705 0.13421005 -0.036843393 0.08867121 -0.52173716 0.028124986 0.14864387 0.19690366 -0.37928066 0.12143506 -0.05829809 0.20312436 0.044861544 -0.5142608
나왔 0.3611431 -0.06739408 -0.334385 -0.4147551 -0.21820684 -0.42842552 -0.37034938 -0.36423257 -0.38450095 -0.023301402 0.112216935 -0.37104464 -0.05752901 0.17250587 0.12349797 -0.438095
아까운 -0.06723013 0.084709905 -0.33771336 0.122293085 -0.3907377 0.052204978 -0.509884 0.11524269 -0.09024693 -0.1429309 -0.41093507 -0.44948128 -0.060046718 0.4896768 -0.13439675 -0.4847494
중간 -0.07123902 0.11880657 -0.08733709 0.14330603 -0.253108 -0.39192826 -0.48579308 0.1107839 -0.32930157 0.08731216 -0.36802226 -0.3731908 -0.059765443 0.13177943 -0.22732963 -0.39787698
긴장감 -0.07768806 -0.23347819 -0.3572845 -0.43463123 -0.3954938 0.14546865 -0.45308545 -0.50481576 -0.22296818 -0.42031837 -0.38255098 -0.47094467 -0.05596793 -0.1302807 -0.07351798 0.051496103
어떻게 -0.05399203 -0.23859823 -0.13597101 0.03214043 -0.09314555 -0.40897673 -0.45200005 -0.31317705 -0.049528025 -0.08409256 -0.41042715 -0.45614636 -0.08146784 -0.11469608 -0.08399057 0.11423336
개인 -0.017540311 -0.14636125 -0.23966846 -0.41069493 -0.23621002 -0.37987176 -0.34641978 -0.19524667 -0.38782573 0.024676576 -0.2619064 -0.028289126 -0.06908981 -0.054952446 0.12383068 -0.31268775
제대로 -0.05842424 -0.24273476 -0.12289127 -0.31403893 -0.21243083 -0.25581294 -0.33594444 -0.13553971 -0.14378698 -0.26055112 -0.19956729 -0.46966857 -0.08308291 -0.0149402525 -0.20175673 0.07648487
점수 -0.06556793 -0.3187199 0.06398625 -0.18230635 0.18059953 -0.46564013 -0.5127803 0.09812902 0.113963544 -0.45605475 -0.40903237 -0.4740723 -0.07709066 -0.1410236 -0.2584307 -0.4160552
부족 -0.08082718 -0.23292665 0.2786691 0.01889767 0.0151249785 -0.09080744 -0.063512094 -0.33543992 0.07336017 0.18447417 -0.071299985 0.025691254 -0.073451236 -0.15949298 -0.17976534 -0.17011674
이유 -0.05102986 -0.17120026 -0.16312802 -0.40815842 -0.3647105 -0.37622473 -0.35501274 0.06441531 0.19747993 -0.026643962 0.17974184 -0.46088168 -0.06577442 0.12526807 -0.30006945 -0.018849123
노래 -0.08253827 -0.0907812 -0.268731 0.07332498 -0.016484361 0.1306678 -0.08989809 0.11812323 -0.54723155 -0.47157905 -0.20775068 -0.17223077 -0.076744035 -0.07437992 -0.17610621 -0.12831978
만큼 -0.07390246 -0.33001783 -0.31146166 -0.34496137 -0.20007546 0.18695651 -0.19141343 -0.3010587 -0.23317184 -0.3242146 0.13770019 -0.013166507 -0.06323593 0.09207073 -0.01627698 -0.464255
ㅜㅜ -0.06781395 0.15680051 -0.12508483 -0.25581965 0.09630011 -0.095259674 -0.247836 -0.2910735 -0.27792028 0.16706508 0.25829002 -0.051102005 -0.05706915 -0.115343206 -0.10385887 -0.1395975
라면 -0.052789517 -0.14403886 -0.3585939 0.057090063 -0.36419633 -0.4623348 -0.44178957 -0.30701777 -0.40430245 -0.051614907 -0.2650926 -0.36155108 -0.06259273 -0.17659384 -0.3366874 -0.37447953
시작 -0.07126121 -0.37880084 -0.36812994 -0.41636276 -0.37320626 -0.22847095 0.016931701 -0.551111 -0.5774907 -0.555262 -0.12151349 -0.37565973 -0.07276125 -0.15121943 -0.57079554 -0.101344116
잇 -0.055053372 -0.39367187 -0.16746503 -0.4239985 -0.41349518 0.2091506 -0.10042354 -0.4246385 -0.46806064 -0.44570345 -0.36894816 -0.115707725 -0.07102896 -0.1580299 -0.4307822 -0.42659032
구나 -0.068632305 -0.3626008 -0.35341752 0.23494847 -0.07036578 -0.43648696 -0.1561613 -0.56106496 0.099252366 0.07264537 -0.26114315 -0.18560165 -0.069118544 -0.08236241 -0.40789562 0.16362242
한테 -0.077038474 -0.2669188 -0.14891553 -0.2367867 0.08308595 -0.3728635 -0.33266315 -0.12562102 0.14681676 -0.4124268 0.022233607 -0.3355479 -0.07196218 -0.105498284 0.19475153 -0.3181614
특히 -0.057831313 -0.27674708 -0.3450874 -0.39074895 -0.31668738 -0.064207256 0.031956382 -0.3478922 -0.41150966 -0.2923723 0.32609293 0.021853913 -0.061009537 -0.11792844 -0.29032293 -0.23522314
려고 0.26728565 0.42484528 -0.1310833 0.10126158 -0.016789084 0.22765744 -0.13214307 -0.17058158 -0.033462837 0.18699196 -0.16072226 -0.31083357 -0.05526387 -0.11540801 0.175907 0.02951599
날 -0.06311563 -0.20581518 -0.058359202 0.09329865 0.13846827 -0.39653468 -0.42363828 -0.3451994 -0.16174555 -0.37552252 -0.34518737 -0.35778993 -0.06254957 -0.15472001 -0.4250041 -0.046202447
제일 -0.069490105 -0.04431046 -0.038416624 -0.40200707 -0.3835714 -0.26312092 -0.20191614 0.12946913 -0.38777325 -0.41527134 0.0653606 0.16400117 -0.0653743 0.07269094 -0.12130717 -0.48248982
아름다운 -0.06550948 -0.38294125 -0.355162 -0.4102656 -0.39950913 -0.088181086 0.11536164 -0.5618314 -0.5721814 -0.5307914 -0.18599539 -0.0684293 -0.03214802 -0.110833526 -0.36141703 0.315345
시대 -0.08058609 -0.23528089 -0.3407935 0.081714995 0.12325375 -0.062409364 -0.33266237 -0.44898838 -0.4449774 -0.49042597 0.01635575 0.17534861 -0.06822337 -0.17473623 -0.41424865 -0.38398638
니까 -0.08347844 0.1237139 -0.3619888 -0.23185134 -0.31975347 -0.0141688455 -0.31754825 -0.049641334 -0.50855476 -0.47585392 -0.14871076 0.13678135 -0.057522967 -0.041637126 -0.4757631 -0.2753348
엔딩 -0.058634125 0.23773472 -0.27984774 -0.14969088 -0.26518765 -0.48488563 -0.5178542 -0.09322425 -0.3686794 0.042569917 0.16031806 -0.09307925 -0.06024828 -0.17155148 0.0005650263 -0.50361097
당시 -0.06291784 -0.35703078 0.1965468 -0.41760528 -0.33100066 -0.29943538 -0.29754525 -0.36262348 -0.3607809 -0.40004656 -0.25148892 -0.08421632 -0.06774292 -0.14254107 -0.24437194 0.2836867
나름 -0.08199008 -0.009232635 -0.3737068 -0.3096257 -0.40162477 0.025323901 -0.11771905 0.20424195 -0.5384838 -0.56596017 0.28167734 -0.4808144 -0.06761487 -0.11661918 0.26835138 -0.004985736
무섭 0.4502795 0.123753466 -0.31210393 -0.33002543 0.1286908 -0.5080875 0.25880525 -0.2772666 0.2180992 -0.3850409 -0.053107563 -0.13685353 -0.07169747 -0.10602813 -0.21340716 -0.106720656
오랜만 -0.054679275 -0.40330222 -0.3670402 -0.41998506 -0.3799129 0.05612034 -0.2237246 -0.42779374 -0.47913373 -0.50268763 0.109525286 0.016863432 -0.050507676 -0.153783 0.11659736 0.04938156
나온 -0.073053256 -0.0635471 -0.30125424 0.05525468 -0.25796175 -0.399385 -0.44807273 0.15083346 -0.17553835 -0.24266237 -0.3732298 -0.37100354 -0.06396709 -0.026003495 -0.2346043 0.04668127
이것 -0.022892356 -0.3071563 -0.23428892 -0.3569183 -0.16559997 -0.25288862 -0.2497499 -0.33629727 -0.23376228 -0.011544632 -0.23349404 -0.28147602 -0.06747232 -0.12524143 -0.009515848 -0.34919947
봐 -0.058804467 0.1968198 -0.31177586 -0.41184774 0.057380605 -0.20195846 0.13065635 0.2538745 -0.60875684 -0.06705658 -0.0056028757 0.12645714 -0.056219906 -0.09961455 -0.25058115 -0.043230128
팬 -0.05619068 0.24277724 -0.36852232 -0.41186884 -0.37494054 -0.21833262 0.04864382 -0.3789943 -0.33897185 -0.3425465 -0.1188953 0.065448575 -0.071444914 -0.03351591 -0.40904415 -0.16652825
해요 -0.075049125 -0.40157738 -0.2100108 -0.39780444 -0.35384256 -0.19107565 -0.5184782 -0.5091881 -0.52563155 -0.5420762 0.18098442 0.09458332 -0.054908115 -0.16475691 -0.43124074 -0.21914665
사 -0.06270738 -0.275785 -0.3040761 -0.3599665 -0.21211341 0.086138055 -0.29268304 -0.33818635 -0.33174035 -0.27579546 0.06799542 -0.12572037 -0.0661297 -0.1418102 -0.2574245 0.16727838
차라리 -0.05827556 0.08476381 0.34313425 0.0500876 0.39601597 -0.38445505 -0.36630172 0.2602394 0.1153877 0.19945632 -0.35278982 -0.3289876 -0.057336926 -0.06652221 0.011672799 -0.33913562
절대 -0.06781681 0.14927265 -0.32545358 -0.2517827 -0.4049365 -0.34078312 -0.15601175 0.27681777 -0.26961794 -0.25581887 -0.37255773 -0.40357152 -0.07919708 -0.14626954 -0.4261017 0.16764745
세상 -0.07960671 -0.049355768 -0.27677864 -0.24504751 0.22110273 -0.53061974 -0.14517474 -0.23102498 -0.19837765 -0.2765656 -0.41488335 -0.2801587 -0.08198371 -0.10679251 -0.17847405 0.24910718
못하 -0.076967165 -0.025733706 0.13748117 0.1974736 -0.10147406 -0.37492904 -0.37190107 0.069652386 0.108871765 0.0534475 -0.31343108 -0.2594434 -0.07922878 -0.13500388 -0.018158685 -0.018696183
감 -0.0759099 -0.34511232 -0.057185 -0.35171533 0.059656546 0.20360094 -0.44777915 -0.11334178 -0.29087225 -0.0852218 0.030623637 -0.23031192 -0.057632927 0.0023789848 0.1509222 -0.30818427
의미 -0.05176634 -0.37709984 0.026705042 -0.011113865 -0.27148724 -0.23106493 -0.49685618 -0.3959026 -0.017438801 -0.41246417 -0.42245606 -0.15120533 -0.06747811 -0.016210122 0.13064475 -0.07834477
봄 -0.054186314 -0.3955321 -0.36890736 -0.40413398 -0.37053463 -0.21545972 -0.19418658 0.2073349 -0.58622 -0.26452687 0.14289632 -0.2858375 -0.04870196 0.0028073518 0.14387338 -0.14986563
훌륭 -0.061490487 -0.18127078 -0.34178597 -0.41390607 -0.368792 0.18333276 0.027613765 -0.051837508 -0.14720982 -0.1594621 0.3530347 -0.32772952 -0.06930742 0.0135062905 -0.26903483 -0.10515359
욕 -0.06674446 0.21440816 0.12709197 -0.007173996 -0.05635799 -0.47998232 -0.09896384 0.04735274 -0.18239821 0.27725682 -0.37607327 -0.4428224 -0.07850781 -0.15547644 -0.19192716 0.100508556
너무나 -0.05619425 -0.02853888 -0.18531267 -0.42080525 -0.0059935474 -0.4038893 -0.49064097 -0.49262643 0.03207206 -0.49961317 -0.4184631 -0.14261818 -0.073967695 -0.008984947 -0.5490354 -0.51077986
강추 -0.18572414 -0.16404548 -0.09334389 -0.065292165 -0.18157431 0.21837907 0.07300256 0.03532025 -0.056405455 -0.11325918 -0.3860561 0.30030435 0.1698654 -0.16604519 -0.13182975 0.12003904
드 -0.05700194 -0.23402461 0.18648209 -0.37430808 -0.3230616 0.12777531 -0.20511809 0.09370873 -0.410842 -0.32572833 -0.32803228 -0.044564866 -0.05784472 -0.12249088 -0.2874388 -0.34594646
따뜻 -0.05478572 -0.4048192 -0.07047574 0.09159437 0.03489532 0.18832621 -0.27369493 0.045735933 0.04168306 -0.044524863 -0.40517154 0.2326428 -0.054836214 -0.16537064 0.19491108 0.29093295
됨 -0.055787146 -0.3941822 -0.30265617 -0.3341852 -0.34755072 -0.14421812 0.18926157 -0.3383669 -0.44715905 -0.1111522 -0.4088094 -0.44153583 -0.07694162 -0.04395988 -0.13972203 -0.46051508
빼 -0.048753195 -0.3812668 0.28982323 -0.38608244 0.06963753 -0.44997218 -0.33930176 -0.27213615 -0.32043853 -0.24256958 -0.3678579 -0.4078574 -0.076140806 -0.0019016673 0.017266605 -0.4272339
느끼 -0.056889664 -0.17713462 -0.08100786 -0.41790277 -0.12691237 -0.36886373 0.27689618 -0.3695109 -0.41024658 0.26325136 0.06763171 -0.088909045 -0.06813228 -0.14782639 -0.016472645 -0.23113854
해야 -0.08275168 -0.33172864 -0.30239838 -0.34485018 -0.21287137 -0.37077552 -0.29802474 -0.03344365 -0.2880671 -0.31641805 0.068713956 -0.39650193 -0.055772994 -0.1555329 -0.35934126 -0.020981641
명 0.16997398 0.13586931 -0.2938134 -0.38119677 -0.3846809 -0.13195166 -0.02764237 -0.059828106 -0.14576872 -0.42145294 -0.17764844 0.044677753 -0.07208637 -0.082779884 -0.025574293 -0.48075008
글 0.072603375 0.065617785 0.20952368 -0.15965655 -0.22225897 -0.4368323 -0.3448679 0.09888796 -0.041132577 -0.08898905 -0.34554812 -0.32094643 -0.07526183 0.16405581 -0.087295644 -0.28808966
던데 -0.050721522 -0.3931683 -0.37327766 -0.4159275 -0.39599574 -0.043831937 -0.38950527 -0.58265007 -0.59084797 -0.5939175 0.15032281 -0.31280494 -0.06973205 -0.117069066 0.06466195 -0.15156078
뻔 -0.053642396 -0.25465462 0.27304968 -0.2672474 -0.34530097 0.03913871 -0.01489092 -0.098641984 0.046721447 0.20010598 -0.39911783 -0.46000907 -0.05535939 -0.07102135 0.05320919 -0.50070685
도대체 0.51112634 0.093397945 0.17322765 0.033953078 -0.21788022 -0.3956402 -0.52387315 -0.2699571 -0.23984012 0.08170094 -0.39628607 -0.47300848 -0.07353427 -0.14604674 0.33404827 -0.5080979
어야 -0.0536007 -0.012590494 -0.07891286 0.3253851 0.106409036 0.12324418 -0.33910728 -0.13109146 -0.15068543 0.12106481 -0.28256428 -0.34765625 -0.08138824 -0.12015703 0.03345801 -0.3776295
마다 -0.06498421 -0.22606073 -0.14910859 -0.32424477 -0.17790358 -0.059322122 -0.043735843 -0.40058458 -0.40926316 -0.40509674 0.17210855 0.12068893 -0.057284232 -0.12515229 -0.36747256 0.037717823
답답 -0.06935158 0.17089246 -0.026066389 0.24632062 -0.12731904 -0.43655232 -0.49702966 -0.07748115 -0.09268444 -0.10616107 -0.42358097 -0.47398105 -0.07479508 0.3091997 -0.039569765 -0.51036996
전쟁 -0.07777029 -0.37620646 -0.10776297 -0.13934441 -0.19890504 0.1890689 0.087262996 -0.1867547 -0.15060832 0.24676733 -0.34655192 -0.3446067 -0.05629857 -0.12527269 -0.3472464 -0.09459782
놈 -0.059525486 0.13640386 0.12617826 0.10259871 -0.1503586 0.28923413 -0.38477194 0.16723256 -0.040813 0.25670776 -0.34315172 0.09587066 -0.07572885 -0.14805901 0.102147505 -0.44517204
무엇 -0.058625992 -0.31576797 -0.3537047 -0.38575727 -0.35467455 -0.38786963 -0.018815009 -0.3182431 -0.039841212 -0.06759915 -0.101113535 -0.31681836 -0.0723664 -0.17186938 -0.24539779 0.028544655
설정 -0.06593191 0.112106025 0.09892265 -0.11017498 0.11756901 0.030964654 -0.15668191 -0.27169302 -0.31605673 -0.14587067 0.1332235 -0.4473899 -0.05841509 0.3133467 0.19536412 -0.4304864
흥미 -0.06512317 0.013447062 -0.3314568 -0.41533569 -0.32533708 -0.39774802 -0.42207083 -0.40926957 -0.44827053 -0.43689469 -0.3801232 0.15322903 -0.06150215 -0.08359046 -0.32278973 -0.043038085
만화 -0.057232823 -0.31179312 -0.11649436 -0.0652796 0.124298364 -0.12983173 -0.53128064 0.09890627 -0.5117742 -0.37038484 -0.11132528 -0.19213648 -0.04864342 -0.12662113 0.22355497 -0.505234
그저 -0.06560467 0.22216052 -0.14052162 -0.36794785 0.115230374 0.15139398 -0.5352834 0.15214118 -0.06672421 -0.039822444 -0.44109765 -0.4820366 -0.050391443 0.043221 0.11008953 0.016411383
감정 -0.07723455 -0.368036 -0.30555147 -0.36978522 -0.36341888 0.23010343 -0.28327006 -0.35615012 -0.3271453 -0.27642316 -0.087917216 -0.30617785 -0.07644843 -0.15208358 -0.30021665 -0.37901467
준다 -0.05446104 0.19552034 -0.3323274 -0.24106516 -0.38653842 -0.24260119 -0.30231863 -0.37034267 -0.15768494 -0.43416923 -0.105442524 -0.36706695 -0.057214577 0.09901959 -0.058863223 -0.0003788056
수작 -0.07958947 -0.39716932 -0.37221095 -0.4100042 -0.39889395 -0.13042632 -0.03961167 -0.5205576 0.20487723 -0.5228456 0.1422953 0.34353536 -0.06909963 -0.16871785 -0.4614141 0.3487887
행복 -0.060588945 -0.19985718 -0.017373743 -0.17977355 0.2445389 0.00017029574 -0.06676401 -0.392583 -0.447401 -0.06654258 -0.05814531 0.3849551 -0.0695932 -0.17171809 -0.42458797 -0.51245445
신선 -0.072575934 -0.41134083 -0.36387202 -0.40490624 -0.29765823 -0.13287121 0.31456152 -0.41924855 -0.14387543 -0.11378333 0.009015394 -0.32686415 -0.052918043 -0.17229903 -0.04933697 -0.27110618
미국 -0.047021266 -0.072494015 -0.34896618 0.13506442 -0.36682275 0.090940185 0.27322206 0.11522342 -0.10127701 0.047059186 -0.005699704 -0.47464588 -0.07343738 -0.015607296 0.15973078 -0.45151544
앞 -0.07947923 -0.28603035 -0.28385648 -0.35745886 0.03838406 0.13742405 -0.08298958 -0.27841586 -0.41101512 -0.3098003 -0.007749209 -0.0749651 -0.05627571 -0.060215652 -0.09762881 0.054911632
허접 0.01422063 0.12599342 -0.14791605 0.21567653 -0.019227574 -0.4461422 -0.48917568 0.0556817 0.41766265 0.38095707 -0.36832157 -0.4554896 -0.06301796 0.048908267 0.20632833 -0.4773373
형 -0.06605735 0.23418199 -0.3658451 -0.32409674 -0.018195102 -0.081416234 -0.10319175 0.27354836 -0.20202303 0.22550696 0.067538194 0.35753298 -0.0569627 -0.12331454 -0.434686 -0.2821905
세 -0.06063575 -0.10894234 0.109195724 -0.03553434 -0.12203524 0.016014194 0.14884089 -0.04501018 0.000671853 -0.13633376 -0.42014092 -0.47363433 -0.06386805 -0.11150385 0.08988419 -0.11363305
시절 -0.07281949 -0.3721763 -0.32318383 -0.3896415 -0.36587512 0.06356935 -0.119215146 -0.38542417 -0.3428884 -0.37091085 0.18452212 -0.18811332 -0.045175444 -0.112573914 -0.3544932 -0.3540534
관객 -0.079861365 0.074961774 0.29676133 -0.042025555 0.14671196 -0.44428647 -0.36046487 0.26859686 0.06418068 -0.25596136 -0.33977953 -0.331191 -0.07764298 -0.059500173 -0.071811296 -0.33321083
사실 -0.0530863 -0.3605499 -0.34253612 -0.37518588 -0.33414483 -0.045213204 0.11642213 -0.07302234 -0.39703372 -0.400411 0.21956463 0.043634534 -0.081633605 -0.16543888 -0.30903 -0.19652973
배경 -0.08279759 0.15680826 -0.26139963 -0.4210722 -0.079627864 -0.38076803 -0.37731016 0.13173303 -0.2079455 0.20793432 0.24691351 -0.30017993 0.23571162 -0.001481714 0.06491855 -0.4245224
어도 -0.05539966 -0.22492611 -0.29477793 -0.10324565 0.113920785 -0.34272608 -0.27583656 0.013286821 0.12450098 0.07704249 -0.07863154 -0.3047668 -0.07916085 -0.14933455 -0.22288448 -0.3332386
답 -0.07067483 -0.1891401 -0.28239122 -0.2914204 -0.1700224 -0.4894688 -0.5057022 -0.13588983 -0.18468314 -0.29222447 0.030509124 -0.49427098 -0.08211581 -0.030326007 -0.09422512 -0.5093215
초반 -0.082011856 0.008045417 0.15852368 -0.1581561 -0.015148371 -0.3906108 -0.3635552 0.0974687 -0.0796246 0.19703332 -0.37616944 -0.36332238 -0.056286596 -0.14735302 0.116271496 -0.42759946
웃음 -0.082102194 -0.37603298 -0.07523092 -0.2091448 0.08602028 -0.14238778 0.0018174754 -0.4722452 -0.4545806 0.06864447 -0.39631286 -0.439728 -0.060790487 0.0636306 -0.3777367 -0.0025208988
엄청 -0.080098696 0.036799885 -0.37071395 -0.13059883 -0.3823315 0.21441145 0.029038204 -0.16340722 -0.5976041 -0.45686263 -0.24897054 -0.3324754 -0.06651599 -0.1477171 -0.5505758 -0.38272026
자신 -0.08093896 -0.25176528 0.044133343 -0.29297662 -0.23492418 -0.36113188 -0.17339756 -0.31413412 -0.3482018 -0.27297994 -0.06632696 -0.29693547 -0.06396407 -0.12770054 -0.26976922 -0.28168195
더라 0.34921387 -0.41483206 -0.38986325 0.15314268 0.19594344 -0.11186881 -0.51489127 -0.19667056 0.08719858 -0.52432644 -0.0130241895 -0.43940377 0.25729984 -0.112336 0.18625644 -0.4315582
추억 -0.049960855 -0.38193974 -0.3498041 -0.40423122 -0.38321555 -0.030868867 0.20731731 -0.56036574 -0.532051 -0.17956156 -0.14951658 -0.18919252 -0.07024841 -0.11475469 -0.4619527 -0.271733
군 -0.059503525 0.22714151 -0.0007688104 0.12922788 -0.10693295 -0.46008548 -0.19486634 -0.57607037 -0.5898229 -0.5891183 0.0040471344 -0.17023435 -0.06063921 -0.16726369 -0.5599678 -0.16246818
질 -0.06673539 0.095852345 0.17867798 -0.042486493 -0.10176516 -0.47350594 -0.45394412 0.13372879 -0.058836214 0.05526082 -0.34947753 -0.096361354 -0.078417 -0.12322371 0.0006854871 0.017615434
캐스팅 -0.0754155 0.25807458 -0.23726973 -0.07744534 -0.19134742 0.061585687 -0.014250335 -0.1330969 -0.51817685 -0.00050436315 0.054751735 0.024524076 -0.057510816 -0.107337065 0.29690212 -0.08899858
멋있 -0.07174699 -0.21978988 -0.3819244 -0.41577092 -0.047478564 0.168528 -0.28386214 -0.50349605 -0.5847199 0.109416045 0.23003249 0.09688481 -0.078248575 -0.16354053 -0.19994745 -0.22705333
라니 -0.06400664 0.17267478 -0.34831813 -0.11925449 -0.080841504 -0.4148029 -0.080759406 -0.12369793 0.10803452 0.15418741 0.019094333 -0.030575939 -0.078490295 -0.14108261 -0.45614997 0.18486632
시나리오 -0.07989328 -0.11936984 -0.3414345 0.040242445 0.17141742 -0.42886215 -0.4773181 -0.027888726 0.32245526 -0.09725937 -0.37023178 0.13042411 -0.062263202 -0.047553234 -0.2870368 -0.48531193
정신 0.3642637 -0.046415508 -0.09855717 -0.18587275 0.12954062 -0.44159815 -0.4870041 0.3717178 -0.26686338 0.11906707 -0.37168863 -0.40677842 -0.074694924 -0.11636113 -0.2007193 -0.39298388
어색 -0.05343129 -0.11007352 -0.10991346 -0.06109299 0.23977977 -0.41087776 -0.46795392 -0.16786431 0.4702291 0.067965224 -0.39859477 -0.4360286 -0.0711683 -0.05587294 0.22150528 -0.47620252
첨 -0.07440599 -0.24326552 -0.20746557 0.046289247 0.18839982 -0.4305983 -0.08887215 -0.3582618 -0.26505244 -0.08654051 -0.3648814 -0.24304333 -0.0772719 0.10095932 0.16042924 -0.3809012
머 -0.050884012 -0.19271451 -0.34886086 0.14691322 0.24623464 -0.5213862 -0.44674832 -0.12027487 -0.26832503 -0.15050083 -0.40890035 -0.4563098 -0.05738979 -0.09554354 -0.31247583 -0.003899279
슬프 -0.07007211 -0.0033978487 -0.19715524 -0.2538077 -0.029546777 -0.32109824 -0.50756353 -0.56637365 -0.5910679 -0.5692474 0.3749937 0.10956377 -0.056990318 -0.04709097 -0.12201755 -0.5158262
밖에 -0.079650246 -0.28899562 0.2244938 -0.3852193 0.102827 0.13558598 0.015860165 0.043266077 -0.42835048 0.36937538 -0.10800774 0.16983187 -0.06155677 -0.14508078 -0.28759223 -0.009425094
분위기 -0.068168476 -0.23653118 -0.38156435 -0.4122506 -0.40695712 0.062063795 -0.17950425 -0.46042 -0.37131172 -0.5288979 -0.12079547 -0.16314648 -0.07138164 0.02244204 -0.45386973 -0.012397457
소름 -0.05182001 -0.3965384 -0.35477236 -0.41465068 -0.39177352 -0.27388382 0.21874379 -0.5676106 -0.57980525 -0.46511382 -0.22014461 -0.054074824 -0.056499973 -0.120851256 -0.5198846 0.26233345
멋진 -0.07633954 -0.17327231 -0.35981762 -0.42156088 -0.34366253 0.10787957 -0.25000823 -0.4888084 -0.15821153 -0.18305871 0.036992066 0.33097774 -0.055720933 0.019929707 -0.41443887 -0.22916615
힘들 -0.051918413 0.043915857 -0.0007519752 -0.41040367 0.19563489 -0.10334072 -0.15614574 0.021069523 0.028790938 -0.11865695 -0.3911952 -0.4276993 -0.052002776 0.2361693 -0.0046813088 -0.48540944
오늘 -0.06122265 -0.28616336 -0.14071973 -0.34957686 -0.32997906 0.112238295 -0.37683776 0.23933254 -0.39889434 -0.34738725 0.047912423 -0.3693405 -0.056530137 -0.1548258 -0.39221042 0.20486537
어이없 -0.078728914 0.45130008 0.1141826 -0.008071259 0.12620509 -0.4594288 -0.49039164 -0.056005508 -0.15638976 0.096425526 -0.3811109 -0.43527427 -0.07356734 0.22388995 0.23660044 -0.48450053
봐서 0.23243399 -0.31500208 -0.36294678 -0.38063526 -0.085382715 -0.2503453 -0.045505792 -0.38284355 -0.28665248 -0.30952403 -0.051473703 -0.24005441 -0.06901162 -0.17418832 -0.39131263 -0.36524513
간 -0.07217214 -0.13111386 -0.05761266 -0.365695 -0.32747912 0.011590468 -0.4228323 -0.34556803 -0.36907083 -0.30208805 -0.35543662 -0.17394139 -0.054179337 -0.056922816 -0.29608768 -0.39197865
집 -0.058874823 0.06857254 0.07262548 -0.3451661 -0.3711657 -0.3234785 -0.37675944 -0.26541248 -0.49252877 -0.46307042 -0.37260067 -0.080792256 -0.060382873 -0.14058313 0.026670972 -0.47448632
구성 -0.0752444 -0.363151 -0.16555624 -0.048618313 -0.3695367 -0.42044896 -0.4808231 -0.3833518 -0.094688125 -0.32851076 -0.40183526 0.09529291 -0.066307746 -0.033732533 -0.37892047 -0.49717003
잡 0.05231462 -0.33941942 -0.16941184 -0.41423312 0.07766171 -0.4017495 -0.13887264 -0.42204458 -0.29952496 0.046871513 -0.19596815 -0.34255373 -0.053118765 0.1644072 -0.30340737 -0.36516777
엄마 -0.06651386 -0.2185494 -0.136276 -0.39238518 -0.13496067 -0.1819438 -0.23102356 -0.35081902 -0.38755566 -0.16783707 0.14560637 -0.2473022 -0.06701219 -0.09095098 -0.20079806 -0.33012453
함께 -0.07954731 -0.32182455 -0.11240849 -0.3734678 -0.09274606 -0.29972717 0.22794949 -0.3875017 -0.4440597 -0.37450433 -0.099934794 0.085049644 -0.07069211 -0.16380705 -0.08630088 0.14972518
위해 -0.081627026 -0.39559427 -0.35352567 0.031697065 -0.39031777 -0.03675007 0.1020167 -0.44484282 -0.42852303 0.28741008 -0.24282566 0.0565472 -0.067197174 -0.16378069 0.026668692 0.045503873
잊 -0.058147058 -0.008808157 -0.34553963 -0.41264206 -0.069755025 0.06002095 0.19022614 -0.04256085 0.05422505 -0.3550433 -0.341278 0.2956309 -0.052661046 -0.16257843 -0.26194364 -0.32413137
졸작 -0.04022148 0.22427513 0.32833755 0.15922755 0.17835867 -0.41471758 -0.030299796 0.18221988 0.2461275 0.20061731 -0.39821795 -0.4717728 -0.04002994 -0.090713166 0.18445906 -0.48082086
류 -0.06844568 -0.3627116 0.22202957 -0.4108877 0.3396365 -0.4437516 -0.4957647 -0.33127078 -0.33055246 -0.06908429 -0.41215426 -0.48015577 -0.06265615 -0.14111434 0.1863505 -0.5235754
이딴 -0.058143526 0.15407766 0.33937046 0.3093532 -0.20433861 -0.4533537 -0.4848914 -0.10586371 0.14213583 0.21426632 0.1107125 -0.48225155 -0.069158815 -0.12446372 0.33191118 -0.50147027
문제 -0.057355206 0.22495578 0.019437544 0.30664328 0.04325306 -0.120486915 -0.09133645 -0.17560656 0.23779954 0.040552437 -0.12325522 0.2789233 -0.059442814 -0.09312243 0.05752412 -0.14236996
등 -0.059643682 -0.39427474 -0.35410732 -0.421266 -0.40247175 0.19611004 -0.11475637 -0.56704384 -0.60483 -0.5545592 -0.29565704 -0.33124736 -0.06735297 -0.16201822 0.2130233 0.10187496
유쾌 -0.061343215 -0.39679402 -0.34106386 -0.40678835 -0.38502723 0.037085034 -0.109748304 -0.5434718 -0.52779084 -0.50694364 -0.04474021 0.35491347 -0.043743443 -0.08637062 -0.46987906 -0.28513297
킬링 -0.07278927 0.25142008 -0.022900263 -0.15760194 -0.346195 -0.26112786 -0.11720183 -0.29855123 -0.2616954 -0.010877074 -0.29840824 -0.06430757 -0.07086841 -0.11944024 0.15107413 -0.3225365
스러운 -0.0625331 -0.38220173 -0.36757395 -0.36396876 -0.3201444 0.100211695 -0.5089503 -0.54325306 -0.5377248 -0.42256296 -0.38027975 -0.47137326 -0.059599478 -0.09459005 -0.35698855 0.037111055
결국 -0.07282629 -0.04577712 -0.27670518 0.101374865 -0.33314055 -0.3614244 0.011878049 0.1155583 0.008316101 0.01988344 -0.33286557 -0.4048525 -0.08100208 0.003287075 -0.34321392 -0.39950383
소리 -0.06359967 -0.33752966 -0.23100543 0.06790652 -0.024295524 -0.37608266 -0.41573393 -0.36198977 -0.24068885 0.080674514 -0.30576053 -0.35789555 -0.083916605 0.23687457 0.19758388 -0.4103461
낫 -0.04923079 0.07800567 0.2211731 0.2346809 0.1767042 -0.3181462 0.1868381 -0.0711439 0.3162433 -0.3571048 0.3350706 0.16623212 -0.05164538 0.13117866 -0.40061122 -0.48318106
뭘 -0.049470715 0.23471765 0.29506207 0.04094207 -0.00749392 0.1674706 -0.44031134 0.0038837146 -0.4614007 -0.27192667 0.13078247 -0.39498362 -0.077585615 0.09132853 -0.090656415 -0.5105851
뭔 0.35498872 0.3541349 0.19943227 0.086386934 0.044725783 -0.4055807 -0.51165754 -0.075752616 0.15607378 0.33137646 0.24992368 -0.49409586 -0.05990353 -0.06425224 -0.0025721414 -0.5112977
한데 -0.05458312 -0.3849117 0.17875859 0.02939996 -0.30511972 -0.36791646 -0.39221612 -0.16187306 -0.2307971 0.044451848 -0.35170025 0.19007874 -0.05532992 0.09397964 -0.1488379 -0.4752226
역사 -0.07333655 -0.35805014 -0.3258199 -0.4100554 -0.06080331 0.16636418 -0.034992527 -0.3229452 -0.33655968 -0.35472578 -0.32864463 -0.12907499 -0.051499896 -0.041770414 -0.33995652 -0.28126502
제발 -0.057387907 0.06694754 0.09911991 -0.21584055 0.013036579 0.095953114 -0.01606795 0.26925159 0.05238925 0.07206317 -0.43391082 0.07475826 -0.075994916 -0.120662354 -0.2063517 -0.5243682
포스터 -0.077491045 -0.06900775 -0.07573002 0.23137422 0.11462795 -0.37451354 0.22663993 -0.23915987 -0.0006995348 0.006980676 0.087019086 -0.21182986 -0.055708237 0.0697399 0.34076163 0.10705189
아무리 0.37501752 -0.3769482 0.15252635 -0.38463795 0.40083498 -0.36461246 0.055609245 -0.008146469 0.046535574 -0.1229548 -0.020112386 -0.29922098 -0.061240643 -0.13309394 -0.39690888 -0.36893904
코믹 -0.0629519 -0.2655142 -0.26484185 -0.0022831021 -0.10684334 -0.48050398 -0.18686487 -0.23984261 -0.17749655 -0.21368547 -0.16848966 -0.114867 -0.070912145 -0.008475349 -0.12846385 -0.28342858
어떤 -0.07156883 -0.30029878 -0.302792 -0.34577402 0.08197842 -0.3379828 -0.20411573 -0.10089134 -0.34742096 0.046330355 -0.38140285 -0.44720173 -0.073181756 -0.108870134 -0.259798 0.21495473
얼마나 -0.0808342 -0.33594668 -0.34440538 -0.3755248 -0.18696061 -0.1034264 -0.31747448 -0.41625717 -0.118763134 -0.36101654 0.13872221 0.040915485 -0.0553214 0.07964213 -0.0011911346 -0.008726082
완벽 -0.076118775 -0.13224329 -0.15355097 -0.2023432 0.21256962 -0.32915002 0.35472363 -0.13642699 -0.064207114 -0.23826627 0.08176163 0.062988356 -0.048142277 -0.18666056 -0.100378454 0.13863754
맘 -0.068849266 0.15949701 -0.3583987 -0.3875659 -0.311088 -0.3863427 0.17199582 -0.38362607 -0.4688331 -0.046815388 -0.3905866 0.29530326 -0.052676767 -0.03465894 0.13723159 -0.3228027
애니메이션 -0.053173646 -0.39814496 -0.37033498 -0.41043094 -0.38841054 -0.44385237 -0.090888254 -0.42765644 -0.5540734 -0.44038364 -0.16721144 -0.016595164 -0.068868555 0.07626024 -0.4750691 0.14230408
러 -0.055709742 0.065317675 -0.24026538 0.14588091 -0.09500668 -0.45672148 -0.40488952 -0.08033123 0.056155175 -0.18467419 -0.301178 -0.32235646 -0.0578436 -0.08823119 -0.03990379 -0.33631223
주연 -0.050671875 -0.025606703 0.22300437 0.0356822 -0.04175216 0.22600938 0.018707482 -0.45211703 0.13978261 -0.42603737 0.01326777 -0.31967935 -0.07336191 0.0717464 -0.30915877 -0.39494133
보고 -0.050905325 -0.2736855 0.30084684 -0.38731638 -0.032015525 -0.21388137 -0.10804623 -0.34878105 -0.3787203 -0.39666525 -0.09840561 -0.12349177 -0.054846395 0.11574698 -0.336021 0.28030267
후회 -0.060665473 0.0851566 -0.13357712 -0.041747507 -0.13607022 -0.44400373 -0.49740842 0.03559827 0.018749772 0.21139596 -0.4138793 -0.052667253 -0.07847813 -0.15258718 -0.14426875 -0.48622152
버리 -0.053488318 0.012265571 -0.23695183 0.16304235 -0.22422199 -0.30820101 -0.13744184 -0.18117899 -0.093045756 0.17102203 -0.15515658 -0.47039437 -0.06960161 -0.09688274 -0.20668373 -0.4728308
뻔한 0.359767 0.31329253 -0.16167691 0.15790841 0.024108294 -0.46810678 -0.50383747 -0.21131782 -0.12020558 0.0041002105 -0.4261325 -0.46577168 -0.060732413 -0.09867785 0.12680006 -0.51703286
나요 -0.07362635 0.10587495 -0.050827876 0.036205903 0.05810785 -0.46410435 -0.35662952 -0.38356915 -0.108461365 0.3155224 0.17599204 -0.45297745 -0.07130289 -0.14682303 -0.09223392 0.209526
어릴 -0.07457386 -0.3244169 -0.36579484 -0.4241161 -0.39507917 -0.26436532 0.09939752 0.14199156 -0.09329944 -0.48544663 -0.03978805 -0.10719382 -0.074333616 -0.1383259 -0.41454032 0.19825952
진부 -0.06751239 -0.09226117 -0.0589972 0.27109605 0.18801562 -0.42707974 -0.48331827 0.1672996 -0.060048845 0.05909353 -0.4180775 -0.46456876 -0.081291124 0.07234998 0.12184044 -0.48624712
나올 -0.056931924 0.033205193 -0.34371886 -0.19229855 -0.022374298 -0.37371165 0.22161607 -0.27564782 0.27096263 -0.40763322 -0.34117857 -0.3025588 -0.049840566 -0.10107204 -0.2816828 -0.12898935
장난 -0.058278166 0.21294701 -0.050807413 -0.07377722 -0.20192744 -0.53706074 -0.07188714 0.15724386 0.05592989 -0.067856066 0.12876423 -0.48637095 -0.05916499 -0.14945401 -0.15231435 -0.514464
출연 -0.046910655 -0.15979493 -0.29590908 -0.3984567 0.31454834 -0.30782485 -0.34486204 -0.17695971 -0.2763929 0.048541766 -0.27250907 -0.31036934 -0.07410094 -0.0044071116 0.14506805 -0.2639029
보단 -0.07419094 -0.0066195875 0.15827636 0.17717718 0.021809122 -0.30168784 -0.020711357 -0.19149251 -0.27692604 -0.23520942 -0.31368273 -0.30826613 -0.056753773 -0.062422644 0.12810974 -0.4183905
큰 -0.06716787 -0.32307714 0.10893986 0.099942185 -0.20015466 -0.22186008 -0.34541655 -0.36530492 -0.2869365 -0.28468224 -0.2883006 -0.19908008 -0.0760954 -0.088717885 -0.23660949 0.14487869
책 -0.051308315 -0.21529292 -0.36851224 0.08757503 0.042741433 -0.29155135 -0.4169271 -0.19871685 -0.34023315 -0.055813838 0.068409905 -0.44145405 -0.05979821 -0.15185705 -0.20249794 -0.025528286
됐 -0.054291967 -0.2778008 -0.18541653 -0.3854851 -0.044341087 -0.40292796 -0.14324945 -0.35062715 -0.3162028 -0.3611699 -0.32727018 -0.292898 -0.058817234 -0.050231565 -0.22077423 -0.40818918
영화관 -0.038304307 -0.23172273 0.072893985 -0.08610881 -0.082438976 -0.030425321 -0.3361162 -0.34691796 0.2163527 -0.004310042 -0.10908549 -0.30909103 -0.07513471 -0.15925953 -0.056972027 0.04655922
밖 0.20846306 -0.37505367 -0.2499283 -0.41354442 -0.38468564 -0.4430294 0.056892164 -0.29157478 0.22726028 -0.25549096 -0.30116427 0.088876635 -0.055782873 -0.12748483 -0.20532389 0.12241763
더니 -0.05989237 -0.008174229 -0.21146889 0.006542076 0.23529975 -0.23275171 0.22071972 -0.12250257 -0.31189677 -0.28735453 -0.24381018 -0.35570005 -0.060993288 -0.12184251 0.38595814 -0.2923653
개연 -0.050519273 -0.22621238 -0.038084637 0.34935442 -0.04953319 -0.40556225 -0.39526296 0.29896244 0.1495677 0.038906917 -0.17474096 -0.4565858 -0.06945667 0.019184971 -0.018457152 -0.17756043
둘 -0.07829013 -0.32229555 -0.28029686 -0.37661645 -0.28765765 -0.12606323 -0.46902955 -0.3477967 -0.16255832 -0.27348942 0.055188503 0.0129838195 -0.07505619 -0.08116823 -0.31090254 0.09216393
ㅅ -0.05044711 0.14708053 -0.082215 0.109706394 -0.395263 -0.34296918 -0.19033423 0.20801105 -0.25485837 -0.25606847 0.2260447 -0.04521575 -0.07446313 0.29179814 -0.2546706 -0.21495797
충격 -0.07576953 -0.19291504 -0.27642873 -0.17180622 0.08735126 -0.38692206 -0.4808065 0.08791903 0.11674445 0.09668472 0.17929684 -0.45658094 -0.066442326 -0.06440529 0.13575217 0.21912
여기 -0.06299293 -0.38833624 -0.26997238 -0.13847609 0.03533876 0.04331439 -0.4074135 -0.44829658 0.101796634 0.1298159 0.065100305 0.007644302 0.27341118 0.10714373 -0.423756 -0.34822798
극 0.15598409 -0.3735891 -0.29484302 -0.39649606 -0.33857644 -0.14101909 -0.09153762 -0.48142695 0.1232415 -0.36274117 0.054932505 -0.4439982 -0.057222433 -0.10638836 -0.3393297 -0.16208471
난다 -0.052555148 -0.38614383 0.31736726 -0.41959092 0.15951009 -0.5211655 0.09196026 0.029463848 0.08413641 -0.5630755 -0.39689574 -0.06534657 -0.07736994 0.07122698 -0.5649327 -0.48781386
평가 -0.053207804 -0.35505772 -0.34541094 0.23579447 -0.34421772 -0.16319053 0.3965192 -0.2998402 -0.10894371 -0.44744956 -0.38887763 0.025223583 -0.061944716 0.0658894 -0.32881865 0.13620219
잔인 -0.06624041 -0.2416666 -0.3469896 -0.21364586 0.11104682 -0.011960253 0.22315761 -0.37479195 0.14307185 -0.31172055 -0.15319858 -0.027794305 -0.056380782 0.14769024 0.015955526 -0.25199538
아름답 -0.058577735 -0.42022574 -0.121110365 -0.4316811 -0.4022516 0.23797564 0.14523026 -0.5696969 -0.5970503 -0.5700779 0.07338929 -0.20665713 0.002871871 -0.10884959 -0.43804327 -0.27415827
줬 -0.069364026 0.17187144 -0.34787524 0.16964884 -0.16508612 0.080426104 -0.3304354 -0.17925137 -0.30095005 -0.30788797 0.056601018 -0.332677 -0.060807046 -0.13488193 -0.27930415 0.2410364
얘기 -0.07638952 -0.2536556 -0.06230535 -0.2761037 -0.033121772 0.1119093 -0.108950645 0.077678874 -0.3791308 -0.34635878 -0.4186007 -0.003988317 -0.070977814 0.09086843 -0.23551911 -0.48828793
예술 -0.056166153 -0.11509661 -0.22110078 -0.18378104 -0.19203773 -0.14441067 -0.15357177 -0.18767701 -0.22792488 0.0766165 0.029880926 -0.22279178 -0.06508912 -0.02457413 0.034016877 -0.13464524
갈수록 -0.07648968 -0.050967593 0.109101646 0.21264738 0.16753575 -0.02324751 -0.4830839 -0.38768837 -0.39592183 -0.20504615 -0.3543943 -0.34748048 -0.077408776 -0.019638745 0.14025009 -0.058142364
매우 -0.070929736 -0.40504292 -0.36795786 -0.111389264 -0.02491545 -0.45546576 -0.26559344 -0.5534076 -0.4939344 -0.48846504 0.10134592 -0.41770864 -0.00072171434 -0.05067546 -0.4233559 -0.5113913
든 -0.06958356 -0.24857283 0.1136344 -0.33823854 -0.30956274 -0.35272256 -0.36421534 -0.38307017 -0.41117465 -0.35642597 0.15727669 0.0065320157 -0.054809798 0.16272992 -0.35527274 -0.047831647
위한 -0.06153956 -0.28062546 -0.34536922 -0.3881441 -0.074916355 -0.4179607 -0.09411838 -0.2571454 -0.49341866 0.04021771 -0.1222531 -0.3526758 -0.05305416 -0.07386499 0.062203843 -0.12755035
불 -0.07498595 -0.09013702 0.070847586 -0.04274572 -0.28524736 -0.40165392 -0.45336568 0.2267346 -0.3342385 0.04792382 -0.42632052 0.18856455 -0.082346626 -0.15314369 -0.27096856 -0.4214837
꺼 -0.070489965 -0.24590199 0.08156189 -0.032793604 0.03555635 -0.38746566 -0.38875702 -0.13548179 -0.008882327 0.18157563 0.027837854 -0.41432428 -0.06597169 -0.017918754 -0.053722605 -0.37556094
이후 -0.06901716 -0.20049888 -0.27768198 -0.32180166 0.20206241 -0.011821788 0.19583245 -0.29219237 -0.3193069 -0.40955278 -0.26726696 -0.29084694 -0.08468678 0.03197229 -0.24500464 -0.27928072
이리 -0.065155245 -0.26281175 -0.28022408 -0.24990913 -0.3326373 -0.28624752 -0.4650704 -0.1943906 -0.107651114 -0.41143563 -0.2162924 -0.41707668 -0.07614141 -0.13301207 -0.26030162 -0.35176602
