9996 16
영화 -0.03860744 0.029909374 0.05901924 -0.085562 0.012284225 -0.041734304 0.037615776 -0.13816133 -0.03074735 0.010699728 -0.0038474323 -0.09523509 0.08434738 0.07386765 0.047796562 0.12746936
다 -0.06832524 -0.0375688 -0.027771953 0.015640868 -0.08107267 0.09422543 0.011908816 -0.16578422 -0.07895679 -0.11587654 -0.07826514 -0.045453865 0.049126428 0.03404189 0.046978768 0.12114609
고 0.011689206 -0.04394953 0.044948712 -0.1373889 0.008750224 0.062236868 0.03883107 -0.08896686 -0.010634213 0.012068541 -0.07333454 -0.08834586 -0.0443981 0.0683628 0.17648432 0.11284574
하 0.025930567 -0.1061282 -0.044004098 -0.022802971 0.0027322688 -0.07206634 0.06110019 -0.15724474 -0.032856118 -0.115437366 -0.06967009 -0.058364455 -0.03877171 0.07430369 0.04004101 -0.0029486816
을 -0.034051005 -0.12789643 0.043670252 -0.0008268423 -0.059665304 -0.097909205 -0.02690963 -0.01760204 0.0091440445 -0.06060209 0.049709998 -0.033529 -0.0690599 0.0015915851 -0.034941673 -0.051723503
보 0.0045625023 -0.020171914 -0.07979436 -0.018880095 -0.01485062 0.0057730563 -0.18116036 -0.08977134 -0.04066456 -0.13259402 -0.06923789 -0.018081637 0.055402722 0.083448194 0.20766623 0.038290374
게 -0.0045904466 -0.013989773 0.043971077 -0.08248276 -0.0490086 -0.04980434 -0.10795992 -0.14297184 0.0063908873 0.07602425 0.049378466 -0.04878761 0.15516493 0.052866615 0.055175055 0.14164424
지 0.16927074 -0.092924975 -0.106310256 0.055974804 0.08156064 -0.012767558 -0.24519 -0.041480813 -0.015884075 0.017372644 0.06343068 -0.1446383 -0.013438303 0.02139418 -0.08684393 -0.15755606
있 0.019783944 -0.016472774 0.027159393 0.038006317 -0.12166419 0.079313956 -0.17196786 -0.18289806 -0.07145435 -0.011623464 0.062917195 0.039250802 0.08006306 -0.029016037 0.08188793 0.0496022
없 0.0823887 -0.14351234 -0.37017366 0.4074544 0.23551326 -0.4050472 -0.006696231 0.20856996 0.36532795 -0.11524966 0.10858176 -0.32347125 -0.4537558 -0.2395692 -0.20168692 -0.23800062
좋 0.23155826 0.14212587 0.084808335 -0.14739634 -0.062220637 0.17226203 -0.056794535 -0.37253195 -0.18189321 0.0796505 -0.15664844 0.25365224 0.073027216 0.16133697 0.34877902 0.373343
나 0.054800227 -0.015892603 0.026868157 -0.079290494 -0.12128384 -0.035382397 0.04153567 -0.08632437 -0.0643739 -0.12486124 0.11752501 -0.003775166 -0.052420318 -0.05480979 0.05343433 -0.054059993
었 -0.023378825 -0.03758443 -0.082101844 -0.10027572 -0.10684365 0.027616719 -0.062212903 -0.09275922 -0.0599096 0.077861436 -0.03008625 0.0714295 -0.004602009 -0.040033042 0.038235046 0.13829888
만 -0.2173493 -0.26561967 -0.02667406 -0.12271815 -0.038848873 -0.05805548 0.06671018 0.14557604 -0.07230565 0.034218606 0.10527808 -0.0140063055 -0.06535912 -0.08612389 -0.1959306 0.11774828
는데 0.21359925 0.015683727 0.13644968 -0.039459802 0.109000646 0.1053902 -0.04446688 -0.07932948 -0.01652976 0.18708651 0.07275916 -0.14836599 -0.1218504 -0.101193026 0.026631543 -0.08930079
너무 0.21395573 -0.07124538 -0.44444492 0.13918823 0.17200567 -0.17366308 -0.005494053 -0.018390264 0.1379123 -0.26499468 -0.13690028 -0.018869 -0.32590547 0.025440587 0.28015003 0.15092222
봤 0.11446706 -0.13901916 0.035731383 0.092867024 0.007023088 -0.04498359 -0.05091585 -0.14029105 -0.06396236 -0.012619461 -0.1253954 -0.072023414 -0.044476524 0.14949429 0.173069 0.08997034
적 -0.01409182 0.07222284 0.031024868 -0.01698114 -0.004177226 -0.0036433681 -0.042862028 -0.2158045 0.03071775 0.06890249 -0.10648952 -0.023618322 0.023713596 0.02965079 0.05794461 -0.013751663
안 -0.1856258 -0.24048921 -0.1275055 0.2147979 -0.030235933 -0.36697793 0.2872051 0.16933551 0.07875453 0.03225609 0.16498172 0.07111143 -0.31591615 0.044005275 -0.5706944 -0.25834343
정말 0.31389523 0.05998007 -0.15314163 -0.15676609 -0.07989938 -0.12116826 -0.038985845 -0.05328112 -0.02120247 -0.18049268 0.002691319 -0.007807943 0.068163045 0.17508343 0.35160652 0.13383885
로 -0.0039659664 0.04337304 -0.21431963 0.007415081 0.055157654 0.11753421 -0.00992024 0.105347335 0.06845143 -0.15181054 0.11483255 -0.118352294 0.02833607 -0.016149279 -0.05624369 -0.072053224
것 0.066179186 -0.03196712 -0.074369326 -0.058456954 0.0037051376 0.08238917 -0.09868038 -0.019867403 0.049827795 0.002638783 -0.02387929 -0.050848566 -0.10342642 0.065170266 0.083037935 0.07865245
음 -0.005188069 -0.078362346 0.042411838 0.07954118 -0.0053623132 -0.08641976 0.1616923 -0.19714433 0.09358118 0.10729022 -0.10686856 -0.10190864 -0.1519121 0.08093864 0.073801965 0.26103312
아 -0.035541687 -0.10535332 0.020459425 -0.02241781 0.017940238 -0.066050015 -0.14570355 -0.058582284 -0.001348846 0.05831598 -0.18017226 -0.09649123 -0.13646801 -0.016215852 0.1821058 -0.046523977
네요 0.0010447991 0.19727921 -0.20867917 -0.0042898124 -0.087580435 0.07226808 0.008278318 -0.25331417 -0.090934485 -0.084653474 -0.061702017 -0.018088207 0.057657834 0.07483786 0.14859045 0.2873927
어 0.036278564 0.00085236697 -0.1402025 -0.088702165 0.034551658 0.007283484 -0.0045243236 -0.060915682 -0.014037653 -0.04960619 -0.07994751 -0.03738582 -0.016745808 0.05532272 0.12420467 -0.018254556
재밌 0.43012676 0.33078974 0.076371126 -0.20819001 -0.26369682 0.5090788 -0.33216897 -0.33299246 -0.38008377 0.18297665 -0.3653649 0.33749402 0.09601698 0.38269976 0.355656 0.5609883
지만 0.25844377 -0.1031357 -0.012195557 0.017262835 0.06388397 -0.22636616 -0.036502272 0.084243834 -0.06191608 -0.0035761625 -0.016855737 -0.14240739 1.450078e-05 -0.11938036 0.09214728 -0.45630753
같 0.02451543 -0.02379468 -0.08565295 0.15158577 -0.059489947 -0.11238495 -0.013643583 -0.15161085 -0.0006880264 0.03329033 0.013222913 0.035761323 -0.12231898 0.03757632 0.033056755 0.06437038
진짜 0.30450845 0.06169948 -0.1368178 -0.12624256 -0.001043549 0.02538561 -0.040242285 -0.01692336 4.6375324e-05 0.0883408 0.016780773 -0.059029914 -0.1091332 -0.040147062 0.18565549 0.122207426
에서 0.075243756 -0.061365765 0.0903333 0.09048572 -0.08432052 0.022000423 -0.14492263 -0.11463664 -0.075965606 0.045687173 0.059910562 -0.033451475 -0.026107213 -0.13987754 0.037898164 -0.015995303
했 0.075000785 -0.010948461 -0.14038545 -0.03845554 -0.034902476 -0.060035102 -0.054108493 -0.118637025 0.015564308 -0.07822957 -0.04533873 -0.10711169 0.016837765 0.0150232725 0.045478188 0.024854261
기 0.00999064 -0.112945236 -0.15721717 0.019063834 -0.062949345 -0.1387057 0.13227376 -0.039611872 0.02249829 -0.22485791 0.07850122 -0.04176371 -0.054097835 0.058278307 -0.019210327 -0.028893176
네 0.0064341347 0.05179477 -0.08148205 0.10765988 -0.021803329 0.050761174 0.08426237 -0.112678625 0.14586298 0.019606119 -0.046290744 -0.0022599157 -0.060852043 0.05244952 -0.07822498 -0.021012336
않 0.044392236 -0.011066797 -0.17881997 0.33727258 0.23751935 -0.31859115 -0.10822423 0.41346622 0.1942227 -0.21958855 0.018897656 -0.018532265 -0.08570137 -0.14524016 -0.11713448 -0.42783695
점 0.022011122 0.05817517 -0.2280487 -0.021627806 -0.032547105 0.10646797 -0.094493106 0.05949894 0.02259512 -0.19154179 0.16511048 0.07971214 0.04312669 -0.13799891 -0.1121604 0.041378655
거 -0.09496778 -0.10218318 -0.06858972 -0.015577634 -0.012199555 0.04433543 0.030573739 0.03972336 0.026064793 -0.035659667 0.032066986 0.01722271 -0.10727387 -0.021350347 -0.083826296 0.035595536
았 -0.032191895 0.043836024 -0.047738627 -0.081381045 -0.028613081 0.040477823 0.05048628 -0.09015858 -0.007151797 -0.12287046 -0.096801095 -0.10833666 0.0960095 -0.116779186 0.2091875 0.021569718
수 0.07537966 0.16068299 0.0036216667 -0.031122135 -0.1175314 0.051510952 -0.12568651 -0.25049943 -0.10991092 0.18885551 0.013206595 0.11861719 0.040950898 0.07750085 -0.20115246 0.10821124
되 0.115923405 0.14666678 0.08333489 -0.09051294 -0.08497503 0.09118918 -0.083120994 -0.26499644 0.06813776 0.15229572 -0.13547938 -0.05864679 -0.06998016 0.035331443 0.15783018 0.12990035
면 -0.06343564 -0.10205612 -0.064552695 0.026930548 -0.11178153 0.11190516 -0.13046496 -0.05473629 0.059179023 -0.023889866 0.0826775 -0.08205512 -0.07047985 0.003799885 -0.19602172 -0.03603937
ㅋㅋ 0.043929886 0.0029975597 -0.009541861 -0.014194452 -0.06740068 0.015462441 -0.18719302 -0.055225395 -0.0045696846 -0.16045116 -0.16826372 -0.09851217 0.0370448 0.10826189 0.113492765 0.15815616
인 -0.08624945 -0.06012151 0.13473108 -0.026465869 0.0063097095 -0.02832219 -0.06276824 -0.02939092 -0.09909159 0.045725904 -0.08818903 -0.09393113 -0.021472465 0.09841798 0.09796797 0.08940288
말 0.009284401 -0.13637096 0.041013274 0.14661175 -0.14418027 -0.19926266 0.09864625 -0.09100499 -0.023547731 0.10996466 -0.1780511 0.15076557 -0.29709107 0.11356734 0.065922715 -0.04672514
연기 0.055436607 0.01480842 -0.0007967616 -0.12812413 0.0076903137 0.006436282 -0.18856928 0.02324917 0.0083592115 -0.2546698 0.07067684 0.060175125 0.03151319 0.15754753 0.10716307 0.31089532
주 0.082189806 0.10732144 -0.078117274 0.060339212 0.024890257 0.081756346 -0.1416993 -0.0839915 0.0056275562 -0.049435917 -0.031177176 0.005018484 -0.015959008 -0.02716201 0.10407065 0.16345122
최고 0.67617434 0.28336716 0.3450776 -0.3217757 -0.43850002 0.4388918 -0.42650688 -0.47890708 -0.24737716 0.27196637 -0.34251454 0.42158547 0.17097679 0.32970706 0.41733873 0.5231383
내 0.08830831 0.034573678 -0.08415415 0.045550324 -0.006627884 0.110879846 0.030136166 -0.12092553 -0.051601652 0.040150534 -0.055273853 -0.115960985 -0.115997836 -0.15084106 0.10941023 0.019807182
평점 0.066376396 0.10056359 0.06499306 0.23164149 -0.017003106 0.07049211 -0.072299436 -0.13736154 0.12940258 0.21175225 0.17552146 0.44307792 -0.083678246 0.058611818 -0.37819225 0.14707762
이런 -4.7482215e-05 -0.09374289 -0.023848195 -0.04624398 0.014157283 0.037105195 0.02240773 -0.135789 0.041702524 0.013602054 -0.119551495 -0.08400933 -0.10874556 -0.09027845 0.2153867 -0.06176087
던 0.039461873 -0.056939125 0.120979555 -0.1553551 -0.0012274417 -0.06499298 0.0280541 0.037493534 -0.099287294 0.08796885 0.0001751383 -0.09142257 0.05289284 0.08231598 0.006364199 -0.023241187
어요 -0.042773537 0.09721307 -0.12291395 0.10438357 -0.15086551 0.06511544 0.11538567 -0.43872532 -0.011413099 -0.21414843 -0.05975593 0.00052600214 0.096470475 0.17375962 0.059287574 0.38521856
할 0.094286956 -0.06735174 -0.14228573 0.10937541 -0.040165596 -0.07879769 -0.026770407 -0.07735369 0.073731385 -0.22993587 -0.11002273 -0.11588225 -0.11084901 0.10592637 0.044707175 -0.13199325
왜 -0.114214204 -0.07389041 -0.27080023 0.1286485 -0.16858558 -0.043052543 0.11429159 -0.10688719 0.14074901 -0.07296378 0.14033379 0.16310936 -0.23192571 -0.02833187 -0.24538484 0.10453394
겠 -0.10216989 -0.22362602 -0.20695041 0.14920494 0.0694723 -0.15217479 0.14109966 -0.041029893 0.067044616 -0.06780399 0.07284148 -0.14152686 -0.26926914 -0.05689922 -0.017154941 0.06284485
스토리 0.0068486403 -0.11621853 -0.2331571 0.007179748 0.042874213 -0.11418936 0.20497051 -0.065888934 0.029035773 -0.08220732 0.01747421 -0.27853173 -0.18472596 0.13114202 0.03720074 0.08315196
해 0.106047206 0.05116983 -0.092476435 0.07867037 -0.08960692 -0.05966333 0.079865016 -0.042127293 -0.043502454 -0.21558833 0.051886506 -0.10861442 0.100742795 0.07232148 -0.019048262 0.043071862
ㅋㅋㅋ 0.0017276591 0.05496588 -0.021087313 0.030606529 -0.006241183 -0.039721683 -0.026392851 -0.038189135 0.052946277 -0.15288426 0.03718276 -0.060835604 0.042645156 -0.0014211431 -0.017255742 0.13456495
습니다 0.033846334 0.16839845 -0.10165536 0.16732351 -0.12015342 0.1507864 -0.24155192 -0.2521486 -0.064398915 0.026308173 -0.10012182 -0.2148125 0.006694444 -0.015213436 0.10313158 0.27868465
듯 0.00923273 0.012325269 -0.028390434 0.026108067 0.13730252 0.062339965 0.016391251 -0.059395026 -0.038985338 -0.002336487 -0.1572874 -0.16634345 0.05870694 0.080643356 0.040344283 -0.038143456
아니 0.10269534 -0.21156524 -0.03463561 0.45764264 0.012297362 -0.31823096 -0.0649262 0.060382243 0.021104492 -0.0179297 0.052890476 -0.09161804 -0.28969827 -0.21081702 -0.1179574 -0.46525463
드라마 0.08409166 -0.1587878 0.037150305 -0.15790197 -0.13188994 0.124378696 -0.06434749 -0.063204974 -0.04953409 -0.01921577 -0.007207346 0.028945496 -0.16972508 0.21890695 -0.17495699 0.25541392
생각 0.086083405 -0.081754625 0.10112898 -0.075062916 -0.115216136 -0.060092144 -0.0064096143 -0.11574247 -0.012392845 0.105917536 -0.09534937 -0.112402104 0.035670307 0.130843 0.021445429 0.048643954
더 -0.0382126 -0.041306026 0.06099423 -0.12548745 -0.13726649 -0.00027852636 0.0025383895 0.07800905 -0.017719552 -0.084381424 0.023146886 -0.0035570539 -0.021396507 0.07844516 -0.20592013 0.04522472
그 0.012287096 -0.0062013115 0.07015732 0.068640485 -0.07717475 -0.020244755 -0.1748868 -0.15749195 -0.008833996 0.10949333 -0.045611486 0.08046911 -0.058887687 0.0609339 0.015786907 0.0026755517
싶 -0.107592314 -0.05462817 -0.13286224 0.047805306 -0.009070119 -0.0023885637 0.03288819 -0.112256855 -0.030487103 -0.14695637 -0.011937892 -0.078682385 -0.04565061 -0.04762508 0.17368703 0.17261314
사람 0.13414218 -0.0028342383 -0.06829981 0.06158383 -0.13654326 0.051291946 -0.14342745 0.04587069 -0.04804466 -0.0862883 0.06249198 0.0054241684 0.040903714 0.095086835 -0.384652 -0.07583361
때 0.073029995 0.06399045 -0.019870656 0.037003532 -0.07415983 -0.03565395 -0.08721074 -0.12558681 -0.061391436 0.062664546 -0.016933562 0.11913931 -0.01981471 0.07844393 0.03362907 0.10412847
감동 0.58362836 0.31914243 0.13931426 -0.15649857 -0.010741137 0.06088757 -0.769387 0.10356527 -0.18811727 0.35612327 -0.008990266 0.24497275 0.13785064 0.43979976 0.32195526 0.32435974
배우 0.071916714 -0.035914317 -0.077167474 0.14725661 -0.008744034 -0.16300133 0.11351684 -0.13536361 -0.013448353 0.082944274 0.11963815 -0.061087303 -0.013676612 0.055076495 0.075313956 0.044761196
함 0.13292223 0.07295249 -0.11899304 0.049339704 -0.012503882 -0.10665003 -0.02362714 -0.012944103 0.03267456 0.0065736165 -0.07044302 -0.13861743 0.036094498 0.11314931 0.13053688 0.14207187
본 0.100987524 -0.024249801 0.10153367 0.13800342 -0.035685517 -0.10564729 0.16224913 -0.31061366 0.093261495 0.10633183 -0.22362284 0.17377941 -0.20118833 0.055836108 0.1625136 0.16656108
까지 0.03890965 -0.001188811 -0.01887864 0.13314523 0.05593952 -0.10127625 -0.08195878 -0.010250326 0.11340363 0.016449934 -0.045257915 -0.051192757 -0.19032997 0.16636622 0.028784573 0.07928241
뭐 -0.23023216 -0.15679131 -0.19420758 0.18330884 0.013190192 -0.12690815 -0.018291779 -0.022099994 0.052920476 -0.21147977 0.14744174 -0.21039586 -0.1776765 -0.0356345 -0.1998873 0.19095662
알 -0.03142513 -0.17996085 0.035833295 0.036212284 0.08340841 -0.02931506 0.0008859405 0.016692856 0.08020743 0.04281592 0.119824536 -0.08326942 -0.033781875 -0.024209892 -0.03383855 -0.04520407
만들 -0.04009515 -0.17642899 -0.08761496 -0.031244386 0.034757026 -0.050724894 0.05949609 0.09790375 -0.09896662 -0.2694797 0.0969031 -0.22393699 -0.11733224 -0.1784336 0.3841644 0.21088162
내용 -0.12762177 -0.23697624 0.07921652 0.10894403 0.023068689 -0.009967474 0.17954281 -0.051860392 -0.12889935 0.04697825 0.07174853 -0.33069447 -0.16818343 -0.10193518 0.28890646 0.0024245353
볼 0.15041089 0.122180775 0.01930229 -0.18608466 -0.11144655 0.24302217 -0.23847194 -0.19701475 0.045682523 -0.09141213 -0.1916558 0.0027565183 0.13927752 0.032269865 0.31444016 0.17792775
보다 0.2990437 0.07164953 -0.1832468 0.09935585 0.017603552 -0.067150414 -0.11438047 -0.06366507 0.18325406 -0.15831254 -0.15106426 -0.3210702 -0.040796887 0.036004577 0.17679365 -0.25587335
감독 0.005972407 -0.0627538 -0.27722567 0.08242653 0.1444994 0.0025842804 0.01725547 0.075152904 0.09246463 -0.0820977 0.32846382 -0.23666547 -0.09226694 -0.04747596 -0.03703157 0.14242856
라 0.14199415 0.024262331 0.033279516 0.012405025 0.0055606803 -0.05467815 0.03549901 -0.1540949 -0.06174321 0.12451609 -0.022590209 -0.06859432 -0.060470328 -0.031648833 -0.0027437601 -0.2301776
재미 0.28742868 0.13461263 -0.16144128 -0.16498798 0.12347819 0.12150992 -0.22857405 -0.017237265 -0.04483315 0.013946647 -0.06291842 -0.054520134 0.033329662 0.15839061 0.37273553 0.17113057
그냥 -0.018100865 -0.1411845 -0.18544318 0.10232606 0.27333936 -0.022561615 0.17065507 -0.026494956 0.07882942 -0.04748422 0.16444823 -0.018104212 -0.20791842 -0.18028991 0.32586887 0.06648374
시간 -0.14639416 -0.109361425 -0.03760331 0.07809801 -0.06817724 0.05028232 0.03648837 -0.067978166 0.31635067 -0.29610693 0.255185 -0.21619236 -0.25777012 0.025314901 -0.19352764 0.19511224
지루 -0.4314467 -0.35595086 -0.6339113 0.323592 -0.07273916 -0.48213986 0.6749508 0.2897377 0.7079431 -0.6867169 0.69431955 -0.76652586 -0.6752455 -0.4851511 -0.6049266 0.10545434
중 0.17556016 -0.13761981 0.027434597 0.09296462 -0.07805544 -0.113364 -0.12617128 -0.22139174 -0.054897707 -0.26981285 -0.26494625 -0.118164346 -0.068354346 0.26709706 0.21927655 0.11156992
재미있 0.3209494 0.2674044 0.17941271 -0.3351122 -0.23627505 0.36019748 -0.1126715 -0.36299506 -0.18005875 0.12803957 -0.51294804 0.14465365 0.15575047 0.13345021 0.4875195 0.42837483
였 0.0064204065 -0.010723183 -0.0059483023 -0.06974964 -0.12299568 0.12504861 0.0032479954 -0.07646042 -0.09755546 0.13670923 -0.042599417 -0.025638834 -0.09365592 0.017112074 0.10667679 0.19915362
잼 0.42503664 0.3619007 0.012708477 -0.53196204 -0.23213102 0.59847575 -0.1776959 -0.46170765 -0.11006163 0.19763438 -0.3391704 -0.05638096 0.18014368 0.14331868 0.47816017 0.4911376
년 -0.14848405 0.032201353 0.18069795 -0.0051063267 -0.15412417 -0.023544554 -0.053608123 -0.057423092 0.0065422817 -0.08643894 -0.004605757 0.08412096 0.08232859 0.033311307 0.02628745 0.22847138
사랑 0.4126128 0.27709445 0.18320742 -0.005567918 -0.24835482 0.22098039 -0.43487036 -0.41220278 -0.06916439 0.20608807 -0.10894708 0.23382138 0.12667792 0.20842744 0.17457771 0.3729894
못 -0.32979175 -0.19306923 -0.09622685 0.058363877 0.09327907 -0.16107504 0.12148246 0.36271274 0.21755253 0.18151224 0.48376545 0.05042084 -0.30192438 -0.10101743 -0.673097 -0.25527695
재미없 -0.44194967 -0.3335938 -0.4293587 0.26061904 0.43163577 -0.3745169 0.61107284 0.25841293 0.77760637 -0.31443372 0.5003195 -0.63202435 -0.6748516 -0.21897505 -0.35367477 0.103005044
냐 -0.020788161 -0.18721728 -0.14454383 0.112000644 0.02650986 -0.2042107 0.13953875 -0.0018374898 0.14778997 -0.0038073284 0.08923754 -0.21105224 -0.32515427 -0.17860477 -0.05713961 -0.023243472
쓰레기 -0.12211352 -0.4620612 -0.31176284 0.49524012 0.27861536 -0.43756673 0.2849189 0.31687945 0.6205813 -0.36271244 0.35388476 -0.66533077 -0.6954435 -0.39041603 -0.13029236 -0.08406562
서 -0.009873078 -0.18567534 0.16896133 0.08807396 -0.0004055028 -0.11072566 -0.123276636 0.11229874 -0.07648859 0.04571026 -0.1304647 0.11530797 -0.06908509 -0.019727955 0.077860996 -0.053922437
라고 -0.031998035 -0.014469789 0.021202853 0.020239865 0.09878874 -0.1505511 0.2347217 -0.121051386 0.102384545 -0.051756475 0.031044452 -0.09440168 -0.050426025 -0.16473733 0.014823458 -0.14935614
니 0.15396339 0.0312989 -0.132155 -0.03167914 0.07184046 -0.14348856 0.064987175 -0.1122832 0.104382955 -0.12665656 -0.066653624 0.065635785 -0.048632875 -0.041774236 0.017694471 -0.17125377
면서 0.17302814 -0.05110487 0.27338454 -0.057607654 -0.037826005 0.019474067 -0.2248779 -0.04230947 0.086016245 0.111791015 -0.11466897 -0.16645995 -0.010106659 0.076195836 0.094534375 0.13418876
다시 0.25378042 0.060870275 0.16273336 0.08155528 -0.2896831 -0.04927502 -0.32351282 -0.20945491 -0.17318259 0.38037232 -0.084067315 0.03645599 0.13128437 0.13793993 0.18270488 0.020314595
번 -0.017261812 -0.035169095 0.2890822 -0.10337128 -0.073506795 0.094307415 -0.15626861 -0.013290612 -0.07379464 0.11337993 -0.04342288 0.15614362 0.010957546 -0.012772413 -0.12580398 0.13875207
나오 0.01394103 -0.10374962 -0.08391417 0.017170781 0.01738182 -0.050941005 -0.0665598 -0.015667718 -0.016651073 0.012803552 0.01072575 -0.0747819 -0.18441927 -0.06786495 -0.0682557 0.17547114
하나 0.011461357 -0.10951722 -0.17846465 -0.046115994 0.10806733 0.046008337 0.1938931 -0.013340005 -0.16074747 -0.027113203 0.114509135 -0.28574538 -0.044231888 0.08548394 -0.06134462 -0.055957004
작품 0.11894604 0.13300006 -0.0070340447 -0.04160568 -0.06816557 -0.009498023 0.013537768 -0.26738852 -0.103528544 0.12731495 -0.20855251 -0.016833501 0.08111014 0.2379604 0.07478505 0.21613048
야 0.12644437 -0.07321665 0.103467576 0.00022162267 -0.09875935 -0.006513896 0.040259376 -0.08018796 0.09234441 0.037703104 0.033566516 -0.13862637 -0.0915795 0.05174934 -0.06897004 -0.07678707
이거 -0.02800901 -0.01851642 -0.026500585 -0.033526115 -0.042317837 -0.03661792 0.08323726 -0.12712291 -0.010853035 0.17181724 -0.034517985 0.09053955 -0.1422566 -0.026402084 0.08739406 -0.0040480033
줄 -0.06857662 -0.1420086 -0.023219952 -0.006197342 0.11587698 -0.013641065 -0.019050572 0.031287704 -0.056283154 0.0451769 0.1730066 -0.06029754 -0.07166854 -0.055216264 0.0141205825 -0.14716788
해서 0.06996367 -0.084688015 -0.021178488 -0.081011534 0.054821298 0.04237197 0.03772547 0.08545927 -0.009272488 -0.14417773 0.104134075 -0.05960248 -0.033112135 -0.10286534 0.11290874 0.041149233
남 0.04343012 -0.057303324 -0.19902177 -0.20951001 0.1313142 0.17798391 0.07083736 0.045210566 -0.14279228 -0.05290994 0.024474168 -0.1356162 -0.036474857 0.27151698 0.09424426 0.20784155
마지막 0.0874791 0.084664434 0.088087 -0.061098814 -0.24997656 0.061333135 -0.12119905 -0.22975172 -0.1076487 0.18989487 -0.015024946 0.08339635 -0.061918985 0.09998979 -0.043354634 0.28391066
끝 -0.013196018 -0.19488269 0.029356256 -0.21499193 0.1003268 0.0014071077 0.2955871 -0.001228318 -0.0005115663 0.1417176 0.19211327 -0.17487536 -0.05607902 0.0061637326 -0.09532891 0.1355544
정도 0.018295823 -0.030733615 0.14055645 -0.119279 -0.15396655 0.08234275 0.010919845 -0.0680371 0.035452254 -0.18597253 -0.06712409 -0.1409338 -0.032469407 0.01290045 0.01061094 -0.07268031
이건 -0.023702355 -0.094257586 -0.29140827 0.11653303 0.28825492 -0.002698913 0.21668196 0.13886178 -0.08223516 -0.14895394 0.038807083 -0.30434275 -0.42753407 -0.37987512 0.41577843 -0.027027603
액션 0.16290615 -0.06321458 0.08445674 -0.11465947 -0.1155029 0.025008515 0.06959893 -0.17381774 -0.12980488 0.011240188 -0.11593025 -0.11529957 -0.036735233 0.12831563 0.11668015 0.19517903
개 0.045998972 -0.1047423 0.073846385 0.13663949 -0.09747727 -0.20397621 0.00166562 -0.053543553 0.17207138 0.0034458805 -0.15187143 -0.011550488 0.0038517995 -0.10869244 0.094774105 -0.15062505
임 -0.053815573 -0.07762102 -0.14531073 -0.018540028 -0.07163619 0.23429054 -0.062436517 -0.1326566 -0.07389211 -0.15204714 -0.009948258 -0.006080627 0.08948207 0.07389472 -0.0069579887 0.19792373
건 -0.13924062 -0.04816188 -0.42029586 0.09516238 0.093637735 0.016780611 0.063176036 0.016868744 0.1005185 -0.10726263 0.24604447 0.05583307 -0.22719412 -0.16271561 -0.0835284 -0.0359883
기대 0.2845472 -0.27079013 0.12920439 0.19962971 -0.036133014 -0.2611984 -0.0030476744 -0.023801222 -0.13908859 0.20163882 0.19991592 0.2233023 -0.2769557 0.022193449 0.13973457 0.18553413
다는 0.0131705385 -0.22714204 0.10726559 -0.06233244 0.09147817 0.009898946 -0.08446895 0.067344286 -0.018223716 0.06770842 0.11124939 -0.04709554 -0.00811401 0.032108642 -0.15226401 -0.14614931
입니다 0.095526285 0.3320899 -0.074171774 -0.010672206 -0.23219244 -0.04830252 0.089002594 -0.28465122 -0.20329732 0.03347716 -0.0146853095 -0.0061772475 0.19855124 0.09149746 0.26369995 0.15585272
라는 0.020637594 0.018583115 0.18086532 0.03589396 -0.11861124 0.09234922 -0.24923535 -0.008373033 -0.019455673 0.030399073 0.11818433 -0.048925687 0.0105711995 0.08542811 -0.23478863 0.15782043
완전 0.16201253 -0.18263972 -0.041677367 -0.12578902 -0.13728566 -0.055278987 -0.035011105 0.014759489 -0.066809736 -0.031302996 0.021262579 -0.25886747 -0.22982591 -0.32699907 0.4028392 0.061115053
참 0.063090414 -0.020374127 -0.21275225 0.061417144 -0.04313123 -0.18693875 0.2306859 -0.24112038 0.005467143 -0.06672749 -0.068959564 -0.020051679 -0.17697372 0.062594645 0.105224915 0.026372643
많 0.12380925 0.0475255 0.16514695 -0.11424773 -0.30264413 0.11377421 -0.114973545 -0.32314125 0.20368941 0.020540219 -0.10962284 -0.30841845 0.06420021 0.078438275 -0.09702709 -0.0689946
ㅋ -0.070323795 -0.110400945 -0.11419917 0.030174317 -0.066064894 0.12972848 -0.10066493 0.0055985097 0.027092818 -0.17688131 -0.18911858 0.030728769 -0.09513457 0.044227194 0.09900755 0.17772245
처음 -0.20946926 -0.14571719 0.09485652 0.018805776 -0.033998854 0.04709561 0.11218635 -0.01676748 -0.07890204 0.18070103 0.051914696 0.04716451 -0.1057972 -0.06264754 -0.02793603 0.06274945
장면 0.051538058 -0.07517986 0.07099467 0.08508333 -0.043673635 -0.17691883 -0.084768526 0.04380219 0.031811435 -0.06554371 0.049131565 0.048035935 -0.10371758 0.025390845 -0.08588569 0.11643499
다가 0.05861724 -0.16848812 -0.26461545 0.09462413 0.27026626 -0.14417218 0.08252818 0.09668869 0.21699841 -0.19723044 0.4591615 -0.37711206 -0.2521139 -0.2615078 0.15637246 -0.106819525
아깝 -0.35493922 -0.30141214 -0.37813172 0.10409832 0.27959588 -0.05620218 0.56640005 -0.054080367 0.4987512 -0.3119621 0.5705033 -0.34504908 -0.45258546 -0.1731086 -0.44490573 0.32970124
으면 0.0141562745 -0.11422656 0.21724886 0.15706192 -0.08681162 -0.2211169 -0.0045893593 -0.119936205 0.13856098 0.0007086504 -0.09307296 -0.011620672 -0.10652767 0.20556574 -0.15973997 -0.019445103
모르 0.10897464 0.18787417 -0.05387401 0.006276872 -0.13079421 0.019739782 -0.29480332 0.14865567 0.11354025 0.038674675 0.1304363 0.07157375 0.019419016 -0.08897926 -0.035816863 -0.054663032
지금 0.07792039 0.217902 0.111176714 -0.09529225 -0.11062246 -0.022732988 -0.18900311 -0.10565824 -0.09811547 0.1321802 0.0075617116 0.13286427 0.1867762 -0.11777399 0.033463065 0.057547677
이렇게 0.24128371 -0.023362396 -0.22321549 -0.08030432 0.11201196 -0.020706149 -0.046692725 -0.04646337 0.054272998 -0.230991 -0.09543904 -0.12105091 -0.15886064 0.11080384 0.415304 0.17707315
분 -0.12591402 0.018722469 -0.13452075 0.09095726 0.08839894 -0.11550587 0.077749245 0.10142549 0.1326285 -0.12059812 -0.031789158 0.069845036 -0.09870441 -0.028441066 -0.1482142 0.017156605
돈 -0.22981453 -0.016308574 -0.26197618 0.20842695 0.18846393 -0.11331661 0.30481145 -0.0009710197 0.16825168 -0.11614349 0.3636315 -0.1914609 -0.2131328 -0.08134429 -0.25787923 0.16261972
이게 -0.13310143 0.015101839 -0.11700594 0.02984336 0.050076753 -0.022420784 0.06459525 0.16663767 0.047513433 -0.17435735 0.18059486 -0.23572618 -0.0089863185 -0.11750906 -0.082762055 -0.084251314
ㅠㅠ -0.027943915 0.050935112 0.10387329 0.08581682 0.036730703 0.0012437138 -0.10935959 -0.26075757 -0.009636511 0.13483235 -0.22306956 0.01835341 -0.025326807 0.047381315 0.10673527 0.22568506
성 -0.013581998 -0.036182724 -0.08846149 -0.03343517 0.016527135 0.0379541 0.0065216445 0.013202571 -0.047268268 -0.2082023 -0.003177401 -0.06823258 -0.031958196 0.043342035 0.08249711 0.003317354
느낌 -0.002600394 -0.25643164 0.017912885 -0.17676367 -0.08346246 0.009361391 0.08300478 -0.091372594 -0.10936516 0.16367908 -0.03601506 -0.10266383 -0.19683194 -0.07726744 0.10103278 0.07470734
이야기 0.37985632 -0.09692025 0.021924378 -0.0060116868 -0.009788713 -0.07633842 -0.0062826076 -0.0972895 0.044324093 0.015297485 0.008282839 0.023503156 -0.26210892 0.16605307 0.14810981 -0.055330545
일 0.070681386 0.20657618 -0.005190761 0.010867871 -0.20690458 0.019569585 -0.15704408 -0.08587108 0.15705952 -0.09765841 0.01521901 0.09622969 -0.0029704792 -0.009832569 -0.17767231 0.018598616
최악 -0.43243203 -0.61166656 -0.60653615 0.6475215 0.78651804 -0.38970497 0.84014213 0.29947287 0.43369713 -0.4271707 0.4035252 -0.733209 -0.7298388 -0.108651504 0.35843548 0.45365804
된 0.003657135 -0.04802976 0.05986948 -0.049717776 -0.06731631 0.114179984 -0.14409705 -0.22686793 -0.09756918 0.016253784 -0.004583916 -0.030329112 0.047044475 0.1659521 0.082251266 0.20118698
시 -0.029881185 -0.031237101 0.09504927 -0.065869175 -0.13757478 -0.014258817 -0.036033712 0.13811244 -0.086513646 0.022375803 0.019631898 0.1803978 -0.07264614 -0.009142738 -0.1130947 0.08081825
봐도 0.25050974 -0.22723852 0.31019995 -0.12049652 -0.1481047 0.14992201 -0.2240551 -0.27601206 0.009324075 0.0836058 -0.034123532 0.055667996 -0.22153975 0.21638045 0.14498436 0.54059565
님 0.1543348 -8.821848e-05 0.11826707 -0.06221665 -0.028295951 -0.021142846 -0.21448883 -0.19921821 -0.09886179 0.15778874 -0.0698084 0.0362163 -0.039228823 0.18570288 0.010922438 0.18317153
어서 0.06891138 0.05028037 0.10496303 -0.188576 -0.12117802 -0.018928641 -0.1244122 0.021039696 0.04034571 0.2494134 0.07089601 -0.26040214 0.034197427 0.07876993 -0.089964315 -0.010066868
애 -0.17947036 -0.11062829 -0.092615664 0.06980343 0.00486886 0.042076956 0.0761508 -0.028998142 0.100794464 -0.091027535 0.12579907 -0.020235758 -0.09842967 0.07057986 -0.1403203 0.14116381
편 0.010365065 -0.09235822 -0.09299667 -0.044686146 0.053907372 -0.05268949 0.13000762 -0.011689846 -0.034287684 -0.05942942 0.018461183 -0.00818818 -0.06845585 0.14446034 -0.12400914 -0.01999623
다고 0.01329058 -0.26925042 -0.085194014 0.08532688 0.11730282 -0.1948745 -0.032774385 0.1770892 -0.14955446 -0.14897148 0.1460757 0.38890597 -0.010912954 -0.16311824 0.015135818 -0.36268649
넘 0.39280516 -0.06316787 0.016092086 0.13078932 -0.22566631 -0.114585295 -0.16204943 -0.23841928 0.12772943 0.0056457287 -0.27728 -0.03923108 -0.09647758 0.097178705 0.3020116 0.10896439
인데 0.024897737 -0.16613184 0.1522497 -0.046873897 -0.14360797 -0.095297135 -0.17832646 0.06170941 0.04223347 -0.05515182 -0.12171253 -0.120704636 -0.09607697 0.005365704 0.002980339 0.0036891387
이해 0.1874402 -0.14860773 -0.040310718 0.08097295 0.029143453 -0.10495084 0.014062135 -0.09927879 0.07957349 0.011584641 -0.2864464 -0.08077634 -0.23215744 0.010496501 0.17196427 -0.024343483
전 0.08973993 0.041162785 -0.07344026 0.1378529 -0.034886908 -0.10341127 -0.11554004 -0.14683025 -0.04083387 -0.019930804 -0.09361386 0.14665458 -0.0868546 0.069381654 0.09017561 0.24990812
별로 -0.50786865 -0.34973007 -0.6059324 0.25437382 0.18348405 -0.34274787 0.6637695 0.3103432 0.2568309 -0.23166086 0.27497327 -0.46205214 -0.50759125 -0.416979 -0.2366154 0.061176915
걸 0.056100845 -0.0038568187 -0.25367734 0.15686259 0.019334672 -0.03283132 0.09103044 -0.27511168 0.15891354 -0.08657458 -0.06652672 -0.084433615 -0.21643756 0.050446346 -0.115933806 -0.057106942
그리고 0.20242102 0.00087743887 0.15332295 -0.27931434 -0.003561751 0.21568725 -0.2519351 -0.16982815 -0.15594284 0.1481178 0.041413367 0.11322044 -0.041303217 0.051646203 0.24408388 0.25115258
명작 0.3219372 0.17575717 0.2250133 -0.23070209 -0.31358317 0.35717216 -0.14880413 -0.3150727 -0.18572472 0.20081678 -0.1742712 0.38532165 0.19163683 0.46618578 0.22548082 0.3651841
난 0.26425558 -0.05107523 -0.14278531 -0.17851734 -0.15724865 0.1209609 -0.08460767 -0.029469907 -0.11777404 0.07216825 -0.19517326 -0.2689426 -0.06152786 0.13659272 0.1753998 0.21201862
또 0.021417657 0.04652128 0.09867228 -0.18460453 -0.1368528 0.110741265 -0.078445375 -0.34439808 0.12803462 0.13874692 -0.012636362 -0.08727444 -0.04325334 0.059896097 -0.018722137 0.067281514
역시 0.09644767 -0.1068873 0.038472798 -0.15106802 -0.06371002 0.044393003 -0.10077463 0.052594982 -0.12674505 0.017907297 -0.1015227 0.0069466042 0.036178038 -0.016130758 0.22080462 0.2719604
여자 -0.13480225 -0.12350168 0.06383987 -0.01807831 0.07458899 -0.18173581 0.05970445 0.0971802 0.15033007 -0.14591926 0.09298281 -0.09182084 -0.0024721706 0.049742673 -0.23748493 0.071303226
한국 0.031504996 -0.11813138 0.16260114 -0.08221718 -0.050200142 0.0510551 -0.056899294 -0.051453404 0.039042663 -0.070918255 0.072673306 -0.11085432 0.05134446 0.32439354 -0.116476566 -0.029488795
이상 0.10267091 -0.09202002 -0.036646727 0.044344213 -0.03233707 -0.113182046 -0.20782964 0.07344639 0.04911151 -0.008694311 -0.09232514 0.026604109 -0.3440919 -0.026495038 0.0821524 0.08573904
는지 0.04154414 -0.18463899 -0.2214954 0.23995776 0.07331481 -0.0792147 0.073804945 0.058085553 0.10765809 -0.2620413 0.20166284 -0.03512452 -0.28085014 0.046099268 -0.072761714 0.036176443
많이 0.10599397 0.04056656 0.025903283 -0.001989598 0.0022607713 -0.08575713 -0.054493506 -0.20220295 0.11543938 -0.09520754 -0.32902783 -0.31610385 0.06394906 0.17348015 0.07786254 0.023235533
에게 0.10324433 0.16265726 0.049848396 0.24240586 -0.09248795 -0.15146504 -0.21707971 -0.06282621 0.009432105 -0.077826865 -0.16536218 0.060432214 0.06840148 0.09306233 0.030174615 0.06878396
부터 0.106552646 -0.0370961 0.033612777 -0.12652184 -0.051192034 -0.033685684 -0.06544908 -0.18395407 -0.09729108 0.1450423 -0.17600173 -0.23925866 0.018036678 -0.09886036 0.23152252 -0.03128303
주인공 -0.09064269 -0.02691398 -0.023624681 -0.13380253 -0.04094071 0.046391178 0.104247026 -0.14081867 0.059474673 0.11288644 0.0042659184 -0.0004499127 -0.25462294 -0.11100855 -0.019975744 0.13864763
받 -0.06472021 -0.15439731 0.010617513 0.039465077 0.054459788 -0.0013509031 -0.09990866 -0.010850129 -0.034730118 0.026588637 0.0955114 0.03371797 0.01591023 0.094562866 0.037786104 0.1432225
합니다 0.12010824 0.1843952 -0.20822333 -0.038761433 -0.044508904 0.016740572 -0.14126463 0.0010395586 -0.06454488 -0.1914262 -0.11197727 -0.018611174 0.1194619 0.16476095 0.164189 0.061439537
대 0.05883848 -0.21785867 -0.110848874 -0.021241028 0.16298173 -0.03025748 0.12789573 0.002547683 -0.14578576 -0.13183844 0.07804124 -0.15155706 -0.007820844 -0.036924634 0.0917284 -0.009387688
두 0.07923563 -0.026969494 0.0012071907 0.123651884 -0.055729017 -0.017452117 -0.1440774 0.06960398 -0.05859306 -0.12072095 0.045936733 -0.0553583 -0.031777427 0.0049353144 0.04025326 0.06811444
우리 0.2840389 0.21478622 0.120500766 0.035577763 -0.20631775 -0.03448098 -0.23404898 -0.24947724 -0.03518164 0.03684473 -0.28395662 0.31905606 0.121739514 0.23418087 0.0077477642 0.09776751
만든 -0.052017637 -0.08035618 -0.19927008 -0.29286626 -0.030395472 0.2340049 0.016583813 0.014888847 -0.03118157 0.13059692 -0.014913284 -0.14376597 -0.024253685 -0.21664603 0.18751417 0.20613018
길 -0.031697623 0.0013086876 0.038037155 0.19493937 -0.04570844 -0.12424096 0.087860584 -0.12198189 0.10570324 -0.13630772 -0.07880237 0.016475901 -0.19184168 0.10717276 -0.0097723 0.14804402
엔 -0.013540581 0.19116668 -0.107334584 0.026143791 -0.06239189 -0.1255908 -0.065657035 -0.14861798 0.005525434 0.15124686 0.11141498 -0.20421746 0.15441087 -0.08801196 -0.01880573 -0.04276992
살 0.114131615 0.39035076 0.48139998 -0.07487583 0.026540577 0.3635529 -0.42610702 -0.13893841 0.1476358 0.23036005 0.14791295 0.0037170497 0.062401563 0.08769072 -0.18871048 0.25553623
괜찮 0.069766045 0.3554666 -0.039732877 -0.27846915 -0.06732415 0.6026478 -0.1629293 -0.26131237 -0.36549464 0.2500141 -0.045757897 0.29743978 0.10287028 -0.16682166 0.287875 0.39486787
요 -0.12926744 -0.06219819 0.10597213 0.06508865 -0.006237201 -0.011734453 0.033423856 -0.11561159 0.11767072 0.083416075 -0.17767552 0.054551948 0.039148804 0.109025836 -0.021922791 0.14958575
기억 0.19305673 0.04717045 0.03516604 -0.09838604 -0.13138722 0.25147635 -0.13422383 -0.39945948 -0.06320137 0.012990159 0.003678402 -0.010854975 -0.07844293 -0.026139382 0.37611637 0.39506507
ㅡㅡ -0.101420805 -0.26594046 -0.22567463 0.2031072 0.16233318 -0.15799566 0.20787792 0.09226681 0.29411158 -0.30396384 0.17561746 -0.23341826 -0.34999704 -0.21767424 -0.2301405 0.0007287288
한다 0.14937142 0.019739157 0.11521931 0.105510175 -0.23779655 0.0050896895 -0.08667854 -0.30250648 -0.027818667 -0.010947036 -0.08094815 -0.12678164 -0.023118956 -0.022528615 0.036660295 0.20969994
연출 -0.035313454 -0.124277785 -0.16069815 0.18570559 0.18962933 -0.16003618 0.09000065 0.054457348 -0.20333008 -0.12955573 0.020503819 -0.31341133 -0.1482028 0.07004604 0.1189128 0.23888318
ㅎㅎ 0.22862957 0.041544132 -0.028634558 0.056840785 -0.16708604 -0.051464736 -0.08395175 -0.13134122 -0.11876318 0.0821755 -0.30084392 -0.017541604 -0.064449854 0.28197116 0.20894906 0.23633732
때문 0.017033305 -0.15813424 0.010544547 0.026935527 0.011854307 -0.10726826 -0.042767007 -0.121748045 0.035115443 0.16670631 -0.048700485 0.055335924 -0.22416958 0.005771853 0.11200324 0.12892503
저 0.20124646 0.25167644 -0.19931698 -0.004404769 -0.21793212 0.054973107 -0.11785025 -0.11599805 -0.30351254 0.05027148 -0.35822633 0.16593622 0.07530893 -0.007724072 0.5019689 0.060246903
이나 -0.094461866 -0.3016553 0.08092719 0.11009509 -0.12814763 -0.07682068 0.055844884 0.10871515 0.07052488 -0.36476055 0.12292124 -0.19395691 -0.18259849 -0.09262007 -0.007757228 -0.09747121
재 0.190296 0.09744475 0.08047498 -0.15534078 -0.2547368 0.38355285 -0.15659682 -0.36999625 -0.31011105 0.12536691 -0.2504114 -0.17619064 0.00048469557 0.06291169 0.11945093 0.32619515
꼭 0.40963823 0.41500273 0.65961957 0.010144418 -0.41231564 -0.10197573 -0.41543487 -0.4309553 0.30474615 0.043301005 -0.086915985 0.4598211 0.28066933 0.010637747 0.1905096 0.32276124
며 -0.014662756 0.04155339 0.070424944 -0.18908396 -0.062526405 0.0807653 -0.027663397 0.021571506 -0.074444145 0.014670628 0.01924563 -0.06906472 0.015904658 0.032472838 0.0128156105 0.045296244
현실 0.11620783 0.24289633 -0.15676253 -0.06832126 -0.21116406 0.06484871 -0.12474177 -0.14818437 -0.2948158 0.1195202 -0.22800973 -0.06458814 0.08370954 0.13477625 0.15462314 0.3931783
랑 0.09558109 -0.15417838 0.058174517 -0.0759202 0.01103368 0.13299665 -0.13525848 -0.03065163 -0.083312824 0.047453884 0.20996322 0.0057110563 -0.14668818 -0.15210603 0.1451253 0.15495603
긴 -0.05988735 -0.16356501 0.12866609 -0.016117737 0.0116870655 -0.030232633 0.10149952 0.10335587 -0.15619515 0.16028374 0.10294473 0.05516369 -0.09471138 -0.13651809 -0.23423214 -0.21150154
무슨 0.048542436 -0.2600636 -0.16914763 0.08197212 0.04265959 -0.21433683 0.23241973 -0.0804084 0.15151212 -0.15394965 0.051679537 -0.106662795 -0.41840824 0.016162852 0.03285726 0.034464527
내내 -0.0155835785 -0.28621215 -0.020854734 -0.10776404 -0.04740399 0.17454125 0.15721363 -0.13103826 0.006444581 0.056595713 0.0793506 -0.08315913 -0.2096289 -0.02751308 0.18582888 0.33628803
죽 -0.14812624 0.003753037 -0.001078086 0.0368505 -0.08493768 -0.09935932 0.13080145 -0.10797495 -0.15958148 0.17040047 0.043832865 0.13493773 0.0058426615 0.04855802 -0.2709847 0.30533195
결말 -0.046875425 -0.07588744 0.016628863 -0.037109617 -0.14371331 -0.040899027 0.005518898 -0.1732578 0.16048256 -0.07025858 0.13107671 -0.15079126 -0.09506745 0.012504852 -0.24833933 0.28929052
남자 0.0011331791 -0.28847095 0.06301736 -0.16939756 0.046647124 0.1050973 0.064890705 -0.04907647 -0.1962507 0.17166737 0.020157529 -0.051266786 -0.23613016 0.088649414 -0.039365392 0.11845765
전개 -0.13096786 -0.31462517 -0.16727754 -0.013860022 0.17297457 -0.081451744 0.12372393 0.0066390997 -0.10239789 -0.1685256 -0.17855875 -0.20496637 -0.22759746 -0.18271679 0.27327058 0.19526312
마음 0.15988131 0.025138982 0.087453276 -0.22046097 -0.4138172 0.1094736 -0.07853392 0.0059867986 -0.07646254 0.10982422 -0.20141815 -0.28720176 0.09957273 -0.07322013 0.09776359 -0.25822583
세요 -0.14487508 -0.01561272 -0.07632069 -0.07706548 0.22951578 0.06141099 0.0752642 -0.14884792 0.063918166 -0.08432028 0.06666624 0.036905784 -0.1266293 0.033537596 0.00804009 0.06417632
소재 -0.03253878 -0.25098604 0.08069769 0.07594617 -0.038001023 -0.21514876 0.21557333 0.028302563 0.032160994 -0.052692972 0.05224118 -0.13502772 -0.20561165 0.032026034 -0.10549677 0.046030533
속 0.1688232 -0.098941885 -0.026865315 0.14082836 -0.16936074 -0.09616521 -0.0235011 -0.14768703 0.029110558 0.038872298 -0.022556677 -0.12997456 -0.18368362 0.12910055 -0.099313416 0.22999394
아서 0.024321947 -0.15035614 -0.11103058 -0.03304583 0.059682433 -0.082987435 0.11677169 -0.206443 0.027177507 -0.080847755 -0.07703916 0.0016664608 -0.1733753 0.20570812 0.08594499 0.031570323
공포 -0.0051954514 -0.18524648 -0.14126715 0.106201686 0.15152656 -0.07830111 0.07826968 0.06276475 0.007579183 0.0050991895 -0.24192464 -0.18863125 -0.15577134 -0.11376538 0.22401151 0.027917279
데 -0.09976611 0.07637542 -0.1375279 -0.12629487 0.2584181 0.36680958 -0.0389551 -0.057745032 0.13786545 0.033619005 0.15654233 -0.23423 0.11250846 -0.15801084 0.010990063 -0.051695168
다른 -0.03432865 0.05244172 0.05487573 -0.15619875 -0.13588616 0.15136258 -0.019944858 0.0140261445 0.07216511 -0.10634806 0.03467724 -0.005977492 0.14214557 -0.04250456 -0.25455084 0.18221848
인생 0.17817493 0.6676637 0.22324845 0.06372876 -0.24179038 0.074964024 -0.24808818 -0.19107692 -0.2681397 0.31196326 -0.023845665 0.13883872 0.66761345 0.14747353 -0.043640133 0.055143148
씨 -0.07124445 0.07818352 -0.057205215 -0.06459294 -0.03412622 0.15177502 -0.034451034 -0.045422886 0.07516209 -0.18328692 0.122719444 -0.18703751 0.08169094 0.0692632 -0.16532117 0.2138334
짜증 -0.5019363 -0.4439912 -0.246993 0.27348113 0.4523604 -0.28305992 0.4106875 0.17739248 0.40305993 -0.38928688 0.33062512 -0.30809954 -0.41810685 -0.3627858 -0.14762767 -0.052972738
뿐 -0.08327418 -0.16372308 -0.035659466 -0.054287788 0.25260156 -0.1382876 0.11455689 0.10243337 0.13592996 -0.0892106 0.1950419 -0.11647861 -0.19804567 -0.10991215 0.0091569 -0.025340416
짱 0.38386005 0.2803465 0.0068337834 -0.11775303 -0.018580988 0.32537657 -0.6102175 -0.24605815 -0.21269076 0.11947911 -0.12354184 0.20080155 0.20088315 0.26277775 0.25281096 0.28525078
은데 0.11493521 -0.13654348 0.31774318 -0.25996655 0.011850554 0.08248902 -0.12141302 -0.12632677 -0.059177052 0.29346624 -0.09872186 -0.04472016 -0.025430072 -0.0060464195 -0.084176816 -0.20122506
아요 0.06192583 0.15716152 0.09469966 -0.18726195 -0.25154668 0.09741931 -0.13919851 -0.26205838 0.1341653 -0.034630474 -0.05106923 0.02871075 0.07841304 0.2332236 -0.064992964 0.1848478
아이 0.08971099 -0.17574309 0.20284085 0.10738657 -0.19131699 -0.09743974 0.05230829 -0.21515496 -0.00753388 0.11580883 -0.10960553 0.0922133 -0.21099375 0.10361806 -0.037919786 0.17806011
필요 0.1390881 0.269154 0.13984662 -0.5346646 -0.37325191 0.5414874 -0.2507716 -0.013558256 -0.53799653 0.2242087 -0.035419792 -0.06955118 0.36420235 0.33444923 -0.29792657 0.35334396
유치 -0.24297795 -0.16058075 -0.48054567 0.35332423 0.04082527 -0.2652533 0.3344633 0.036382597 0.17159487 -0.29909912 0.26794901 -0.61484915 -0.3415119 -0.24973692 -0.059911616 0.19325858
가장 0.10661079 -0.000387427 -0.057360914 0.053118132 -0.06759667 -0.044198178 -0.07943913 0.03278962 -0.05412197 -0.17136477 -0.013842702 -0.39818645 0.17388137 -0.0883903 0.19630615 -0.03004907
음악 0.28346455 -0.0041036652 0.23358817 -0.07083453 -0.2468044 0.03034636 -0.23656729 0.049487635 -0.08283706 0.08389864 0.17501405 -0.148443 -0.09861129 0.43336943 -0.12297398 -0.03518657
일본 -0.008302289 0.17166537 -0.08555552 0.16956986 -0.0241466 -0.106879786 0.0006783151 -0.18980223 0.036043707 -0.024412397 0.17673819 0.092095226 0.0013637524 0.09187368 -0.19326739 0.23459117
낮 0.1120353 0.3596674 0.23749876 -0.25716096 -0.4478582 0.14302869 -0.05372716 -0.49068257 -0.3357919 0.07633117 -0.36881012 0.36362925 0.13820757 0.6317494 -0.08997544 0.8531525
오 -0.050804112 0.042166565 -0.12675142 -0.16281335 -0.11801097 -0.048617978 0.07122996 -0.005880485 -0.14066441 0.070720054 -0.061540443 -0.10472384 -0.011424904 0.09436427 0.0010247027 0.121527955
반전 0.16367494 -0.18443659 -0.01862053 -0.23906653 -0.02118537 0.09094495 0.00050747313 0.030358396 -0.13034111 0.09553419 -0.22900346 -0.2522935 -0.15075119 0.05622966 0.24916717 -0.011398986
수준 -0.20729697 -0.08117886 -0.31793293 0.0016421246 0.22216122 0.059425253 0.34472737 -0.038134776 0.1797987 0.02035722 0.3487699 -0.31016347 -0.39647514 -0.053905938 -0.17627022 0.17020664
웃 0.12749295 0.2810276 0.016258368 0.032264397 -0.12168277 0.0020788566 -0.15851493 -0.0119213145 -0.17611402 0.22719313 -0.07503142 -0.18079844 0.21742962 -0.20003778 0.16826478 0.09105312
다니 0.16280565 -0.53977686 0.13852008 0.015978592 -0.06382395 -0.028773002 0.0040105907 -0.14788152 0.04557352 0.01836279 0.15157722 -0.2106775 -0.30580208 0.1856933 -0.25812694 -0.057900716
매력 0.35722572 0.3335604 0.18119076 0.01257042 0.0798463 -0.00905542 -0.5752534 -0.090831056 0.083535194 0.07824024 -0.23188052 0.34011447 0.17735624 0.1976268 0.2669635 0.07024019
별 -0.24839516 -0.085386924 -0.1900855 0.05537082 0.03481497 0.08208613 0.019093273 -0.029178808 0.19556692 -0.06983509 0.2545675 -0.27093488 -0.27195296 -0.17836347 -0.25727907 0.36079228
인지 0.023509981 0.01221392 -0.17965424 0.070679955 0.0745188 -0.034901056 -0.095372215 0.013597892 0.14732155 0.028855896 0.09433209 -0.101209566 -0.20239255 -0.037023965 -0.21921752 0.10302123
맞 0.0057161637 -0.18962122 -0.22254972 0.09921785 0.08435827 -0.012955589 0.109435625 -0.11803558 0.022626366 -0.25164863 -0.1725902 -0.102642074 -0.10714082 -0.08034165 0.17871927 0.051220827
가슴 0.28033927 0.17959182 0.24071103 -0.18000063 -0.11093947 0.196632 -0.3230908 -0.19339958 -0.03583849 0.21405226 -0.17925249 0.19824277 0.01674587 0.26967758 0.1316208 0.2876617
없이 0.08079877 -0.07511463 0.040637266 0.063727334 0.11005216 -0.14027853 0.016201692 0.06566071 0.07387164 -0.0031046378 0.10728346 -0.073573396 -0.0979612 0.05989008 -0.031204654 -0.06380329
원작 -0.011943355 0.20059249 -0.21412517 0.34941885 0.12275595 -0.18486935 -0.10800046 -0.078767784 0.009570702 -0.16497898 0.21224062 0.00445485 -0.02119351 -0.12188012 -0.02807837 0.05628618
인간 -0.043276712 -0.052703977 0.003756616 -0.13251728 -0.2416467 0.25621966 0.07764075 -0.32935593 -0.14131773 0.43319663 -0.087009616 0.040753774 -0.06960746 0.018585578 -0.009312957 0.102911815
굿 0.40486425 0.14035769 0.26803598 -0.33269432 -0.37611187 0.17870024 -0.042625085 -0.37133 -0.34448797 0.35022816 -0.49134704 0.3389493 0.059004556 0.3909096 0.44050908 0.41037172
높 0.048867624 -0.36688572 -0.07218767 -0.064088 0.3331647 -0.09122481 0.19884603 0.11159124 0.20485455 -0.121702634 -0.18779045 -0.66328627 -0.23578964 -0.31553823 0.15095076 -0.10977641
ㄷ 0.06344743 -0.0072472547 -0.0028929443 -0.0047938777 -0.17100255 0.008326931 -0.12814991 -0.00038778156 0.0038561632 -0.17441508 -0.100436084 -0.025157126 -0.031967085 0.0045300834 0.122548684 0.028709298
밋 0.26397038 -0.08615314 0.11450096 -0.15004574 -0.30572355 0.14289322 -0.091101915 -0.14254946 -0.3030657 0.077003084 -0.27520534 0.113906726 0.008299087 0.13419186 0.26398778 0.064871445
만드 0.07481535 -0.12881176 0.07765676 0.2315579 0.011600465 -0.17808118 -0.06821232 -0.22695255 -0.14430492 0.030247746 -0.4855295 -0.07494439 -0.1417595 -0.22684626 0.29699564 0.35554725
눈물 0.3218136 0.23005654 0.2251976 -0.22712316 -0.3241533 0.27407905 -0.30795434 -0.41209295 -0.1203045 0.2964223 -0.3027471 -0.07642106 0.23394619 0.18025953 0.17253229 0.36277208
급 -0.06107453 0.020328123 -0.21643357 0.09909621 0.2151252 0.026246613 0.026538895 -0.093021676 0.0646959 -0.40386552 -0.046984497 -0.24147965 -0.0032424633 -0.015503462 0.055897526 0.18736118
보여 0.114312746 -0.39518434 0.09679886 -0.0451712 0.059566867 0.050795637 -0.050266694 -0.1380853 -0.027231755 0.045127213 -0.00974163 -0.21731804 -0.21486871 0.025213825 0.34431577 0.23564076
준 0.056415852 -0.11096637 -0.10564173 -0.08667937 -0.1298097 0.10501019 -0.06670452 0.12177933 -0.36387762 -0.06483174 -0.05707042 0.026887741 0.0671973 0.17403653 0.044932246 0.17628321
찍 0.0054222876 -0.34276986 -0.14978798 0.050097536 0.30365422 0.047905095 0.07946658 0.061558597 0.14327618 -0.18962006 0.24761736 -0.38118723 -0.3330881 -0.050498806 0.23295668 0.2556359
인가 -0.0029662584 -0.23877935 -0.14249994 -0.100074805 0.14617978 7.1962786e-05 0.14421053 -0.0635493 0.08808805 -0.050282795 0.00797222 -0.027470453 -0.20624444 -0.0039774585 0.037466496 0.01701792
노 -0.6720737 -0.13524972 -0.17548701 0.32498282 0.26371428 -0.57936037 0.3526346 0.16930284 0.70128864 -0.16599745 0.4280048 -0.19815177 -0.56194687 0.08776107 -0.64606005 0.379599
코미디 0.04534376 -0.022427442 -0.14859314 -0.017929858 0.2749533 0.086862914 0.080187075 -0.18382424 0.24361873 -0.000271177 0.079042025 -0.18300188 -0.10147635 0.013103139 0.06938144 0.0072259554
신 -0.123092145 -0.03410638 -0.18988544 0.07228177 0.03128777 0.15081362 -0.12618339 -0.06693674 0.0043010153 -0.17758936 -0.14927551 0.27685744 0.09844216 0.3591775 -0.13298544 0.32273182
용 -0.04384664 -0.021722246 -0.18624541 0.0048752623 -0.047208875 0.015440084 0.035244897 -0.26630527 0.100808404 -0.16046767 0.14635776 -0.024267865 -0.2404986 0.04870431 0.008479935 0.21852307
모든 0.18890384 -0.12652998 0.064504795 -0.1336126 -0.05336506 0.08691578 0.04615119 -0.2895616 0.08345741 0.09254598 -0.18444446 -0.010498388 -0.11864771 0.05115123 0.37678874 0.083107926
마 0.16441037 -0.09804191 -0.07690436 0.04050417 0.009357887 -0.0794154 0.0043333736 -0.20689723 0.22007506 -0.061185274 0.022866677 -0.18763702 -0.3219081 0.28737816 -0.037092775 0.06079083
화 -0.095461294 0.02982096 -0.17891936 0.058719024 -0.064201675 0.12422845 -0.097046874 -0.1778904 0.21065381 -0.28239208 0.09589717 -0.0782599 -0.14356646 0.07802513 -0.18706293 0.2984449
추천 0.15359531 0.09427234 0.2998461 -0.16059329 0.047712404 0.26008964 -0.14644341 -0.26800147 -0.061850566 0.45286888 0.0014300125 -0.087981455 0.13478895 0.108880736 -0.018022077 0.2825131
아직 0.03926478 -0.04416661 0.19199955 -0.094375364 0.011531151 0.055020694 -0.15822506 0.06421947 -0.006202625 0.14429553 -0.055057384 0.37704462 0.006076178 0.16494784 -0.0014657413 -0.090015605
아닌 0.076708235 -0.23381105 -0.30027488 0.34603345 0.21641715 -0.21109849 0.006991734 0.21596715 0.2592905 -0.31180653 -0.0701634 -0.20857094 -0.25990102 -0.2310192 0.039385993 -0.19614099
처럼 0.073240206 0.055971373 0.045022324 -0.01423001 0.07514785 0.25852522 -0.24532992 -0.25315747 0.017378015 0.096673965 0.009844421 -0.03338597 0.011397219 -0.10900355 0.1697822 0.108495824
쓰 -0.1915432 -0.2098345 -0.13894647 -0.09642958 0.099670656 -0.05628952 0.24033798 -0.056587264 0.11167051 -0.08525291 -0.09564501 0.030557513 -0.15407869 -0.040174592 0.050084453 0.14342417
눈 -0.18483624 0.16367427 -0.0004742895 -0.069313936 -0.03895061 0.3189795 -0.0506769 0.019994134 0.17372535 -0.15654308 0.1039764 -0.23839532 0.09499647 0.13396704 -0.5171139 0.046470597
자체 0.1241879 -0.1622148 -0.03451381 0.08967868 -0.19611727 -0.12663409 -0.034606397 -0.12846906 -0.053461242 -0.048080854 -0.3607874 -0.17363432 -0.3481346 0.08138677 0.21632035 0.24459523
울 0.21526049 0.17019448 0.3098663 -0.23072207 -0.23259936 0.17778338 -0.2289646 -0.21044032 -0.09593816 0.18371601 -0.31484893 0.31373873 0.13277383 0.2619665 -0.026872873 0.22271383
몰입 0.6358864 -0.14556354 -0.037024062 -0.22216849 -0.15339285 0.16216946 -0.45443058 0.13994451 -0.19265956 0.18094543 -0.053801194 -0.31561095 -0.0848283 0.35480016 0.43015218 0.2875918
대박 0.39679855 0.25660384 0.24176112 0.043148473 -0.37045982 0.10105093 -0.35797906 -0.36828622 -0.44165483 -0.01160405 -0.3840766 0.33883846 0.21061018 0.49263903 0.19033356 0.479905
란 -0.044821516 -0.0647254 0.11260225 -0.08836769 -0.07796299 0.029490815 -0.01675809 -0.063458286 0.11474954 -0.004418854 0.07358178 -0.08934014 0.13837525 0.07410025 -0.06092309 0.006931466
스럽 0.037604224 -0.20304383 -0.0579347 0.07354919 -0.15069328 -0.027836038 0.16027653 -0.14728943 -0.09975636 -0.0058438824 -0.25762627 -0.23665626 -0.16052248 0.16278273 0.06418086 0.1369605
몇 0.028379781 0.05471699 0.32739726 -0.014445664 -0.13537237 0.12099019 -0.29945827 -0.32518566 0.042331308 -0.04623706 0.07533025 0.18467122 -0.072237566 0.07550386 -0.23616375 0.4462281
을까 0.12506579 -0.041882314 -0.07458582 0.073687 -0.018878315 -0.04644763 -0.039621703 0.13530552 0.17903149 0.0016981527 -0.050716337 -0.06597189 -0.11636275 -0.08591565 -0.028306292 -0.12025037
실망 -0.34137556 -0.6274989 -0.36681792 0.1760181 0.2314142 -0.36538562 0.6366271 0.2645913 0.7783733 -0.6704141 0.42347398 -0.45610532 -0.80301535 -0.122088596 -0.4157468 -0.08807271
대한 0.19346952 0.0020369457 0.12616152 -0.23998939 -0.03885662 0.15549977 -0.25735402 -0.17653377 0.0005245871 0.06133674 -0.013906546 -0.035544407 0.021250319 0.07890212 0.021235058 0.14937524
는다 -0.13164578 0.019885471 -0.0015509472 -0.1557715 0.15327622 0.13033074 0.065233484 -0.21847151 -0.12107845 0.24726552 -0.27813882 -0.09899077 0.05707869 0.2181154 0.07082144 0.047570713
여 -0.14600135 -0.045713965 0.029433126 0.046502586 -0.1909435 0.07499549 -0.11622377 -0.13019148 -0.018567823 -0.19548751 -0.072910085 -0.16708206 0.10039644 -0.021711366 -0.062305704 0.11485487
그런 -0.081417404 -0.045540866 0.046856053 0.10700321 0.045006014 -0.16078067 0.07281896 -0.18499777 -0.10309254 0.057580978 -0.0548124 -0.0824047 -0.03296364 0.271128 -0.047390476 0.16318779
죠 0.1771433 0.1659296 -0.02338084 -0.10753971 0.085194655 0.08560639 -0.09330322 -0.12970664 -0.0007998592 -0.047372233 -0.032928426 -0.076643944 0.11135401 0.0407369 0.18313771 0.043529857
솔직히 -0.046780758 -0.17018291 -0.094309114 -0.042841222 -0.043333627 -0.006116117 0.19999179 -0.17462334 0.111500256 0.1673946 -0.091264665 -0.4363157 -0.24642462 -0.13903004 0.1224129 -0.122574486
캐릭터 0.21277386 -0.15525052 -0.13412781 0.0064074285 0.2244974 0.09087523 -0.044879656 -0.19223657 0.12874912 -0.08380652 -0.1302391 -0.15169394 -0.21897939 0.09104261 0.17166582 -0.01959139
아주 0.03784758 -0.06957585 0.04802454 -0.05940643 0.060475245 -0.0079619 -0.15335055 -0.06702841 0.17070326 -0.12355541 0.05387385 -0.19532396 -0.05113748 0.003914688 0.06923263 0.023183629
모두 0.18805084 -0.18627538 0.23980585 -0.1641681 -0.20592271 0.057158437 -0.25359306 -0.25369698 -0.033572536 0.1810731 -0.1743674 0.04450708 -0.21265182 0.053443544 0.27651262 0.17261158
전혀 -0.26131678 -0.48504347 -0.07066392 0.06994426 0.2446029 -0.12177576 0.15432733 0.27384835 0.1963442 -0.33242542 0.56676406 -0.0972228 -0.3399909 -0.34663895 -0.25604168 0.11445425
가족 0.16854201 -0.008890444 0.06921232 -0.10221676 -0.041838102 0.12628321 -0.28126556 -0.098650634 0.029756604 0.053255808 -0.35779646 -0.01390141 -0.16595016 0.07251184 0.24238749 0.035532918
여운 0.571605 0.18933287 0.31656688 -0.4454712 -0.057793166 0.39698717 -0.34564403 -0.51521647 -0.025933934 0.1313798 -0.42626828 0.3017995 0.17647779 0.75959927 0.37137035 0.82820183
건지 0.11487482 -0.1564872 0.06970399 0.068279184 0.123964295 -0.17668311 0.09844597 -0.099368446 0.4030262 -0.30139658 0.14114718 -0.17322981 -0.4385704 -0.11961631 0.01132186 -0.031180581
연기력 0.0453349 -0.124542296 0.018750679 -0.02350688 -0.10256691 0.03783612 0.1533019 -0.2189603 0.17177609 0.074236415 -0.08586274 -0.087265976 -0.15617846 -0.07330665 0.10941464 0.050306212
될 0.1353638 -0.06761717 0.026706181 0.05208856 0.08756256 -0.23281398 0.04528238 0.025075817 -0.04465473 -0.025035258 0.22280769 -0.17003134 0.101839975 0.027689487 0.024424132 -0.043913197
다면 0.040190436 -0.038149737 0.034413822 0.20769057 -0.091513745 -0.19629484 -0.007940425 0.009720153 0.13173133 -0.19136931 0.053153466 -0.08053013 -0.15429822 0.115541585 -0.20930412 0.13145404
뭔가 0.09052958 -0.11160634 -0.029573245 -0.17085057 0.08936112 0.049280662 -0.12015994 -0.0122204 0.027991606 -0.11563227 0.069463335 -0.09748175 0.03772584 -0.01562029 0.25850278 0.19275941
그래도 0.14303713 0.33540127 0.010085681 0.085509926 0.097820304 0.26673132 -0.3314245 -0.16782449 -0.20912075 0.12551048 0.06532566 0.24812911 -0.10968763 -0.06335276 0.12559418 0.22431344
후 0.026461314 -0.04860736 -0.30138814 0.28586566 0.02550941 -0.13595943 -0.26625323 0.0995693 0.20535609 -0.1323063 0.3333363 -0.054957636 -0.22853598 -0.09957611 -0.20062616 0.04910158
나라 -0.13073596 -0.11559081 -0.15866035 0.0066106035 -0.08106114 -0.00016196645 0.17244074 0.064141974 -0.14348672 -0.029382665 0.20441698 -0.1608506 -0.0050421706 -0.26723388 0.012417776 -0.14958572
시리즈 0.10662964 -0.13779163 -0.10376643 -0.02531083 -0.09227499 0.08617254 0.020193227 -0.063501224 -0.086996675 0.045162044 0.014890071 -0.14327502 -0.10883621 0.37942132 -0.13422023 0.19264115
ㅎ -0.08713635 -0.022612069 0.15089978 0.13599467 -0.08991087 0.08147506 -0.10370638 -0.15355836 -0.027867375 0.10096486 -0.10236328 0.089887634 0.014351617 0.26574185 -0.08010287 0.31149283
근데 0.11290317 0.19134861 0.12646444 -0.13159296 -0.26808426 0.27502733 -0.18841071 -0.23808399 -0.20911369 0.24927638 0.024557583 -0.13691774 0.176497 -0.016992649 0.033398144 0.100605346
표현 0.25443384 -0.05241948 0.36706978 -0.17265107 -0.10459033 0.19619128 -0.38398287 -0.19763899 0.05822219 0.24357629 -0.007574801 0.2845799 -0.13232586 0.1973686 0.03860264 0.15114999
모습 0.15728477 0.118557155 -0.13509339 0.12546362 -0.17851874 -0.12755741 -0.2078396 0.034709133 -0.07307917 -0.17462341 0.059743777 -0.020729035 0.0041604484 0.1325374 -0.08429711 0.20320445
계속 0.1447757 0.024566904 0.099830784 0.054144647 -0.023408571 0.04634325 -0.23955216 -0.39253038 0.30689457 -0.17070688 -0.25856018 -0.05551897 -0.07369232 0.11146035 0.18118714 0.4409344
작 0.069523335 -0.0855044 -0.22332263 -0.26907486 -0.20412147 0.11194782 0.25175416 -0.071258135 -0.35604396 0.13540779 -0.20834105 -0.25686124 -0.0048951055 0.3052439 -0.016838918 0.11164428
공감 0.20156753 -0.18854043 0.25190854 -0.20915024 -0.03515825 0.17566471 -0.10017708 -0.1378778 -0.04986144 0.07597683 -0.3011287 0.03056532 -0.176907 0.0347144 0.43319285 0.16198847
먹 -0.11848471 -0.27619982 -0.029313453 -0.068947166 0.13216406 0.004675071 0.05216634 -0.083022214 0.031026606 -0.07787841 0.14804004 -0.23218276 -0.19408228 0.006989 -0.1397826 -0.009574161
제목 0.053502854 -0.20933951 -0.011841686 0.18273844 0.0008948925 -0.13371186 0.022516608 -0.13134114 -0.06587038 -0.0067005004 -0.016179077 -0.017189609 -0.181316 0.38756642 -0.26140007 0.30754408
비 -0.18677045 -0.26095554 0.038936283 0.049398776 -0.121374145 -0.34091988 0.3513168 0.06370095 -0.1483604 0.26149955 0.112536296 -0.14002219 -0.12650321 0.038000543 -0.12427375 0.21269788
이랑 0.004760688 -0.28938627 -0.2089991 -0.0023453126 0.05837089 0.024773413 0.09355439 0.015159611 -0.042123135 -0.069589674 -0.021694984 -0.67327577 -0.22028212 -0.1615749 0.059787396 -0.14950456
극장 -0.075863816 -0.07534726 -0.034652077 0.13945138 0.069123805 -0.12119867 0.22124748 -0.03504822 0.1272994 0.028667696 -0.026565364 -0.042766076 -0.19487275 -0.029760947 -0.032873694 -0.084572524
치 -0.017476298 -0.13855055 -0.12027731 0.08770398 0.070243165 -0.04731813 0.14294057 -0.14768055 0.2641784 -0.1809294 -0.07699003 -0.48161054 -0.27465624 -0.0901922 0.06658404 -0.122616544
이걸 -0.2047464 -0.20270182 -0.30416465 -0.09700535 0.17683373 0.10137767 0.4042615 0.026928095 0.16106525 -0.09472741 0.22592086 -0.3834491 -0.08990791 -0.049920205 -0.04143942 0.16085137
부분 0.036403064 -0.059697915 0.008206841 0.04956526 -0.12680648 -0.16457151 -0.03939843 -0.107283294 -0.12916069 0.110470034 0.18220213 0.11452573 -0.055925064 0.04357631 -0.2598033 0.12847915
그렇 -0.28761795 -0.28424984 -0.31499723 -0.022669382 0.07009959 -0.030013114 0.25765863 0.10936749 0.28655696 -0.5406507 0.12338563 -0.35492095 -0.13978475 -0.08243154 -0.22252792 0.084933996
대사 0.014332866 -0.05977217 0.058989987 0.14293452 -0.109349385 0.031384423 0.16067651 -0.3548747 -0.15881072 0.09550125 -0.1650069 0.013809369 -0.36865816 -0.064487346 0.2095433 0.33265546
바 -0.071162224 -0.16737299 -0.38354993 0.040744018 0.09750361 0.13751085 0.13790876 -0.062415935 -0.053572886 -0.03657705 0.31120548 -0.24702416 -0.09324895 0.09816095 -0.13720055 0.4066878
대단 0.24598134 0.10803172 0.25327927 -0.29420742 0.0005459066 0.11390696 -0.20874488 -0.17802058 -0.053061236 0.09734232 -0.36282387 0.11600613 0.13575886 0.16962883 0.16888714 0.10892356
어디 -0.045968425 -0.24055223 0.13544789 0.16047004 -0.10477339 -0.18933952 0.0343642 0.03903831 0.14183484 -0.069900796 0.16810481 -0.04237275 -0.21814257 0.09318441 -0.3136938 -0.1264026
개봉 -0.06218377 -0.15117615 -0.21507727 -0.0006511713 0.061204243 0.0032269014 0.21473613 -0.007929587 0.12360551 0.09571374 0.029308982 -0.15995002 -0.12654912 0.042464305 -0.069732524 0.16052207
진 0.17991042 -0.073933706 -0.10017876 -0.3001811 0.09015172 0.17845057 0.13272224 0.17577398 -0.25583693 0.2598015 -0.20526342 -0.197929 -0.10503876 0.060928944 0.2948618 0.013767809
아쉽 0.10151362 -0.034972876 0.25936168 0.20062943 -0.19512574 0.004336821 -0.318309 -0.081825554 0.32301226 -0.23622322 0.098813176 -0.058022566 -0.024361255 0.20688002 -0.3127232 0.19457875
된다 0.27674246 0.25976375 -0.05864859 -0.20254216 -0.24484958 0.0515588 -0.17594996 -0.13022925 -0.054256238 -0.15687229 -0.18490838 -0.07476102 0.1055976 0.23865072 0.23375617 0.120198034
기분 0.061003525 0.03347813 -0.056716766 -0.024862632 -0.009395043 0.12053273 -0.11344372 0.029009607 0.20236899 -0.15500286 0.13740827 -0.33346656 -0.2372311 0.19010368 -0.08498997 0.32189882
작가 -0.16678567 -0.18827341 -0.27829057 0.11937458 0.053994834 -0.1879048 0.29356435 -0.020830983 0.019251514 -0.21011078 0.063680686 -0.42748085 -0.25423557 0.031970263 -0.019023435 0.20520158
진심 0.0661295 -0.033311978 0.13335311 0.03938755 0.117389016 0.005394332 0.043360483 -0.09423659 0.04727663 0.26576048 0.08040836 -0.1355414 -0.24487394 -0.016683443 -0.07169296 -0.10096209
구 0.055001188 0.1070126 -0.12172062 -0.22437772 -0.106077716 0.27740958 -0.05607109 -0.40621036 0.018138217 -0.081117645 -0.016332813 0.028364215 -0.17251797 0.06545574 0.11365401 0.21825026
해도 -0.15847948 0.0059946813 -0.3064321 0.25414798 0.014983277 -0.121058255 0.16567753 0.05303311 0.37185144 -0.0041491534 0.0635503 -0.43762755 0.008477251 -0.4023418 0.062205706 -0.28201264
놓 0.0027503788 0.028342538 -0.05639396 0.07781862 0.03818117 0.036831267 0.04041599 0.23584439 0.042255625 0.02160913 0.032745633 -0.10285631 -0.045837037 -0.16528976 -0.12762994 -0.2672554
타임 -0.084494576 0.050194092 -0.11321129 -0.012778938 -0.104751594 0.033085674 -0.212538 -0.031022094 0.004145745 0.026610758 -0.16679867 0.14776821 0.0011030796 -0.02972724 0.08099006 0.09466691
봐야 0.149668 0.16622627 -0.010780953 -0.18836297 -0.36167395 0.2684471 -0.25577238 -0.09365132 0.05216416 -0.03814638 0.053997587 -0.3719705 0.20730352 0.035437383 -0.085113 0.01423493
제 0.14426059 0.053426176 -0.282004 0.18856421 0.042986024 -0.27399743 -0.115875795 0.12011871 -0.241163 -0.0047295378 0.12859757 0.021515934 -0.08192548 -0.17097674 0.21543348 0.051815752
보이 0.122246705 -0.09902991 -0.18249981 -0.17942336 0.031369016 0.25907534 0.0014663873 -0.10665697 -0.109091535 -0.05392108 -0.14037904 0.04996914 -0.12680714 0.03212527 0.15062183 -0.09290506
웃기 -0.08833492 0.12535532 -0.061860684 -0.006362372 -0.1008722 0.24316815 0.013735436 -0.2780484 -0.46485975 0.1349643 -0.19827524 -0.04534407 0.021205775 -0.18817721 0.3634981 0.33966127
막장 -0.30213565 -0.31411174 -0.35714373 -0.113225676 -0.0063907523 -0.24568713 0.53175426 0.12938361 -0.010220205 -0.18643372 -0.03570225 -0.56769943 -0.16698895 -0.043806106 -0.2532944 -0.07966146
삶 0.35726115 0.18949355 0.24686809 -0.31226647 -0.18665504 0.27724817 -0.2540043 -0.05789437 -0.29481405 0.23864011 -0.09388739 0.022078255 0.19946812 0.22842368 0.23115474 0.18026398
물 0.07142199 -0.1349418 -0.3167609 0.2083571 0.13906585 -0.16421783 0.13955382 -0.1294629 0.016324844 -0.16984808 -0.29783726 -0.29668173 -0.24345064 -0.019031335 0.25885928 0.120969675
친구 -0.04523908 0.19617349 0.2025336 0.093397304 -0.02766612 0.18292937 -0.11622866 -0.14054403 0.06312505 0.19354203 0.07896193 0.2897138 -0.0563471 0.047432687 -0.17685126 0.14051388
잔잔 0.2074647 -0.19897835 0.044725623 -0.14963104 -0.2360255 0.09675174 -0.040685646 -0.18098982 0.08661508 -0.038145903 -0.16056293 -0.246219 -0.16021301 0.44212776 0.010545976 0.2539602
이제 -0.000311904 -0.014312263 -0.14013249 -0.07450011 0.15551585 0.25697523 0.043514207 -0.0800238 0.4883042 -0.15074515 0.36860788 -0.36189204 -0.047380466 -0.081142105 -0.24198458 -0.072152734
조금 -0.003996035 -0.069286995 0.09674616 0.15558921 -0.27470183 -0.12816414 0.10310355 -0.0605582 0.0051321425 0.0088968 -0.19209954 0.075823694 -0.032342173 0.12379684 -0.16179456 -0.06971917
억지 -0.40631837 -0.402742 -0.46783704 0.38814375 -0.043367907 -0.41159752 0.6632489 0.11033229 0.34258124 -0.50262094 0.009286392 -0.58405364 -0.6607563 0.03721969 -0.4190424 0.1405295
가지 -0.013015414 -0.08486995 -0.1654935 -0.081110455 -0.025765808 0.11689633 0.20295916 -0.01215816 -0.070705704 -0.12628883 -0.11355491 -0.19716589 -0.06717328 0.080266066 0.06706082 0.15874118
ㅠ 0.03211791 0.032760896 0.22295192 -0.025475591 -0.36210328 0.04230702 0.04136093 -0.28001642 -0.1851346 0.15302236 -0.30637157 0.056244407 -0.08133325 0.35185412 0.0058499877 0.35428143
영상 -0.09168593 0.058891833 0.00791955 0.02708238 -0.09827537 -0.0833122 0.16582221 -0.17012428 -0.06274879 0.2505439 -0.03949819 -0.045589946 -0.099327564 0.15299173 -0.012028916 0.1951883
찾 0.2541355 -0.0387005 0.0077037686 0.057050698 -0.13543884 -0.002482451 -0.26858333 -0.22764863 -0.23738964 -0.01800219 -0.23097955 -0.06339361 0.032151926 0.09379756 0.20501399 -0.030890562
라도 0.0352981 -0.2279212 -0.031502716 0.23793797 0.10390369 -0.019662526 0.12308149 -0.039880175 0.13159572 -0.1402385 -0.023980465 -0.114161655 -0.17371853 0.08183534 0.04499731 0.022747079
씬 0.06336633 0.10032706 -0.07411934 0.105811745 -0.041161034 0.09990172 -0.10956182 -0.014704626 0.04168173 -0.009793546 0.11607521 -0.15374196 -0.032553244 0.07434127 0.033478174 0.12439908
딱 -0.043047942 -0.0002803282 -0.26348844 0.16961633 0.048155326 0.0873519 -0.012779575 -0.13378818 -0.14593843 -0.10837244 0.120442465 0.044400215 0.0052725994 -0.08655808 -0.046445966 0.32532427
요즘 -0.08569296 0.024536818 0.20179005 -0.054074973 -0.44921574 -0.047508158 0.15168501 -0.027169967 -0.07421203 0.28636998 -0.0820422 -0.2699518 -0.021007247 0.26660687 -0.40771884 0.039106324
같이 0.24497211 0.17980914 -0.06522897 0.12058575 -0.09766526 -0.025363477 -0.29237992 0.035583783 -0.0712953 0.07396036 0.10770712 0.047479402 -0.03442731 -0.08546303 0.054604188 0.009636059
스릴러 0.15838718 -0.0540892 -0.16224709 -0.02618449 -0.06699195 0.07844248 0.030408127 -0.16715018 -0.1658613 -0.03156724 -0.31173244 -0.29660034 -0.013697232 0.24286646 0.1688389 0.23266217
믿 0.18841292 0.041550048 0.10947146 -0.10846284 -0.104673944 0.077106856 -0.08465884 -0.19036597 -0.2389571 0.0856498 -0.16999842 -0.048237555 0.18760024 0.13154498 0.117984794 0.3147262
싫 -0.17698604 -0.15007941 -0.3671003 0.3671679 0.064193346 -0.39256877 0.27494952 0.13335751 0.10609045 -0.3729524 0.05003576 -0.240411 -0.33159497 -0.0770499 -0.15803388 -0.23153253
나왔 0.114713676 -0.060859844 -0.10101536 -0.008617273 -0.043939505 0.062235128 -0.06661096 -0.13866493 -0.04675958 -0.064304635 0.13572647 -0.27169415 -0.022157907 -0.0005462039 0.114995286 0.019308893
아까운 -0.022442095 -0.56175417 -0.22401445 0.20231001 0.30928022 -0.16149943 0.31835687 0.18966916 -0.04953578 -0.2526564 0.05900602 -0.4149196 -0.44798997 -0.115010776 0.25726938 0.2192548
중간 -0.05430336 0.0063473773 -0.20136568 0.3947218 0.021059351 -0.3036005 0.074196905 -0.10288158 -0.20424423 -0.07887524 -0.0037120928 0.032882202 -0.1897182 -0.0496559 -0.060422275 0.044533167
긴장감 0.7311975 0.39472374 -0.0750902 -0.35380194 -0.07078511 0.106028125 0.003810187 -0.068581894 -0.0665059 0.07744465 -0.14718577 0.105138175 -0.009720074 0.12260624 0.6642722 0.08096713
어떻게 -0.035070438 -0.13388357 -0.0015696853 -0.06958637 0.009232086 0.026485793 0.011632501 -0.0019961798 0.009040844 -0.10034051 -0.014372496 0.018488184 -0.021257775 0.14419806 -0.12980326 0.0010154404
개인 0.04009383 -0.090253085 0.024630424 0.11196239 -0.30405885 -0.17187409 0.11586593 -0.27063218 0.15397035 -0.0063197967 -0.22395892 -0.17547445 -0.2829144 -0.027815495 -0.016988462 0.089376226
제대로 0.25240225 -0.023272814 0.06433165 -0.055390824 -0.15915897 -0.0040445193 -0.14144097 -0.01909503 -0.3889953 0.058230985 -0.040193092 0.005801924 0.077232994 0.1590845 0.16478643 0.3296784
점수 0.004171099 0.19783096 -0.1478516 0.2556742 -0.0013325872 0.020221127 -0.24975978 0.020588184 0.15623958 0.04899643 0.22258674 -0.056797855 0.073642924 -0.09195968 -0.18692711 0.04795729
부족 -0.08622548 -0.36932 -0.056652345 -0.13850181 0.06748731 -0.109725736 0.29211798 0.13009718 0.07638836 0.070773266 0.030748654 -0.23104535 -0.3268619 0.04425785 -0.3685927 -0.3203259
이유 0.0045096036 -0.069097444 -0.18567348 -0.035202306 -0.16098575 -0.099920556 0.010346778 0.07068071 -0.25097132 0.0001857734 0.26998365 -0.16370162 0.06362071 0.07984896 -0.15343626 0.020294376
노래 -0.001257309 -0.1501507 0.31027544 0.116432525 -0.2100599 -0.086000174 -0.12023096 -0.10862464 0.11827667 0.016864806 0.116645075 -0.12153847 -0.028545361 0.25723872 -0.3599093 0.21139662
만큼 0.114055805 -0.06454546 0.20462856 -0.15777189 -0.26977184 0.0014767342 -0.05868014 0.058580935 -0.046194285 0.079561755 0.18394198 -0.023140302 0.06880258 -0.019262789 0.081345804 -0.20515133
ㅜㅜ -0.1995748 -0.27705264 0.10454571 0.04270327 -0.18996906 0.13158688 0.10753313 -0.22652222 0.088433035 0.10510139 -0.16530687 0.18902116 -0.16964865 0.15110591 -0.01144459 0.23808634
라면 0.04734004 0.0069410545 0.09114916 0.0067475517 -0.18913327 0.013828375 -0.15313378 0.031471223 -0.08043225 0.17091282 0.09754552 0.010492147 -0.027649116 -0.04912165 0.014212811 -0.0029248232
시작 -0.15757449 -0.1618265 -0.07001922 -0.023214022 -0.023847125 0.05734858 0.1237936 -0.071624786 -0.2488302 0.16521433 -0.14493454 -0.19712372 -0.32877484 0.019065093 0.015092721 0.26632166
잇 0.13402411 0.15651302 -0.11286467 -0.19953313 -0.38187563 0.17295559 -0.02386685 -0.3703921 -0.056634784 -0.057460673 0.15483262 0.01593306 0.09328921 -0.13365826 0.2047355 0.24569552
구나 0.0048375535 0.010349231 -0.06982222 0.090406924 0.16370454 -0.07034854 0.006860906 0.016768478 0.0890915 -0.12371267 0.021856543 -0.053714115 -0.16494364 0.015530725 -0.026356375 0.022120269
한테 -0.067943856 -0.11955328 -0.14620237 -0.13846932 0.146319 0.10166551 0.21600254 -0.1428498 0.13645114 -0.35406297 -0.06373501 -0.16974965 -0.097590126 -0.10224879 0.18038186 0.10116395
특히 0.1252029 -0.037085038 0.29902956 -0.3075935 -0.20601803 0.041481186 -0.013377767 -0.4967294 0.21481743 -0.045347806 -0.15928178 0.060928218 -0.14580351 0.3056864 0.048073098 0.6607778
려고 -0.012089785 -0.25164443 0.19691652 0.08161135 0.13215345 -0.078522325 -0.010866662 0.034348045 0.043850414 -0.16788034 0.090467416 0.022862444 -0.095799014 -0.1800283 0.18280151 -0.07072516
날 0.14946273 0.23237383 0.08172287 0.15467165 -0.06838355 0.029031165 -0.281089 -0.21109918 -0.15945143 0.12057546 0.0892502 -0.043683756 0.22497423 5.061474e-05 0.11141185 -0.08805587
제일 -0.036181577 -0.19102497 0.053610593 -0.15151697 0.058914836 0.1351008 0.076512605 -0.07900342 -0.22235778 -0.011900249 -0.12322278 -0.14005582 0.119039595 -0.101898454 0.21321541 -0.11079954
아름다운 0.1056925 0.35797054 0.07515352 0.21504182 -0.09598552 0.5989242 -0.48373222 -0.4791292 -0.37456656 0.19776686 -0.06093149 0.41709724 -0.007118106 0.020779768 0.34110373 0.4917276
시대 0.11436857 -0.24668199 0.04844961 0.03199823 -0.19600047 -0.22002178 0.1956051 -0.12361095 -0.2703714 0.0073860544 -0.42343703 -0.14867581 -0.076723725 0.13516437 0.17187098 0.19914766
니까 0.0142673 0.029577546 -0.16764468 -0.14581776 0.121606365 0.08801376 -0.10887528 0.061666053 -0.29614803 0.040002428 0.030679775 0.09588993 0.17614837 0.14257614 0.0020063047 -0.06722437
엔딩 -0.104255244 0.05206458 0.19799905 -0.1025916 0.030215869 0.046230514 -0.043254923 0.10426995 0.18104836 0.10393582 -0.009717095 0.2622243 0.05801832 0.17210193 -0.29870516 0.05582693
당시 0.035388634 0.14198203 0.039061613 0.027760547 0.1364785 0.1247585 -0.0050828364 -0.35703486 -0.06093467 0.08076118 -0.12918213 0.30376038 -0.062406607 0.137122 0.049648408 0.3257917
나름 -0.036014475 0.30277142 0.2280591 0.060601477 -0.0517371 0.044233363 -0.016780267 -0.32446086 0.18036935 0.09399667 -0.3305401 0.39295816 0.1247752 0.085393384 -0.08757403 0.1312743
무섭 0.20162499 -0.02698756 -0.13207342 -0.11369375 -0.063931525 0.2605616 -0.12414592 -0.17956279 -0.13432504 0.031486914 0.06564099 -0.22524971 -0.034052916 0.06234749 0.20049284 0.2649598
오랜만 0.5070938 -0.13919412 -0.015971636 -0.05322429 -0.22106798 0.025509072 -0.37897363 -0.09277424 -0.058062486 -0.00043128597 0.08937442 -0.3414829 -0.19875246 0.13516961 0.38410956 0.4400428
나온 0.03171901 -0.16204077 0.102079846 0.033551667 -0.083807565 -0.049478363 -0.14796266 0.06193209 0.13902843 -0.033758875 0.21229358 -0.32238948 -0.06688783 0.016112303 -0.14835273 0.110052705
이것 0.039274614 0.037054196 -0.23302494 0.2224782 0.09385221 -0.05340411 -0.14368035 -0.12758175 0.054245293 -0.09543157 -0.20793332 0.12320575 -0.108477265 0.016490145 0.1771705 0.21644291
봐 -0.07020469 -0.13427751 -0.034891807 -0.2468875 -0.09450722 0.33402142 0.06341178 0.00080610486 -0.17465724 0.17929712 0.19004837 0.04217124 0.0011801298 -0.16792019 -0.015194752 0.081035174
팬 0.21881345 -0.2348614 -0.017502723 0.0259375 0.11858027 0.06841804 -0.18125635 -0.12017761 0.2251196 -0.009524886 0.11951832 -0.15360574 -0.2160001 0.08645943 0.14722125 0.32199633
해요 -0.09928176 -0.12896006 0.1821089 -0.070640005 -0.24269247 0.050407697 0.07797786 -0.35922712 -0.080528654 0.052362017 -0.17826152 0.3262386 -0.17666654 0.20680402 0.08610246 0.5982473
사 0.17662732 0.037562385 0.15494396 -0.05769927 -0.07198703 0.27135894 -0.40137008 -0.26926568 -0.07126376 0.17927371 0.09818276 0.056921273 -0.111108996 0.0679114 -0.041201875 0.4707085
차라리 -0.52509296 0.18216269 -0.61852205 0.49677327 0.1098589 -0.055734213 0.36062053 -0.13178362 0.5089193 -0.4816323 0.3426658 -0.52204645 -0.439757 -0.0049032345 -0.36774123 0.5248433
절대 -0.16095446 -0.19588354 0.0074502984 0.08037775 -0.030524105 0.0022282682 -0.025270063 0.043847356 -0.02823779 -0.058072284 0.38698697 -0.049214225 -0.12286341 -0.22601645 -0.06465249 0.24795929
세상 0.16031891 0.20419739 -0.012963861 0.028436968 -0.10516587 -0.0026830714 -0.31189635 -0.16371936 -0.057934836 -0.18553701 0.0673515 -0.13126998 0.26249936 0.046439104 0.24397236 0.17489536
못하 -0.29903135 -0.30086255 0.11014922 -0.08768567 -0.11644237 -0.10327964 0.3317922 -0.009956215 0.2396216 0.032917287 0.07029184 -0.10980586 -0.2685753 -0.052082483 -0.36140054 0.18088055
감 0.057599645 -0.2661545 0.3217345 -0.013651286 -0.015566727 0.11494841 -0.13059391 -0.2966471 0.31897736 0.069397055 -0.12429122 -0.17579545 -0.0767518 -0.095160306 0.16926424 0.14658882
의미 0.04385555 -0.01344603 -0.21952096 -0.058789294 -0.08003296 0.0353855 -0.14750682 0.1061372 -0.098899275 -0.09391789 -0.05629277 -0.09001496 -0.08261268 -0.04923878 0.15713945 0.07373751
봄 0.0421492 0.08884743 -0.15679583 0.029757114 -0.018208155 0.106272414 0.03282757 -0.06742712 -0.019734686 0.21528004 -0.4672477 -0.23248057 0.087281875 0.40130332 -0.12181992 -0.015300358
훌륭 0.5893229 0.12134824 0.28792977 -0.38392577 -0.20670243 0.39016935 -0.50351834 -0.33076468 -0.25165877 0.39965475 -0.095786065 0.1973365 0.13581163 0.21332589 0.34186608 0.31426597
욕 -0.14404045 -0.28597638 -0.13163316 0.13830297 0.12204707 -0.05742457 0.1673897 0.051359948 0.10600765 -0.061923258 0.3730219 -0.060863666 -0.24359773 -0.462333 -0.07616345 -0.083628386
너무나 0.3496975 0.21912865 -0.21120805 0.24271376 -0.059770558 0.06331089 -0.31428096 -0.25881067 -0.032923844 -0.072269574 -0.07070299 -0.14593366 -0.084471956 -0.047475196 0.2460155 0.41125584
강추 0.2589886 0.25359175 0.30878407 -0.13459414 -0.2786282 0.28205493 -0.2604586 -0.78678894 -0.22804786 0.15235372 -0.41992104 0.2526889 0.25757846 0.38726068 0.09639575 0.44542667
드 -0.041636016 0.02472693 -0.13896859 0.19282177 -0.08406473 -0.10112612 -0.010687185 -0.16402759 -0.13201675 0.019554542 -0.041597877 -0.025476519 -0.059863456 0.18888573 -0.052653592 0.48081344
따뜻 0.47686797 0.22768119 0.42890826 -0.3624699 -0.07752812 0.29470828 -0.25180504 -0.31517988 0.30151945 0.18224685 -0.4544202 0.36936465 0.18504563 0.47240797 0.32594538 0.14706163
됨 0.18467663 -0.054549087 0.08342866 -0.050363947 -0.14910722 0.11848588 -0.13037975 -0.3025569 -0.038278725 0.034178246 -0.24830994 -0.08811018 -0.057198096 0.1250483 0.1408565 0.28226802
빼 0.0029571275 -0.32967708 0.28226206 0.5330989 0.33067453 -0.370565 0.09058482 0.001519481 0.19822223 -0.026600529 0.04612066 -0.19757019 -0.24690588 -0.20352224 0.082704 -0.0669017
느끼 0.25517544 -0.01951285 0.12787472 -0.24607529 -0.2872459 0.072710715 -0.17369854 -0.19316866 -0.33345085 0.18162087 -0.08840917 0.042123068 -0.22600071 -0.044244375 0.22284041 0.13275862
해야 0.15062188 -0.09651719 -0.012404721 -0.17908716 -0.033111386 -0.005906186 0.030895784 -0.049636748 -0.10588974 -0.18375893 -0.28505093 -0.112316884 -0.10162662 0.15119563 0.2809241 -0.019110389
명 0.07091253 0.08084155 0.08562986 0.043467727 -0.13804337 -0.07549181 -0.007783257 0.018111229 -0.10807357 0.2833815 0.35282376 0.011182451 -0.05507824 -0.25184086 -0.14702585 -0.049657524
글 -0.069350824 0.0035742903 -0.09641186 0.029281598 -0.19172046 0.04917743 0.09315643 -0.10215706 0.27133247 -0.1598174 0.37509757 -0.28943262 -0.12009771 -0.33990678 -0.081609115 -0.29086068
던데 -0.06264637 -0.069393836 0.0031578264 -0.020529617 -0.062794924 0.19247615 0.12347201 -0.3587893 0.09264986 -0.025590125 -0.2429835 0.024410177 -0.08267154 0.3117227 -0.08457756 0.23547505
뻔 -0.025778174 -0.4373132 -0.060887598 0.18196751 -0.13263164 -0.2568404 0.09408388 0.1951518 0.17509907 -0.17873159 0.26387808 -0.14110288 -0.33975068 -0.05267899 -0.424133 -0.12731804
도대체 -0.025099164 -0.24871036 -0.4497595 -0.094936155 0.14891048 0.20966145 0.16387382 -0.028459052 0.25638837 -0.20600873 0.1796388 -0.30105886 -0.29656258 -0.164604 0.17867096 0.17809841
어야 -0.057483234 -0.1753475 -0.20810485 0.20780376 0.39699167 0.053488575 0.22596122 -0.09844669 0.27834707 -0.12858407 -0.115098454 -0.16634 -0.19478682 -0.18596019 0.17988014 -0.02604011
마다 0.11089355 -0.120248 0.25378698 -0.4057899 0.15310493 0.4889196 -0.2111774 -0.17739724 0.062780105 0.15051857 0.11951788 0.19546801 -0.22079307 0.16776027 0.22818488 0.5448475
답답 -0.14705417 -0.045150068 -0.36054638 0.37647828 0.12796097 -0.21669468 0.2753269 -0.011019584 0.34434077 0.064616054 0.44915178 -0.36659747 -0.30095842 -0.25544822 -0.42694262 0.047329698
전쟁 -0.09380621 0.029590482 -0.010608437 -0.045910984 -0.2814468 0.053658795 -0.04616012 0.051488105 -0.10032402 0.105167285 0.28075492 -0.017383048 -0.025745548 -0.20289299 -0.13236158 -0.12843885
놈 -0.11556798 -0.019340618 0.25429448 0.040651534 -0.0025094317 -0.15167668 0.08506453 -0.038746215 0.021425137 0.13032226 -0.0664954 -0.042829264 0.13521194 -0.17321244 0.09056053 -0.20682767
무엇 0.10327858 -0.053851016 0.11455991 0.10390842 -0.21045236 -0.028361049 -0.24388482 -0.21214132 -0.11532485 0.19912729 -0.106586576 -0.048751548 -0.14373083 0.14980383 0.12243953 0.26262388
설정 -0.16735509 -0.097517595 -0.12254656 0.022780443 0.49756977 0.10695364 0.12622108 0.13103904 0.15378322 -0.16854921 0.19461672 -0.16172281 -0.076159276 0.06626137 -0.038820025 -0.011533939
흥미 0.17206079 -0.5496953 0.25623158 -0.45173594 0.11219712 0.28290322 0.05834639 -0.16387676 -0.19741006 -0.060976967 -0.23611362 -0.5712284 -0.2624044 -0.26232693 0.5822955 0.22359432
만화 -0.054086655 -0.30970705 -0.20503129 0.13592829 0.015781997 -0.16666855 0.1692356 0.13408491 -0.027851995 -0.15810727 0.11138278 -0.16309877 -0.16074103 0.28119633 -0.33709618 0.13936982
그저 0.09906887 -0.25101984 -0.11121916 0.014280556 -0.072503485 -0.05108339 0.14872055 0.15779042 0.076251134 0.25942788 0.0856416 -0.52326334 -0.15507236 -0.033359554 -0.21811278 -0.24306604
감정 0.10185716 -0.23417477 0.23998657 -0.11265056 -0.26541987 0.12478778 -0.1781384 -0.2603215 0.013895181 0.32988092 -0.09421538 -0.19841696 -0.117089175 -0.07760145 0.07213121 0.19114399
준다 -0.1539473 0.079088636 0.042020023 -0.25837737 0.19494514 0.3378749 0.059041165 -0.18426575 0.066386126 0.19061977 -0.07978284 -0.124416515 -0.019528646 0.12025241 -0.14649194 0.20171456
수작 0.47507823 0.11152669 0.33965877 -0.44045004 -0.46570387 0.49300057 -0.307404 -0.57676196 -0.45248848 0.24174598 -0.5264821 0.13206945 0.08422771 0.5760464 0.4732504 0.8759961
행복 0.30663002 0.2625423 0.27057904 -0.32883286 -0.23151687 0.18603207 -0.10790948 -0.3435054 -0.1182396 0.22864972 -0.45223188 0.3031602 0.08736829 0.40407634 0.301842 0.34054843
신선 0.5422889 0.22370382 0.5019679 -0.09789265 -0.063466266 0.04825967 -0.463317 -0.32528076 -0.24433331 0.10686138 -0.32647523 0.41087386 0.22570774 0.37021497 0.41141906 0.42233035
미국 -0.16889861 0.3445055 0.085404 -0.09794782 -0.15485199 0.13009281 -0.078514494 -0.01860106 -0.23155677 0.21247731 0.12774058 0.29130703 0.20373072 0.074726805 -0.51007825 -0.032563187
앞 -0.085423194 0.09554584 -0.020092627 -0.17678414 -0.20748426 0.19786973 -0.0372083 -0.07080781 0.17286114 0.0036115088 0.101579845 -0.15932381 0.0501792 0.15901695 -0.18043469 -5.6641933e-05
허접 -0.11913394 -0.5541883 -0.2868247 0.4266342 0.06526871 -0.30996758 0.27775913 -0.08038762 0.60663074 -0.44420806 -0.048872706 -0.74463123 -0.8320377 -0.2935554 0.017996646 0.13087478
형 0.05750247 -0.13813616 -0.06200927 -0.10636048 -0.1692214 -0.033266418 0.041739404 0.20157306 -0.728399 0.33781558 -0.3041804 -0.10376283 0.28754255 -0.075585686 0.14572357 -0.2915472
세 0.06699696 -0.16152807 0.07059026 -0.049348935 -0.094806515 0.010476459 -0.036380485 -0.20869064 0.18667632 -0.08958855 0.016013546 -0.289155 -0.20114113 0.05930041 -0.13635923 0.123463824
시절 0.120962255 -0.2982015 0.23603575 -0.24337047 -0.30650732 0.051209856 0.048694156 -0.2175381 -0.111580245 0.17092097 -0.24572065 -0.03422704 -0.24688083 0.24335495 0.10387808 0.07658983
관객 -0.12706757 -0.3097064 -0.27184674 0.3206443 0.07906997 -0.25572646 0.24611211 0.17872494 0.052245054 -0.3419879 0.1700569 -0.28602538 -0.26338512 -0.08416382 -0.028943542 0.07953462
사실 0.25982046 0.17311981 0.20934947 -0.22157769 -0.20320933 0.24723157 -0.08980681 -0.1045086 -0.069124125 0.12619883 -0.45580697 0.038226876 0.19618654 0.1683491 0.27512205 0.16695784
배경 0.015128245 -0.3783294 -0.05682813 -0.02737812 -0.17429107 -0.02164451 0.22766525 -0.24400395 0.35153463 -0.06207926 -0.17865331 -0.42424992 -0.43334198 0.07848053 -0.19171098 0.18341048
어도 -0.0073516765 -0.061081093 -0.1799914 0.2444631 -0.040383957 -0.20948906 -0.047110926 0.026312107 -0.13744205 -0.1272028 -0.06198174 -0.13200928 -0.089691974 0.09048992 -0.0005262929 0.24750493
답 0.011305668 0.011901262 -0.032118436 -0.17725553 -0.033449966 0.093387865 -0.07811497 -0.27184615 0.08904222 -0.10394805 -0.0020289687 -0.12894353 -0.105693646 0.018387983 0.12702492 0.18155526
초반 0.06441696 -0.17147094 -0.15156887 0.22224535 0.017893407 -0.123520374 0.024436366 0.06429978 0.3425978 -0.33140895 0.12199012 -0.030989217 -0.35250014 -0.1441903 -0.19018064 0.094529785
웃음 0.116580695 -0.055835232 -0.05370115 -0.16509205 -0.08005347 0.1609102 0.02609005 -0.047677986 -0.050312378 0.00956524 -0.11882941 -0.24058868 -0.18792886 -0.07319927 0.325828 0.10644462
엄청 0.10718091 -0.07508149 -0.09887268 -0.21620834 -0.030314727 0.34645292 -0.08285482 -0.09584597 -0.30546272 0.10615973 -0.02444636 -0.01576818 -0.18995954 0.11805977 0.22798108 0.22099105
자신 -0.29154497 -0.071089976 -0.19517775 0.014140514 -0.16468972 -0.16220143 0.3070516 -0.015864857 -0.007162398 0.08750739 0.092678815 -0.00018117367 -0.17110997 0.1304736 -0.34441298 0.21484858
더라 -0.094861925 -0.06930116 0.22360113 -0.17324187 -0.076359436 0.15740567 0.011054029 -0.29824972 0.01679413 0.11028823 -0.5006949 0.06853818 -0.12553638 0.20537661 -0.012292594 -0.06359463
추억 0.0768528 0.12132624 0.061513472 -0.036941826 -0.041651554 0.22968371 -0.08254697 -0.32859707 0.124748014 0.082354866 -0.0062842835 0.065821975 -0.016635116 -0.016208092 0.25963396 0.34644237
군 -0.16529922 0.07080284 -0.058650926 -0.06961011 -0.03863184 0.09092977 0.054292288 0.02533691 0.15422185 -0.19924134 -0.04617933 0.03941907 -0.003469435 0.060872052 -0.2814157 -0.05197859
질 -0.13352117 -0.112497404 -0.17478125 0.1298632 0.053385943 -0.18518189 0.11299481 0.065170914 0.09062526 -0.17822829 -0.012036206 -0.32031184 -0.05324947 0.13798834 -0.22769734 -0.012417076
캐스팅 -0.20127067 -0.28650662 0.10282307 -0.092149846 0.013855983 0.04426912 0.16449253 0.20842789 -0.10941379 0.22418775 0.10893937 -0.25712696 -0.09853755 -0.19006018 0.04914104 0.10543788
멋있 0.34418684 0.11678947 0.25819194 -0.18391706 -0.24583346 0.20159394 -0.36395055 -0.35845974 -0.22427261 0.20102239 -0.11072731 0.02464382 -0.005297865 0.27122736 0.08559259 0.3534213
라니 0.1415849 -0.07564174 -0.15553203 -0.0110661825 -0.2364732 0.0010521618 0.043764014 -0.24651235 0.04218973 0.24489637 0.1783608 0.052771628 -0.20112982 0.12820159 -0.098060444 0.02301239
시나리오 0.25068286 0.11752451 -0.38565508 0.12607916 -0.0017788887 -0.12747516 -0.045506448 -0.060444564 -0.17498866 -0.116587445 -0.033983495 -0.4496408 -0.025159644 -0.01423456 0.24145345 0.12474757
정신 -0.0019945533 -0.0827597 -0.23562056 0.15620838 0.17591737 -0.11043478 -0.030116446 0.067822516 0.045857094 -0.2818806 0.10835447 -0.11358455 -0.19123387 -0.10588868 0.010643983 0.09500568
어색 -0.12702216 -0.4478332 0.20779385 0.3860354 0.38591307 -0.4461311 0.3196273 0.10352455 0.36739966 -0.11542822 0.12995058 -0.2222883 -0.60522395 -0.1424236 -0.102693155 0.07868072
첨 0.0004876736 -0.079251885 -0.06287355 0.09695898 0.008890385 -0.23189244 0.04405563 0.110643096 0.1362057 -0.07454043 0.052980654 -0.11344833 -0.0834598 0.14761811 -0.1632051 -0.004604868
머 -0.15216805 -0.3609763 -0.22570854 0.2093669 0.047002185 -0.34354246 0.1508478 -0.02808057 0.009567137 -0.032351814 -0.12193486 -0.202782 -0.25002316 -0.04958844 -0.1439379 0.10211688
슬프 0.2386519 -0.031771936 0.27195597 -0.17378522 -0.2235213 0.15464517 -0.12548968 -0.093832724 -0.16710821 0.08599576 -0.13318737 0.16706055 0.075596176 0.472181 0.09017406 0.09445549
밖에 -0.17662174 0.053138983 -0.055680998 -0.1557073 -0.06700146 0.14328878 -0.021266922 0.072532706 -0.06158966 0.06275708 0.2601901 0.05582845 -0.0025209226 0.050024036 -0.16054434 0.22258487
분위기 -0.04626528 0.07126239 0.07287027 0.087250486 -0.013568043 0.017485894 -0.079802826 -0.2746753 0.16696711 -0.07443697 0.13509558 0.022591498 0.10063884 -0.08538063 0.016144404 0.25629628
소름 0.10685474 0.03780437 0.23956609 -0.20341296 -0.2533528 0.24458243 -0.48560506 -0.37743974 -0.040420856 0.061072234 -0.1674869 0.035783518 0.014677103 0.38508415 0.03390573 0.35113376
멋진 0.5058411 0.042549893 0.14012793 -0.10342911 -0.057102326 0.23465303 -0.27953562 -0.29838014 -0.2517678 0.2146468 -0.33008924 0.1998856 -0.11842563 0.30711108 0.42314917 0.28521186
힘들 -0.2750521 -0.20123823 -0.22063981 0.27212587 -0.1334243 -0.26833546 0.34259516 0.059140507 -0.06521742 -0.1902085 0.26432317 -0.36308345 -0.2859145 -0.0152756395 -0.5019835 0.03950056
오늘 0.024545575 0.08796107 0.079188704 -0.118726045 -0.056502026 0.26369035 -0.18228067 -0.25581446 0.09510642 -0.04214409 0.11750799 0.015612664 -0.025548114 -0.03863714 0.14356354 0.29342315
어이없 -0.3755924 -0.5595243 -0.07541608 0.70917416 0.6056077 -0.3012287 0.40299436 0.24767932 0.41833648 -0.48628202 0.5024588 -0.41812494 -0.54220104 -0.39107695 -0.028737243 0.16161469
봐서 -0.056731433 -0.044379737 -0.15735458 0.06106661 -0.030705614 -0.07497845 -0.00704186 -0.051637508 -0.0626647 -0.052760307 -0.02638177 -0.060122974 0.0078045637 0.116654 -0.066022016 0.23744789
간 0.20769118 -0.18781973 0.12275599 0.10395297 -0.12771507 -0.19371404 -0.1759526 0.09261768 -0.2282524 0.036364857 -0.12798733 -0.104477644 -0.024651794 0.24394089 0.18524665 0.038676836
집 0.05294845 0.096065745 -0.23216519 -0.023636363 -0.002777 0.019019663 -0.08140458 -0.0644083 -0.05243822 -0.08156268 -0.15637076 -0.07351803 0.0071020895 0.15798618 0.0052344967 -0.029888567
구성 0.17565574 -0.27501696 -0.15385985 -0.07704885 -0.23703624 -0.05123175 0.1243951 -0.051782407 -0.25134802 -0.07229848 -0.18298753 -0.34627905 -0.2900765 0.06541708 0.14581257 0.10817352
잡 0.10460247 -0.3014108 -0.033583123 0.057931177 -0.06454386 -0.11576451 0.08472094 -0.112405285 -0.056214284 -0.03290509 -0.22774543 -0.16365989 -0.34757695 0.121734805 0.04686404 0.21872215
엄마 0.043454114 -0.0053584143 0.04246774 -0.03511389 -0.20094332 -0.049804613 -0.18884695 0.018660668 0.02300432 0.005961008 -0.042130727 -0.1178747 0.039770145 0.02843776 -0.05309683 0.09039084
함께 0.32657 -0.018461723 0.13392729 -0.1611438 -0.27808723 0.1024395 -0.08631311 -0.26857707 -0.3183463 0.31137374 -0.13243385 0.038235046 -0.15741529 0.25954998 0.09420416 0.6722394
위해 -0.14653079 -0.11363229 0.027413627 0.12932715 0.07520075 0.23253164 -0.13206784 -0.1690706 0.1053338 0.121836476 0.4671447 -0.06439273 -0.25403306 -0.41061488 -0.08839544 0.43380103
잊 0.21713538 -0.203504 0.5269471 -0.112448715 -0.24938329 -0.0008684396 0.09868236 -0.37316483 0.19645163 0.1717209 -0.39681455 0.3733181 -0.10662266 0.51306224 -0.077789314 0.2684485
졸작 -0.58882946 -0.75737345 -0.3198767 0.34363067 0.13786067 -0.4333931 0.6867462 0.43167463 0.7568968 -0.77434283 0.2612115 -0.63260216 -0.7486407 -0.68372744 -0.21277325 0.0028416929
류 -0.0016120792 -0.17237565 -0.3198963 0.09864509 0.26870152 -0.048675805 0.027339308 -0.029379964 0.13906014 -0.24987487 0.14346454 -0.20724294 -0.29214486 -0.14267509 0.19167206 0.14629616
이딴 -0.39832535 -0.17061332 -0.4627657 0.20754549 0.6775051 0.15077145 0.28187835 0.109792024 0.24653533 -0.31833816 0.7970109 -0.33396402 -0.3672765 -0.18874006 -0.16128936 0.29100126
문제 -0.17469409 -0.15801732 0.25194517 0.22005168 0.20311628 -0.2190692 0.062146038 0.14611736 0.5099507 -0.28083163 -0.0037432502 -0.22369066 -0.05373508 -0.3834698 -0.0124993315 -0.4575424
등 0.17603806 -0.054587256 0.039163787 -0.12292653 -0.13208519 0.21422769 -0.37040654 0.011132387 -0.088524066 -0.05887995 -0.016458191 -0.14704058 0.04937215 0.24794994 0.051522676 0.30305707
유쾌 0.64916235 -0.020611113 0.56799763 -0.5097755 -0.47411832 0.12547185 -0.3306651 -0.14431906 -0.05500739 0.5208519 -0.16323009 0.044251993 0.15422033 0.10705742 0.38945413 0.08175666
킬링 0.08813127 -0.09178734 -0.24807277 0.1550631 0.096386574 -0.06640571 -0.029487098 0.04078435 0.12461909 -0.33144847 0.20951669 -0.17929804 -0.18438686 -0.24734992 0.16845286 -0.1331954
스러운 0.10532117 -0.18465844 -0.035426825 -0.20411375 -0.0027230657 0.23235309 -0.041189067 -0.07382787 0.06406652 -0.17027381 -0.14599253 -0.15939075 -0.07223856 0.32597753 0.07353428 0.25390613
결국 0.0865808 -0.19802266 -0.0926212 0.014531505 -0.1389196 0.06248458 -0.016196636 -0.078505926 -0.02231268 0.06848899 0.07710403 -0.09417745 -0.19541699 0.11455628 -0.14186046 0.06363292
소리 -0.13412324 -0.10845659 -0.17531866 -0.057155047 0.06251761 -0.021309614 0.17473331 -0.035632502 0.40328383 -0.26700222 0.09177857 -0.54181087 -0.15688501 -0.10678356 -0.19711202 -0.19674121
낫 0.09712661 0.1365636 -0.12144667 0.1474193 0.1483397 0.0464463 -0.1361559 0.19213453 -0.42712596 0.08062643 0.21316953 -0.13150781 0.17701434 -0.4323489 0.13896842 -0.1308885
뭘 -0.2361869 -0.28633618 0.4189744 0.026123967 0.15009135 -0.10752037 0.16131258 0.26296532 0.37130257 0.18185201 0.51219076 -0.27263227 -0.3236477 -0.19297598 -0.33968818 0.061021984
뭔 0.00012608587 -0.1619894 -0.008874198 0.24810152 0.14957528 -0.19790766 -0.02947246 0.19190909 0.3466807 -0.15540735 0.2228507 -0.32338414 -0.34053758 0.039465636 -0.23183392 -0.22297159
한데 0.1150462 0.010021371 0.039802574 0.10386819 0.23228957 0.114799105 -0.16750523 -0.23647177 0.19762197 -0.008988542 -0.015199313 -0.055395197 -0.1672724 -0.09210805 0.113980696 -0.022376794
역사 0.15348904 0.13223115 0.05141581 0.011139801 -0.04702682 0.15382531 -0.19384578 -0.12076299 0.0391801 -0.0037407477 0.06453979 0.03066405 -0.083010085 0.21194197 -0.049101096 0.15681398
제발 0.0688178 -0.07486572 0.023930646 0.11658008 0.098354265 -0.11311107 0.09030092 -0.15933499 0.17133483 -0.07044938 -0.23137583 -0.028142674 -0.2532674 -0.058899794 0.19918889 0.05617201
포스터 -0.31042355 -0.0025119977 -0.024194637 0.05921606 0.008245129 -0.10710559 0.11286096 0.15058056 0.055133093 -0.033277925 0.19051614 0.031767953 0.12190816 -0.03996238 -0.3108466 -0.036816683
아무리 -0.42159912 -0.22268522 -0.077333175 0.017606247 0.028693132 -0.047104273 0.27410644 -0.1745249 0.3103269 -0.116374575 0.14601694 -0.117657855 -0.5352864 0.056925505 -0.13354565 0.76177096
코믹 0.13418719 -0.1715129 0.20464762 0.04701566 -0.2134825 -0.00043347906 -0.007389037 -0.13955757 0.15561749 -0.020919 -0.1035583 -0.13938838 -0.08727027 0.22268716 0.07131259 0.00948746
어떤 0.36645898 0.12422056 0.073636845 0.12856315 -0.1879896 -0.2969711 -0.104969084 -0.092924796 -0.05411073 -0.029889772 -0.2594608 0.18221377 0.21521038 0.4069228 -0.05155314 -0.12861899
얼마나 0.14987153 0.10479115 0.019817818 0.08836431 0.16992237 0.23318762 -0.26185519 -0.1438427 -0.033146318 0.12074491 -0.028268237 0.09682718 -0.1549847 0.24840315 0.16843748 0.30399433
완벽 0.24996583 0.19655356 0.37224996 -0.44296712 -0.395997 0.5283001 -0.23629834 -0.22750734 -0.008375378 0.11008172 -0.115188904 0.115327716 0.2774003 0.19013031 0.15477294 0.16199388
맘 0.5113569 0.06445788 -0.1741839 0.15371194 -0.026207563 -0.12593645 -0.41924128 -0.20549536 -0.082548305 -0.11076368 -0.15659395 -0.0056695407 0.07605012 0.23425764 0.3174072 0.34159335
애니메이션 0.037864644 -0.070795365 -0.07342601 0.07808716 -0.22981453 0.13084938 -0.15553649 -0.15660794 -0.24272951 0.048023295 0.3093719 -0.15729308 0.05663787 0.25548998 -0.14751282 0.30582932
러 -0.03369963 0.030666841 -0.1172284 0.06580384 -0.06123583 0.0037184611 0.073219776 -0.056603502 -0.05891089 -0.03881006 -0.1815196 0.07704303 -0.095585674 -0.0056838817 0.06072707 0.033483993
주연 0.14678812 -0.08353727 -0.08618777 0.1009317 0.00847387 -0.14415547 -0.09386899 -0.0012356181 0.0013287023 0.23310916 0.13261694 -0.14726336 -0.21768335 -0.033417318 -0.1051278 -0.26279277
보고 -0.021267105 -0.1766123 0.08980522 -0.093112096 0.08797094 0.038464215 -0.015809698 -0.13542864 0.012540379 -0.112812065 -0.11842291 0.052484244 -0.15569344 0.14798857 0.1708881 0.38003436
후회 -0.049368907 0.009130008 0.117689654 0.14780219 -0.18612413 -0.20807493 -0.07479652 0.19204159 0.23875369 0.15533043 0.03255193 -0.05973809 -0.13074873 0.021628864 -0.5851856 -0.19826068
버리 -0.15269735 -0.13459966 0.11119284 0.074409105 0.017540026 0.023792757 0.069950484 0.060809955 0.10026302 -0.13275138 0.40766343 -0.1199608 -0.05031958 0.025933057 -0.5761172 0.07061338
뻔한 -0.1217848 -0.3922156 0.033859808 0.06780764 -0.1275018 -0.075155675 0.28404525 -0.036832616 0.33031535 -0.03692567 -0.064958595 -0.88891274 -0.47002745 0.022840455 -0.39375165 -0.19908527
나요 -0.18181019 0.07544303 0.1430694 -0.06522881 -0.060451735 0.3075239 -0.07571962 -0.24250984 -0.0010864913 0.116280995 -0.0848852 0.17156442 -0.033678394 -0.014783201 -0.09030281 -0.02962076
어릴 0.06434083 0.07178139 -0.07539572 -0.054130297 0.0313933 0.13753341 -0.18063928 -0.2540676 -0.14849766 0.11866576 -0.012637227 0.17600231 0.05504599 0.17213017 0.11668923 0.32279503
진부 -0.12765831 -0.17326176 -0.20937613 0.282107 0.094123274 -0.46180165 0.4481718 0.23631154 0.32159266 -0.0039400645 0.2140339 -0.43878552 -0.29533434 -0.04782934 -0.14502124 -0.17370528
나올 -0.08169745 0.056113794 -0.037317254 0.26433745 0.0048911544 0.09627627 -0.1918655 -0.30610183 -0.14363411 0.21114616 0.26970157 0.14488922 -0.053286582 0.27211258 -0.24643384 0.3388277
장난 -0.2479624 -0.17460303 -0.16734952 0.2966808 0.12731081 -0.24682374 0.38875964 0.1319265 0.5251459 0.32616636 0.43862945 -0.14497785 -0.82738453 -0.03538567 -0.41056973 0.6393167
출연 -0.0023259483 -0.106579795 -0.28160828 0.15507069 0.052173898 -0.19283496 0.08127776 -0.0044239825 0.100536354 -0.21182173 0.045136258 0.088980034 -0.25089598 0.025813319 -0.07254843 0.080195785
보단 -0.036469847 0.068452895 0.16043851 0.07948657 -0.14458023 0.06746853 -0.08969733 0.29784405 0.1663539 -0.06355229 0.2769714 -0.32164362 0.036277987 -0.27129227 -0.2141721 -0.4113756
큰 0.23055242 -0.16729218 0.13003819 -0.06398516 0.012068161 -0.052109312 -0.21068309 0.08794423 0.19547391 -0.08104967 -0.032246735 -0.032765053 -0.098145254 0.18936728 0.06414377 -0.1112157
책 -0.016944915 0.14597172 0.4086789 -0.08631767 -0.110117584 0.08283663 -0.22902799 -0.08286855 0.08981344 0.16190423 0.0066929497 0.3236287 0.036730506 -0.009826287 -0.26520345 -0.11184218
됐 0.2891954 0.20407362 0.111840576 0.15742764 -0.19244257 0.088230625 -0.28014863 -0.3960049 0.09657854 -0.08301963 -0.10383743 -0.19056642 0.014957059 0.084366664 0.18193652 0.23292223
영화관 -0.16977291 -0.15149483 0.15421852 -0.00090048846 -0.04758931 0.027837778 0.0055784234 -0.12240811 -0.2291166 0.3137409 0.29129985 0.26922968 -0.032736395 0.10765148 -0.11218591 0.29177007
밖 0.04864015 -0.1645649 0.34955102 0.11639053 -0.20342554 -0.10159191 -0.15396976 -0.16737017 0.035103194 0.18305698 0.102105275 0.028938085 -0.28580156 0.20177445 -0.15035884 0.23309283
더니 -0.057244796 -0.50751334 -0.0627508 0.1272568 0.31902754 -0.15945545 0.07231824 0.34958783 0.04783427 -0.17154342 0.058821905 -0.087706216 -0.18640515 -0.13655914 0.078659765 -0.35218367
개연 -0.16742459 -0.38363975 -0.40841195 0.2518068 0.29215682 -0.13551848 0.3243093 0.11013258 0.07234841 -0.3320911 -0.016480224 -0.48819306 -0.43828985 -0.23075597 0.22960296 0.22131759
둘 0.083975434 -0.19451992 0.042053662 -0.122219674 0.14640291 0.14832567 0.024754917 0.15139489 -0.11505725 -0.030207437 0.027493935 -0.15934339 -0.20999873 -0.23983766 0.3678792 -0.14121726
ㅅ -0.06370698 -0.2089187 -0.15099025 0.22578247 0.10583744 0.03140401 -0.12672767 0.067103915 -0.14963515 0.026466759 -0.022966705 -0.3519291 -0.19523098 -0.22528912 0.34619612 0.18662001
충격 0.09736916 0.1845337 0.071509555 -0.13436508 -0.28410667 0.13756259 -0.13657935 -0.20227003 0.17470542 0.18802512 0.056566667 -0.06636596 0.08486838 0.07065266 -0.2455587 -0.16460316
여기 0.11785 0.014008934 -0.05319438 -0.18405552 -0.03020646 0.08188763 -0.004576709 -0.10553772 -0.2659893 0.012649695 -0.06465835 -0.02164953 -0.10925498 0.26814184 0.13038638 0.33666268
극 0.12672405 -0.104597755 0.004830881 -0.18636523 -0.10642595 0.042165074 -0.0100185955 -0.07675496 -0.106459826 0.088486284 -0.23761718 -0.108284876 -0.0021537195 0.105712764 0.14246903 -0.10240215
난다 -0.27209106 -0.20348519 -0.23761427 0.10351244 0.08788631 0.16659227 0.08372891 -0.08324523 -0.06934062 -0.32624063 0.20509262 -0.51802266 -0.1464541 0.0030055963 0.08030814 0.4162069
평가 -0.084734485 0.22896647 0.27524585 0.059819143 -0.46257487 0.016675817 -0.05674781 -0.15387672 -0.35741714 0.31483608 0.1349336 -0.0014703997 0.14145814 0.06429922 -0.21544926 0.13373916
잔인 0.22062835 -0.1501972 -0.010215468 0.26323712 0.014504165 -0.12062734 -0.08266886 -0.2580181 0.004805582 0.15023023 -0.048726607 0.08442129 -0.18762165 -0.11638363 0.06925689 0.24706729
아름답 0.29077047 0.17614336 -0.035510194 0.24691343 -0.03345958 0.07060177 -0.15416974 -0.3103258 -0.6212338 0.23334411 -0.03192104 0.28503928 0.10365692 0.23411293 0.32764322 0.36189362
줬 0.09800937 -0.053030983 0.13687277 0.020668343 -0.2656459 0.004161636 -0.08634729 -0.26684877 0.06947244 0.19268662 -0.101009265 -0.3425027 -0.14901672 -0.2261723 0.13742237 0.16920218
얘기 0.088490315 0.022279484 -0.047298647 -0.0043348074 0.19351791 -0.05530675 0.10131039 -0.14641781 -0.118295416 -0.10629915 -0.23614886 0.03387853 0.09644187 0.17017736 0.1681008 -0.14490901
예술 0.14162219 -0.17119083 -0.10237836 0.11098148 0.049061384 0.12949017 0.019699233 -0.1537211 -0.07182952 0.0263053 -0.17310755 -0.12748131 -0.06028475 0.08200446 0.23739271 0.1355684
갈수록 -0.037648488 -0.17280118 -0.09906974 0.23400477 0.16741851 -0.0771169 0.1545932 0.009616892 -0.08301657 -0.020348014 0.18694896 -0.118539624 -0.19978783 -0.13388316 0.09915085 0.029358143
매우 0.42708138 0.10825463 -0.17053014 -0.15570737 -0.044119757 0.06691117 -0.07329829 -0.1639506 0.006666356 -0.116146155 -0.21524842 -0.06986691 -0.018776374 0.059747487 0.41963077 0.35016438
든 0.09631428 -0.3041701 0.0074510686 -0.08300125 -0.028353348 -0.05510598 -0.07880456 0.03978077 -0.02503443 0.1600825 0.06455663 -0.07011697 -0.11705527 0.18845104 -0.023003247 -0.011427211
위한 0.08004298 -0.1162868 0.1748669 -0.07186184 -0.10334699 0.051119674 -0.10911354 -0.105540946 -0.22250251 0.18127169 -0.057522614 -0.23528375 -0.03140022 -0.037425455 0.0136608025 0.19810991
불 -0.41716555 -0.14358126 -0.22746933 0.13252464 0.05077656 -0.26109564 0.35241184 0.31395915 0.26361132 -0.36874542 0.2626542 -0.06611533 0.07607329 0.06450974 -0.5138306 -0.12047951
꺼 -0.20136875 -0.05747559 -0.004464823 -0.01233035 0.08876694 -0.07887767 0.05150881 -0.030919319 0.24653709 -0.16933946 -0.290365 0.062387656 0.14049618 -0.25809038 0.0073249424 -0.38414052
이후 0.071373425 0.08296006 -0.3532872 -0.094176635 -0.24941675 0.016147133 -0.058444083 -0.06129415 -0.07366987 -0.3869147 -0.19912066 -0.47772056 0.097562686 0.22415972 0.08969814 0.03716719
이리 0.50447166 -0.15076135 0.007638019 0.22801174 0.057111926 -0.006956121 -0.29292315 -0.22372255 -0.19031794 0.08557187 -0.5579441 0.034419306 -0.3883076 -0.07018771 0.53643084 0.49759743
